516 64
114 -0.058306 -0.058841 0.565227 -0.257391 -0.019893 0.239390 0.360024 0.345185 -0.499218 0.629669 0.204821 0.231870 -0.411344 -0.189361 -0.425688 0.080549 0.414236 -0.185702 -0.489879 0.507316 -0.072922 -0.218655 -0.416263 -0.070483 0.095200 0.253358 -0.035901 0.112381 0.019414 -0.012970 -0.166035 -0.144760 -0.449015 -0.270000 -0.343383 -0.121742 0.280898 0.245705 -0.003744 0.075978 -0.558521 0.593867 0.395234 -0.156164 0.287062 -0.088882 0.090076 0.471670 -0.127667 -0.576680 0.089236 0.312272 0.520113 -0.078886 0.605068 -0.496881 0.064181 -0.050771 -0.256383 0.710454 0.118314 0.444738 0.061163 -0.115787
55 0.190650 -0.372086 -0.121096 0.097121 -0.089515 -0.248302 -0.667640 -0.301159 0.141164 1.005607 -0.026192 0.337394 -0.241157 -0.205020 -0.019365 -0.979041 -0.491883 0.915232 0.173675 0.063871 -0.423219 0.010358 -0.054806 -0.053285 -0.172914 -0.141231 -0.159684 0.208570 0.474761 0.173400 0.456344 -0.656189 0.243686 -0.618145 0.129489 0.038546 0.336783 0.389084 -0.054171 -0.243964 -0.473365 0.084449 -0.150869 0.557377 -0.185189 -0.360417 -0.131249 -0.179292 -0.631172 0.275801 0.008222 -0.246953 -0.518549 -0.122309 0.368062 0.123383 0.559413 -0.597079 -1.162041 -0.265954 -0.450510 0.169872 0.327119 -0.977125
87 -0.304817 -0.195174 -0.081284 -0.183017 -0.098896 0.074778 -0.389323 0.227877 -0.022528 0.329372 0.370894 0.079672 -0.441632 0.123081 -0.530769 0.358178 0.064241 0.187251 -0.262133 -0.128798 0.564148 -0.539235 -0.853736 -0.374622 0.358761 0.791355 -0.328030 0.038316 0.069049 0.207838 0.068844 0.283018 -0.221473 -0.355413 0.319199 0.262830 -0.108637 0.158154 -0.400609 0.154817 0.344628 0.291939 0.411871 0.446767 -0.418106 0.038623 0.247812 -0.027135 -0.001984 -0.496766 -0.547981 0.411368 0.178244 -0.634433 -0.141895 0.427710 0.536113 -0.245122 -0.582928 0.545078 -0.382725 0.151171 -0.244479 0.154525
137 -0.412472 -0.189137 0.348892 -0.237566 0.448992 0.112618 0.503776 0.411942 -1.196677 0.840842 0.796511 -0.001772 -0.288774 0.257547 -0.215579 -0.016492 0.319402 -0.364524 -0.473588 0.005567 -0.106082 -0.367164 -0.242077 -0.275906 0.152091 0.094590 0.018989 0.069181 0.220436 -0.132616 -0.087225 0.045744 0.080845 0.088964 0.010725 0.284840 0.017033 -0.223570 -0.083304 0.170413 -0.656005 0.454822 0.172541 -0.190805 0.174118 -0.094335 -0.061776 -0.052970 -0.329196 -0.461190 -0.172357 0.017350 0.309203 -0.235784 0.176945 -0.505616 -0.275964 -0.500557 -0.430107 0.240657 -0.012285 -0.205424 -0.188816 -0.313388
47 0.056860 0.339067 0.035397 -0.032242 0.187113 0.542899 0.614160 0.025547 -0.483662 0.752073 0.033248 0.122297 -0.875021 -0.022921 -0.029707 0.095162 0.177652 -0.264706 -0.502317 -0.110981 -0.077847 -0.442214 -0.173714 -1.016590 0.376576 -0.015024 -0.294015 -0.254810 0.198011 -0.148768 -0.272019 -0.644403 0.114127 -0.317104 -0.776325 0.626907 0.191778 0.694693 -0.244393 -0.274012 -0.708959 -0.071958 -0.279976 -0.033470 0.090035 0.236199 0.002111 0.191825 0.293672 -0.531417 -0.572682 0.098424 0.155678 -0.183201 -0.148593 -0.313096 -0.181270 -0.090266 -0.247370 0.314162 -0.102481 0.212221 -0.199276 -0.005903
634 -0.417981 0.423491 0.420916 -0.469593 0.394939 0.024581 0.009187 0.326231 -0.904625 0.816668 -0.139880 0.090453 0.126911 0.095234 -0.457251 -0.373676 0.780999 -0.162668 -0.796016 0.232795 0.360383 -0.350582 -0.273533 -0.184197 -0.015164 0.203293 -0.298367 0.403620 0.475707 -0.039438 0.210058 0.310478 0.035832 0.267996 0.158781 -0.032933 0.308526 0.328550 0.240589 -0.198828 -0.760930 0.254684 -0.070832 -0.353978 0.112246 -0.178875 -0.039227 0.339456 -0.342400 -0.249350 -0.253754 0.144734 0.216744 -0.299621 0.402867 -0.424204 0.022699 -0.541890 -0.143284 0.654917 -0.210002 0.120358 -0.419619 0.060840
117 -0.528234 -0.151635 0.339785 -0.061272 0.181000 0.471240 -0.019736 -0.016898 -0.528394 0.518504 0.472939 -0.083449 0.202336 -0.302058 -0.279637 -0.128925 0.012301 -0.269101 -0.240600 0.650667 -0.448609 -0.301439 -0.560642 0.044262 0.308954 0.176320 -0.517021 0.412403 0.250801 -0.367546 0.200635 0.076529 -0.325910 -0.183676 0.028152 -0.167121 0.168530 -0.149774 0.473172 0.030111 -0.451626 0.561227 0.293631 0.453639 0.354499 0.214168 0.097628 0.411185 0.075555 -0.854092 -0.142634 0.031297 0.400946 -0.144651 0.550654 -0.213976 -0.059595 -0.210632 -0.381374 0.304723 -0.146644 0.999926 -0.269792 -0.183467
45 0.033610 -0.047851 -0.601062 0.379576 0.440706 -0.526737 0.391569 -0.552088 -0.517519 0.071300 -0.452930 -0.252188 -0.484479 -0.090794 0.267175 -0.373028 0.547377 1.675879 -0.147770 -0.504616 -0.467146 0.891804 0.187615 -0.470037 0.765197 -0.225397 -0.046378 0.098767 0.172612 -0.200474 0.126684 -0.024033 0.464698 -0.125170 -0.007235 -0.013614 0.343152 -0.492017 0.102648 -0.318564 -0.028396 0.556002 0.174793 0.074773 0.184993 -0.630164 -0.113525 -0.259799 -0.362675 0.402253 -0.459957 -0.164526 0.233815 -0.731643 0.386144 0.935393 0.377298 -0.513949 -0.771369 0.806861 -0.174878 0.403841 -0.422498 -1.177894
59 -0.389045 0.457630 0.335914 -0.464816 0.271053 -0.036568 0.426252 0.528937 -1.022267 0.735973 0.101351 0.312502 -0.294866 0.359989 -0.198721 0.124372 0.244168 -0.227344 -0.462222 -0.084380 0.150857 -0.544248 0.017754 -0.142969 0.024648 0.432420 -0.202554 0.239947 0.457038 -0.220619 -0.154712 -0.332196 -0.155165 -0.010223 -0.217354 0.566813 0.150271 -0.159387 0.245856 0.105477 -0.607535 0.552607 0.052104 -0.217944 -0.049834 0.106029 -0.128589 0.397731 0.096135 -0.346327 -0.580696 0.592275 0.148540 -0.341895 0.272855 -0.546411 0.024655 -0.418820 -0.097688 0.064162 0.043684 0.054378 -0.207435 -0.495250
30 -0.205523 0.151318 -0.132960 -0.096682 -0.141019 0.130294 -0.135018 0.306163 -0.061314 0.184688 0.291896 -0.071625 -0.237703 0.110914 -0.351075 0.485309 0.048239 0.603520 -0.500214 -0.610385 0.505396 -0.179924 -0.169134 -0.741759 0.271831 0.321028 -0.475147 -0.387327 -0.441588 -0.024623 0.337053 0.292854 -0.145521 -0.230748 0.382527 -0.088393 -0.068352 0.384810 0.181495 0.890754 0.247470 0.815013 0.122975 0.244425 -0.077306 0.200110 0.033809 -0.732668 -0.086594 -0.762182 -0.340559 -0.488546 -0.132622 -0.630286 0.145014 0.533871 1.046064 -0.223909 -0.412709 0.717612 0.254686 -0.065004 0.449754 0.038227
54 -0.021197 -0.360124 0.294125 -0.563045 -0.223704 0.078580 -0.936622 -0.231740 -0.044009 0.114475 -0.329309 -0.297237 -0.933596 -0.389459 0.068464 -0.596514 0.074385 0.319182 -0.007249 -0.652354 -0.287756 -0.426453 0.002349 -0.119324 -0.730041 0.488196 0.369888 -0.423650 0.065396 0.252606 0.520307 0.094511 -0.471732 -0.871610 0.091525 0.338475 0.339138 0.459657 0.456356 -0.196764 0.078647 -0.131161 0.360999 0.527048 0.316365 -0.131718 -0.264540 -0.334848 -0.601565 -0.051260 0.100504 -0.052508 0.303123 -0.158545 0.325186 -0.147169 -0.020636 -0.720163 -0.673379 -0.289272 -0.395366 0.259032 -0.151012 -0.727159
81 -1.051713 -0.808948 -0.076001 -0.786714 -0.063021 0.157075 0.531981 -1.210603 -0.629911 0.400544 -0.590132 0.310698 -0.321687 -0.111013 -1.177249 0.588619 -0.668761 0.356884 -0.823512 0.427500 -0.297449 -0.408521 0.227074 -0.190593 -0.181094 1.029784 0.583001 -0.380676 -0.148320 -0.580719 0.255293 -0.389538 0.006117 -0.553258 0.801602 0.303482 1.370815 0.044958 0.367830 -0.592689 -0.160659 0.501319 0.810980 -0.530173 0.499715 -0.467615 -1.109443 -0.791360 0.035211 -0.480641 -0.988731 0.441431 -0.591675 -0.310262 0.401531 -0.329788 0.241564 0.755907 0.144887 0.218630 -0.029890 -0.473016 0.295203 -0.061505
139 -0.622302 0.213696 0.342464 0.132388 0.253740 0.138309 0.239652 0.240175 -1.268350 0.579223 0.789241 0.357094 0.219834 0.281223 -0.443938 -0.200852 0.296150 0.187265 -0.296122 0.126066 0.094964 -0.187151 -0.378937 0.231632 -0.244560 0.345665 -0.288719 0.225229 0.231917 0.204369 -0.373221 0.058066 -0.045491 -0.158837 -0.048059 0.112181 0.321500 0.147578 0.402934 -0.465669 -0.225228 0.187405 -0.010360 -0.451061 0.623140 0.111620 -0.127141 -0.120476 -0.432936 -0.672299 -0.420515 -0.167349 0.115877 -0.239750 0.287766 -0.495536 -0.276580 -0.850655 -0.386365 0.199906 0.098105 -0.043626 -0.446767 -0.183101
224 -0.156498 0.020080 0.168048 -0.212714 -0.386555 -0.049211 0.270034 0.309000 -0.633948 0.372415 0.577802 0.226821 -0.419948 0.142513 -0.533651 0.257096 0.371208 -0.217384 -0.413986 0.808881 0.112422 -0.210022 -0.204108 -0.400220 0.061001 0.704729 -0.229821 -0.093022 0.323748 0.175785 0.128862 0.179333 -0.432411 -0.155727 0.299842 0.151804 -0.188287 0.002802 -0.138898 0.323202 -0.598634 0.241362 0.204627 -0.197488 0.222175 -0.076853 0.239421 0.415142 0.110413 -0.667154 -0.318433 0.210354 -0.130320 -0.321955 0.306777 0.117910 0.201670 -0.629437 -0.024195 0.568924 -0.451239 0.033951 -0.551060 -0.251602
68 -0.353856 0.276565 0.269627 -0.243472 -0.655275 0.333934 -0.501280 0.321118 0.057093 0.377298 -0.015497 0.298254 -0.440098 0.322376 0.336612 0.281410 0.647220 -0.793036 0.008319 0.099617 0.399743 -0.110975 -0.857099 -1.304673 0.251368 -0.162854 -0.229218 0.016627 0.009881 -0.254067 -0.243346 -0.174338 0.255936 -0.164337 -0.025245 0.924163 0.889008 0.453630 0.297007 0.703425 0.251219 0.516008 0.430629 0.549913 0.399996 0.269968 0.107156 -0.326462 0.771393 -0.090829 -0.815802 -0.356062 -0.116238 0.096390 0.300824 0.143450 0.616877 -0.465426 -0.909809 -0.066365 -0.285775 -0.479418 0.112375 -0.383151
120 -0.187382 0.632522 0.124578 -0.551678 -0.306134 -0.414484 -0.012137 -0.175500 0.027475 0.123499 -0.251490 0.133841 -0.044660 0.238353 -0.290164 -0.228565 0.619691 1.245087 -0.539453 -1.164869 0.001922 0.195735 -0.115730 -0.700303 0.457543 0.037147 -0.563060 -0.296381 0.377517 -0.010171 0.447780 0.255636 0.209138 -0.218155 -0.070063 -0.428984 -0.004882 -0.242869 -0.033890 0.756436 0.100029 0.658420 0.286497 -0.337799 0.274760 0.307899 0.596280 -0.443464 0.342506 -0.663392 -0.089306 -0.252370 -0.416861 -0.490120 0.184320 0.423347 0.752081 -0.164688 -0.572161 0.209160 0.433321 0.225686 0.198380 -0.577798
197 -0.479296 0.225810 0.362856 0.317679 0.294186 -0.081440 0.351785 0.103831 -0.629533 0.813434 0.719879 0.101782 -0.168465 0.165778 -0.299372 -0.188396 0.310363 -0.509371 -0.605569 0.343104 -0.123546 0.028793 -0.319620 -0.231779 0.167232 0.281240 -0.066217 0.136753 -0.068711 0.003702 0.029711 0.399532 -0.576950 -0.573523 0.083265 -0.237774 0.242431 0.107553 0.005442 -0.126708 -0.637442 0.847786 0.430893 0.411102 0.417236 0.420799 -0.069130 -0.040358 0.072762 -0.528973 -0.096780 0.136669 0.447188 0.275076 0.062338 -0.109297 -0.138197 -0.230519 -0.599978 0.490932 -0.351847 -0.015168 0.036698 -0.199608
384 -0.267156 -0.034918 0.140065 0.109830 0.165950 -0.446405 0.117437 0.100609 -0.249915 0.471491 -0.011592 0.243880 0.153825 0.266814 -0.443088 0.360422 0.349702 -0.373495 -0.248270 0.543652 0.119076 -0.420636 -0.474311 -0.177572 0.215210 0.264766 -0.361942 -0.370384 0.150835 0.031822 0.560305 -0.178171 -0.791254 -0.473074 -0.039954 0.097876 0.711098 0.206726 -0.244526 -0.157494 0.195298 0.781080 0.613464 0.294764 -0.100766 0.468244 -0.088059 -0.301869 -0.180572 -0.618614 -0.270002 0.025350 0.608016 0.098039 -0.041937 0.338814 -0.217729 -0.424862 -0.482515 0.218805 -0.206139 0.236625 -0.327775 0.067978
302 0.363286 -0.497335 0.391482 -0.985743 -0.278686 -0.182373 -0.866254 -0.868662 -0.873558 0.445118 0.016367 0.820588 -0.821777 0.552650 -0.137005 0.148153 -0.223478 0.429503 0.770073 -0.418842 -0.587264 0.619839 0.229962 0.153021 -0.084079 0.775457 -0.347640 -0.251560 0.354011 -0.654753 1.082286 -0.317526 -0.307140 0.381298 -0.110188 -0.208248 -0.083694 0.963265 0.928449 0.174000 -0.579903 -0.594076 0.247675 0.127759 0.193335 -0.018707 -0.102645 -0.652490 -0.548418 -0.009440 -0.801232 -0.097407 0.766024 -0.720362 0.087387 0.330807 -0.339163 0.705990 -1.203882 0.160380 -0.696340 0.117952 -0.345947 0.003137
99 -0.175110 -0.226589 0.052665 -0.519575 -0.219890 -0.315205 -0.079796 -0.067580 0.298366 0.301661 0.321444 -0.043359 -0.536464 0.272947 -0.383230 0.955827 0.087606 0.741341 -0.565650 -0.739945 0.747920 -0.280230 -0.506426 -0.299484 0.377478 -0.396937 -0.741197 0.067818 -0.066092 -0.053204 0.117975 0.580816 0.043522 -0.721866 0.535841 0.293610 -0.143572 0.013329 0.091719 0.403408 0.016616 0.518340 -0.064502 -0.112908 -0.270478 -0.116569 0.013093 -0.074509 0.079042 -0.577287 -0.058779 -0.186507 0.064193 -1.105085 -0.013657 0.441957 0.616259 -0.084280 -0.732133 0.652870 -0.575109 0.061507 0.333345 0.347220
48 -0.064335 0.266825 -0.349202 0.311084 -0.541705 0.860323 -0.221649 -0.326130 -0.890770 0.348549 0.506489 1.598418 -0.654559 -0.239047 -0.692567 0.389704 0.601829 0.501477 0.354919 -0.380917 0.501729 0.096146 -0.570248 -0.557528 0.170326 -0.636192 0.456761 0.219245 -0.512395 -0.701349 0.367803 -0.198650 0.617873 0.020984 -0.436818 0.814598 0.348176 0.027662 1.235618 0.096843 -0.225369 0.953320 -0.134943 0.998763 0.055278 -0.145546 -0.230489 -0.604573 0.520717 -0.526753 -0.184264 -0.350566 0.457787 0.054288 0.417109 -0.007374 1.302456 -0.674921 0.021922 -0.491235 -0.187443 -0.267351 0.119210 0.293156
474 0.038936 0.073684 0.412414 0.006549 0.173434 0.432578 0.306503 0.176407 -0.831100 1.192743 0.104464 -0.503644 -0.410484 0.484743 -0.223556 0.008638 0.447985 -0.492492 -0.587455 0.056288 -0.220620 -0.362015 -0.157218 -0.017891 0.067475 -0.061841 0.071415 -0.341748 -0.117324 -0.172888 0.091374 -0.452491 -0.157899 0.129227 -0.330315 0.404082 0.418010 0.108544 0.356279 -0.485434 -0.425654 0.270067 -0.302036 -0.385719 -0.248562 0.238238 -0.051177 0.410420 -0.062175 -0.196230 -0.164924 0.475480 0.125224 -0.576886 0.666491 -0.301914 0.226116 -0.345127 -0.092091 0.626123 -0.241659 0.307597 -0.441945 0.055471
454 -0.253235 -0.059141 -0.226224 -0.607260 0.167209 0.403238 -0.440506 -0.130412 -1.384890 -0.181339 -0.244477 -0.317857 -0.244807 -0.185735 0.545276 0.344537 0.004727 0.489357 0.811762 0.019155 -0.260649 -0.084285 0.046494 -0.414356 -0.694748 -0.189755 0.419390 0.244264 -0.202642 -0.176148 0.694807 -0.357318 -0.230166 -0.634952 0.589951 -0.913881 0.560546 0.207037 -0.202226 -0.122808 0.065177 0.214696 0.264805 -0.384027 -0.482002 -0.581476 -0.008765 -0.109746 1.323242 -0.392245 -0.763497 -0.422443 -0.348595 -0.584827 0.226325 -0.025909 -0.346799 -0.352739 -1.330753 0.536689 0.558341 -0.017454 0.052047 -0.316064
751 0.102209 0.563614 -0.211469 0.102066 -0.912027 0.383058 0.088616 0.293098 -0.385952 0.106727 -0.163726 -0.002328 -0.092463 -0.048306 0.242458 0.594826 0.193281 -0.214981 -0.410837 -0.232560 0.467089 0.116688 -0.640803 -0.771068 0.278083 0.189552 -0.067816 0.008094 -0.316504 -0.618695 0.021933 0.120753 0.240115 -0.391136 0.152535 0.691073 0.708372 0.436322 0.324112 0.676049 0.336274 0.959947 0.060682 0.743099 0.443184 0.240688 -0.090267 -0.281609 0.123268 -0.367191 -0.476488 -0.833755 -0.320134 0.030560 0.630856 0.440631 0.988575 -0.026274 -0.971647 0.125850 0.358682 -0.375250 -0.340815 -0.127145
222 -0.176714 0.339170 -0.140341 0.194652 -0.449791 0.109256 -0.305633 -0.354730 -1.495967 1.230904 -0.171676 0.261502 -0.036504 -0.287342 0.386164 0.215225 0.638563 0.901960 0.067380 0.220514 -0.402777 0.050690 -0.261643 -0.690610 -0.667377 -0.571378 -0.383009 0.516055 -0.802047 -0.239142 1.396641 -0.039426 0.638514 -0.680680 -0.203965 -1.045899 1.453386 -0.155646 0.269636 0.089029 0.213917 -0.668165 -0.017561 -0.354816 0.680704 -0.573328 0.167226 -0.258432 1.480640 -0.238351 -0.156184 0.432622 0.386141 -0.569321 0.077570 0.163218 0.007733 0.033607 -0.324562 0.257801 -0.349557 -0.493163 0.305186 0.217823
86 -0.104131 -0.016071 0.111864 0.136515 -0.528319 1.516804 -0.087138 -0.505503 -1.350243 0.390260 0.516247 1.269498 -1.085715 0.152772 -0.893900 0.239931 0.504746 0.887966 0.148254 -0.079865 0.162174 0.532053 -0.422849 0.085682 0.049042 -0.670111 0.026190 0.179519 -0.256717 -0.571343 0.867469 -0.562506 0.674826 -0.144865 -0.862713 0.608189 0.450924 -0.127133 1.219725 0.276989 -0.583634 0.857657 -0.245248 0.757864 -0.504920 -0.286587 -0.202817 -0.552701 0.310205 -0.252011 0.188457 -0.115271 0.256903 -0.056454 0.164149 0.315087 1.348309 -0.948285 0.092598 -0.635546 -0.483309 -0.766697 0.518712 0.893979
248 -0.473235 0.510755 0.364296 0.076253 0.098834 0.164548 0.385962 -0.003976 -0.789951 0.868750 0.258827 0.305891 -0.066548 0.056626 -0.498664 -0.474902 0.477247 -0.320464 -0.544860 0.221673 -0.222788 0.043188 -0.554956 0.006006 0.059356 0.130388 -0.113823 0.214881 0.454383 -0.251279 -0.221523 0.089944 -0.074757 -0.251018 0.453067 -0.260827 -0.006446 -0.010163 0.201261 -0.298740 -0.693786 0.510577 0.161236 -0.270138 0.415406 0.267121 -0.263228 0.118285 -0.027972 -0.521123 -0.148309 0.254122 0.395002 -0.384884 0.421584 -0.178126 -0.362847 -0.784705 -0.436928 0.498795 -0.157363 0.283461 -0.432736 0.235128
155 -0.582099 -0.212834 0.422053 -0.309588 0.368100 0.124122 0.667684 0.214221 -0.420840 0.707389 0.540909 0.193798 0.028134 0.130345 -0.511085 -0.129515 0.420434 -0.257414 -0.076273 0.132236 0.025145 -0.246778 -0.197058 -0.576204 0.101669 -0.109961 -0.001291 -0.383354 0.012479 0.168501 -0.124037 0.092199 -0.329834 -0.211104 -0.263682 0.061618 0.131014 0.047913 -0.234610 -0.355684 -0.555938 0.617986 0.598108 -0.013729 0.322270 0.061621 -0.192778 0.065889 -0.204459 -1.050054 -0.370852 0.327613 0.767292 0.341272 0.255157 -0.010459 -0.090437 -0.389535 -0.589462 0.216287 -0.048991 0.285598 0.002722 0.190517
476 0.046376 -0.285914 0.507993 0.334408 -0.053016 0.395940 0.053866 0.226058 -0.891801 0.807042 0.344332 -0.434078 0.187229 0.081408 -0.499894 0.077134 0.124470 -0.436116 -0.570758 0.406118 -0.591935 -0.064196 0.067658 -0.708536 -0.032300 -0.122486 -0.278593 0.233137 0.048181 -0.333636 0.110032 0.034862 -0.278873 -0.331033 -0.312939 0.199371 0.251538 -0.260612 0.859579 -0.513674 -0.212159 0.366945 0.285242 0.071899 0.090434 -0.258603 0.014013 0.601696 -0.045780 -0.462888 0.149909 0.213823 0.284272 -0.692190 0.463153 -0.647688 0.324012 -0.245927 -0.586987 0.309335 -0.227190 0.928635 -0.120004 0.119817
292 -0.192955 -0.733780 -0.063798 -0.482672 -0.171561 -0.752063 0.213589 -0.772418 -0.116796 1.105884 -0.200208 0.240503 0.040986 -0.353380 -0.759331 -0.282709 -0.250544 1.057745 -0.512953 -0.045432 -0.219146 0.474696 -0.137464 -0.629248 -0.623004 -0.434986 -0.192631 0.192466 0.366973 -0.238374 0.260102 -1.062576 0.312949 0.347334 0.252133 -0.313022 0.052333 0.962094 0.316321 -0.242259 -0.338386 -0.245246 -0.327663 0.667900 0.094390 0.182844 -0.009574 -0.522936 -0.432196 0.358218 0.010094 0.687567 -0.922424 0.486253 0.025715 -0.192111 0.816515 -0.799774 -1.380721 0.037311 -0.247073 0.335491 0.315830 -0.868525
795 -0.000611 0.530137 0.488602 0.462353 0.323781 -0.197435 0.737471 0.002979 -0.114975 0.867779 0.043314 0.161564 -0.367977 0.087785 -0.254420 -0.070460 0.680430 -0.161795 -0.318654 -0.006770 0.021612 -0.209787 -0.547859 -0.505586 0.243620 -0.070007 -0.236491 -0.132122 0.247054 -0.171771 -0.099637 -0.174048 -0.413256 -0.260884 -0.009518 0.102744 0.644223 0.411936 -0.141674 -0.446957 -0.527384 0.219565 0.367128 0.298490 0.057009 0.013516 -0.195277 0.175495 -0.047628 -1.231316 -0.601453 0.247222 0.749424 -0.225242 -0.063051 -0.363383 -0.184061 -0.162827 -0.394994 -0.015419 0.022818 0.103333 -0.116019 -0.171424
146 -0.091409 0.119725 0.404973 -0.025222 -0.700344 -0.060758 -0.400004 -0.720240 -0.092185 0.668844 -0.193859 0.394493 -0.766547 1.412531 -0.204584 -0.050871 -0.383139 -0.319994 -0.083372 -0.162417 -0.662645 1.586648 0.112457 0.003294 -0.752938 1.060036 -0.412854 0.617308 -0.421974 0.211347 0.980494 -0.461618 0.048561 0.486281 -0.004509 -0.258560 0.764969 0.710243 1.219734 0.115965 -0.913525 -0.620916 0.955765 -0.324364 0.334241 0.255650 -0.926712 -0.327417 -0.522094 -0.841815 -0.401457 -0.012146 0.672832 0.150257 0.363325 0.843812 0.228567 0.297605 -1.901068 0.182338 -0.152723 -0.103508 0.157174 0.015597
790 -0.557341 0.745477 0.413720 0.279759 -0.004546 -0.039758 0.598745 0.177780 -0.402668 1.063489 -0.049089 0.349911 -0.336220 -0.053972 -0.410332 -0.045817 0.630323 -0.125593 -0.592568 -0.035029 0.303530 0.062864 -0.600368 0.038570 -0.201346 -0.079333 -0.283287 0.379219 0.512098 0.290202 -0.249650 0.275036 0.137474 -0.038383 0.457801 -0.154086 0.382769 0.147293 0.490354 -0.710922 -0.545110 0.381027 0.144561 -0.148854 0.250204 -0.055917 -0.078112 -0.154484 -0.014805 -0.872626 -0.555802 -0.136985 0.149013 -0.217483 0.324949 -0.473723 -0.519998 -0.639992 -0.268806 0.251721 -0.070199 0.103021 -0.537245 -0.057298
772 -0.316858 -0.170178 0.276691 -0.368752 0.012829 0.336384 0.834161 -0.253142 -0.077018 0.779967 0.213928 -0.153635 -0.612560 0.322359 -1.007354 -0.269063 0.816244 0.260595 -0.109996 -0.498800 0.343625 -0.272465 0.264524 0.068347 -0.962349 0.628208 -0.170513 -0.062161 -0.751901 -0.473629 0.084354 -0.826355 0.180906 0.064856 -0.440191 0.679543 -0.258041 0.124170 0.269875 0.065505 -0.495207 0.299071 -0.164961 0.658576 -0.050610 -0.779068 -0.040431 -0.798224 1.105197 -0.511861 -0.463735 -0.798988 -0.518847 -0.516913 -0.279252 0.400271 0.082836 0.342983 -0.585094 0.031616 -0.364429 0.919279 0.873317 -0.057256
411 -0.496121 0.154980 -0.191942 -0.664395 -0.376342 0.328981 0.239978 -0.395678 0.050701 0.865097 0.176730 -0.743181 -0.195993 0.411175 -0.707296 0.199818 0.636099 0.359131 0.195634 -0.476256 0.071700 0.183823 0.120435 0.291267 -0.652670 0.953173 -0.250379 0.126125 -0.931486 0.232764 0.142892 -1.004300 0.457928 -0.296177 -0.132537 0.815428 0.062941 0.254507 -0.049984 0.715796 -0.140880 0.958600 -0.055179 0.308024 -0.061894 -0.636375 0.272630 -0.554524 0.769564 -0.420161 -0.127898 -0.406718 0.180578 -0.761277 -0.206412 0.649972 -0.035811 -0.176796 -0.164530 0.284215 0.216467 0.719716 0.588283 -0.146388
53 -0.006002 -0.119926 -0.455066 -0.943517 -0.350360 0.177802 -0.803230 -0.799037 -0.508455 0.242883 -0.170091 -0.608478 -0.951799 -0.705093 0.250337 -0.615257 0.269387 0.176602 0.736465 -0.810893 -0.625550 -0.279448 0.057102 -0.098906 -0.441795 0.320895 0.353350 -0.225082 -0.010625 0.337222 0.415871 -0.062154 -0.790910 -0.457047 0.061961 0.077155 -0.103872 0.593255 0.522225 -0.112711 0.011566 -0.054001 0.687596 0.705761 -0.269189 -0.433831 -0.259982 0.051167 -0.475854 -0.443669 -0.518012 0.142371 0.025530 -0.375399 0.223745 0.180141 -0.275004 -0.562820 -0.815018 -0.486423 -0.293438 -0.149889 -0.017384 -0.290664
223 0.182721 -0.209213 -0.003495 -0.928176 0.051076 0.102907 -0.851478 -0.796416 -0.315690 0.424407 -0.179712 0.168014 -1.032248 -0.459270 -0.071576 -0.528877 0.068146 0.452256 0.595161 -0.461882 -0.416831 -0.092886 0.006646 -0.077775 -0.326742 0.593502 0.346974 -0.551336 0.094194 -0.104221 0.725594 0.123356 -0.959725 -0.178882 -0.387716 -0.269829 -0.249678 0.815282 1.015664 -0.327490 -0.570306 -0.187249 0.873400 0.689739 0.000390 -0.129893 -0.477302 -0.252072 -0.700812 -0.265158 -0.294586 -0.061291 0.408176 -0.531681 -0.136761 0.542277 -0.185359 -0.226035 -0.853273 -0.418552 -0.342838 -0.130560 0.027993 0.036550
236 -0.094906 0.452203 0.024347 -0.272071 -0.126502 0.063071 0.154348 0.449707 0.151964 0.025112 0.585696 0.225922 -0.577722 -0.026793 -0.355248 0.287232 0.485480 0.292181 -0.137848 0.019153 -0.217336 -0.946021 -0.422616 -1.437008 0.538830 0.720483 -0.293123 0.133688 0.011885 0.559961 0.071071 -0.368256 0.240720 -0.060430 -0.194673 1.036117 0.130962 0.580104 -0.231942 -0.664433 -0.221962 0.153540 0.267315 0.350951 -0.213334 0.557312 -0.023765 0.078163 0.889901 -0.409616 0.135856 -0.137970 0.000801 -0.552174 0.220751 -0.060171 0.422140 -0.009038 -0.694391 0.352588 -0.669410 -0.335492 0.020099 -0.010207
65 -0.506000 -0.255311 -0.412126 0.011544 -0.221603 0.561742 0.021750 -0.104359 0.248860 0.560438 -0.035324 -0.097731 0.020073 0.157902 -0.668066 0.370000 0.218681 0.514785 -0.054700 -0.193440 0.683068 0.031601 0.027535 -0.622649 0.028352 0.956887 -0.311378 -0.250643 -0.853259 0.228729 0.006345 -0.276526 0.305262 -0.321697 0.292589 0.395232 -0.156276 0.357338 -0.192097 1.044065 0.260762 0.696983 0.237790 -0.073485 -0.290757 0.158273 -0.077433 -0.500181 0.166805 -0.547314 -0.369189 -0.423323 0.632027 -1.320717 0.043555 0.358398 0.265278 -0.417041 -0.318347 0.736998 0.068491 0.215969 0.358915 -0.413398
401 0.076491 -0.425710 0.593766 -0.558156 -0.650455 -0.176757 -0.392725 -0.558514 -0.160327 0.454248 -0.069234 0.696731 -0.629909 0.910315 -0.168908 0.209643 -0.384138 0.305329 0.440765 -0.399369 -0.710707 1.193840 0.110289 0.214712 -0.438862 1.062639 -0.301613 0.240345 0.182069 -0.241710 0.907035 -0.505684 0.162542 0.731839 -0.050622 -0.133161 0.543305 0.904945 1.263019 0.104065 -0.705136 -0.541412 0.596532 -0.314106 0.301472 -0.106513 -0.341091 -0.614929 -0.602250 -0.314654 -0.620833 0.050316 0.723996 -0.068074 0.148541 0.554948 0.041042 0.286712 -1.541436 0.150947 -0.702832 0.167707 -0.287075 0.067589
306 -0.763858 -0.470511 0.350721 -0.340468 -0.354273 -0.168970 -0.235456 -1.505334 -0.456700 -0.292017 -0.174134 -0.490193 -0.753230 -1.001302 -1.411115 0.517779 0.015106 0.806673 -0.326337 0.008406 -0.265806 0.412331 -0.320782 -0.597391 -0.764444 0.050965 0.120336 1.452573 0.401739 -0.518099 -0.055857 -1.187059 0.499923 0.232285 0.433439 0.089361 0.114384 0.309274 0.681571 -0.391741 -0.684716 -0.418092 -0.195841 0.709549 -0.663122 0.578468 -0.052343 -0.407516 0.085871 -0.668733 -0.175369 0.384187 -0.366180 0.831995 0.292881 -0.215820 0.508189 -1.006778 -0.568203 1.122764 0.459580 -0.506572 0.328220 -0.555895
873 -0.320678 -0.108231 -0.032433 -0.592266 -0.063117 -0.256417 -0.078573 0.241599 -1.103747 -0.116496 -0.150264 -0.483697 -0.260137 -0.668958 0.270399 0.285540 -0.315958 0.492220 1.031133 -0.230291 -0.063949 -0.562107 -0.025531 -0.472412 -0.573469 -0.116654 0.719820 -0.037399 -0.351223 -0.274625 0.624532 -0.618551 -0.085696 -0.739342 0.521314 -0.924188 0.314741 0.557971 -0.145427 -0.164184 -0.354159 0.362072 0.658318 -0.332073 -0.746920 -0.771681 0.109330 -0.417172 1.112265 -0.499144 -0.620097 -0.534977 -0.225208 -0.234404 0.376541 -0.545144 -0.067462 -0.520990 -1.256227 0.250173 -0.237160 0.216252 -0.063822 0.118734
325 -0.241296 -0.172905 -0.246420 -1.109426 -0.068926 0.151513 -0.016942 -0.124806 -1.286421 -0.105651 -0.648241 -0.240632 -0.675661 -0.531248 0.523169 -0.046202 -0.372992 0.177944 0.921981 -0.447313 -0.098311 -0.379520 -0.060027 -0.521753 -0.570443 -0.181436 0.609496 0.320714 -0.314432 0.530193 0.493823 -0.346498 -0.649853 -0.764055 0.069069 -0.782650 0.139995 0.166866 0.337848 -0.081919 0.245500 0.291793 0.555112 0.055239 -0.600981 -0.255212 -0.074588 -0.234623 0.792443 -0.353755 -0.445081 -0.585624 -0.129243 -0.446198 0.415916 -0.175150 -0.288429 -0.512007 -1.223618 -0.085999 -0.148827 -0.344281 0.120294 -0.273723
44 0.281000 -0.217985 -1.017885 -0.136298 0.511313 -0.785226 0.219184 -0.502393 -0.803593 0.438173 -0.763709 -0.199561 -0.657376 -0.130600 0.291579 -0.184580 0.769053 1.855835 -0.312246 -0.843657 -0.321528 0.634206 -0.195817 -0.458857 0.277507 0.050964 0.379747 0.437875 -0.031656 -0.252589 -0.441271 0.066231 0.270001 -0.110058 -0.696182 0.332043 0.110655 -0.637971 -0.110590 -0.643157 0.067831 0.505547 0.269358 -0.222476 -0.058027 -0.620778 -0.149808 -0.510386 0.190695 0.246060 -0.505347 0.163364 0.752709 -0.127524 0.740716 1.310293 0.294959 -0.395823 -1.191741 0.465392 -0.212387 0.304431 -0.587928 -1.559625
109 -0.152863 -0.060166 -0.006568 0.079827 -0.502646 0.940609 -0.108495 -0.495484 -1.342778 0.343800 0.800701 1.225762 -0.822797 -0.087642 -0.983652 0.373075 0.543158 0.786866 0.380376 -0.165262 0.220116 0.378169 -0.557086 0.249414 -0.061387 -0.789003 0.132433 0.106499 -0.388982 -0.411957 0.517295 -0.098741 0.805340 -0.406125 -0.811135 0.610488 0.267529 -0.025813 1.036725 -0.048365 -0.673157 1.075279 -0.230265 0.870389 -0.222932 0.014728 -0.140461 -0.497292 0.325150 -0.201677 -0.211401 -0.230484 0.420744 -0.127617 0.631988 0.529890 1.473077 -0.787160 0.143288 -0.820155 -0.155755 -0.693864 0.599320 0.676462
80 -0.471042 -0.174416 -0.171824 -0.038940 -0.064283 0.172571 -0.250033 0.065558 0.057648 0.465859 0.442570 -0.121073 -0.137598 0.247781 -0.353149 0.509446 -0.002393 0.688670 -0.309063 -0.547940 1.124536 -0.379108 -0.211526 -0.281396 0.378037 0.345241 -0.703030 -0.138488 -0.349443 0.031959 0.023253 0.348584 -0.137861 -0.284633 0.204648 0.143819 -0.015074 0.597075 -0.221677 0.619271 0.278006 0.351443 0.095726 0.076000 -0.352414 0.119029 -0.333228 -0.457745 0.029032 -0.469663 -0.221105 -0.138528 0.236478 -1.368165 0.318151 0.334964 0.705251 -0.018618 -0.654506 0.752869 -0.240767 0.112841 0.420799 -0.099287
607 -0.266416 -0.171347 -0.502448 -0.004319 0.664456 -0.865977 0.390448 -0.240359 -0.388488 0.448490 -0.690220 -0.965786 -1.111073 0.309947 -0.344634 0.309475 0.063590 1.510596 0.071832 -0.145534 0.263316 0.444391 -0.147794 -0.346466 0.698003 -0.331605 0.006024 0.092022 -0.633057 -0.093801 0.319328 0.518343 0.008382 -0.394363 -0.424975 0.472778 -0.015370 -0.497260 0.469673 -0.568288 -0.123306 0.550760 0.263208 -0.486667 0.070192 -1.157380 0.697809 -0.489525 -0.053895 0.086635 -0.110594 -0.132120 0.447935 -0.406550 0.332938 0.500671 0.755257 -0.406305 -0.814623 0.775687 -0.627948 -0.085030 0.121434 -0.204749
122 -0.166291 0.588575 0.154337 0.340668 -0.052742 -0.231811 -0.089822 -0.686477 -0.220229 0.631077 -0.406527 -0.250024 0.066641 -0.162621 -0.497855 -0.578183 0.452513 1.347896 -0.845151 -1.310548 0.273047 0.405653 0.300526 -0.747708 0.168527 0.364344 -0.424444 -0.455082 0.725147 0.438283 0.611624 0.235432 0.581192 -0.103040 -0.485654 -0.688920 0.039925 -0.583410 0.254621 0.569166 0.026835 0.615275 0.839857 -1.063655 -0.107303 0.001610 0.658479 0.115371 0.421783 -0.111510 -0.129213 -0.700663 -0.239111 -0.321655 0.427771 0.664513 1.140672 -0.538484 -1.086110 0.256246 0.318985 0.138171 0.179171 -0.516797
239 -0.069250 0.235914 0.357141 -1.279443 -0.423416 -0.430882 -0.632229 -0.403853 0.088536 0.584482 0.171406 0.187960 -0.562590 0.858344 -0.751117 0.437874 0.280659 0.708625 -0.498189 -1.347480 0.562536 -0.065787 -0.174270 -0.223347 0.716908 -1.023669 -0.801650 0.279457 -0.110172 -0.597682 -0.147291 -0.047627 -0.137530 -0.183330 0.305607 0.025729 -0.298000 -0.484180 0.073886 -0.160233 0.430502 0.921009 0.043882 -0.574383 0.655824 0.132412 0.019415 0.125040 0.545054 -0.761878 0.119134 -0.568226 -0.247622 -0.887426 -0.212252 0.656823 0.579733 -0.208508 -0.795757 0.539554 -0.119092 0.169303 0.122733 -0.422745
187 -0.816440 0.092602 -0.157526 -0.839632 -0.355934 0.134130 0.256553 -0.243943 0.132548 1.074752 0.277542 -0.665554 -0.573184 0.382921 -0.984195 -0.318326 1.041642 0.285196 -0.017030 -0.454332 -0.126137 0.351781 0.092035 0.555504 -0.660619 0.409258 -0.044288 0.167943 -0.364887 -0.187880 0.120603 -0.648462 0.322871 0.190820 -0.579701 0.412271 0.130327 0.515967 -0.208415 0.613736 -0.216949 0.666081 -0.034827 0.869389 -0.232773 -0.968939 0.062115 -0.534300 0.932133 -0.526711 -0.135819 -0.833408 -0.514483 -0.804770 -0.405622 0.884982 0.138404 0.070037 -0.108131 0.504011 0.287025 0.438221 0.442397 -0.222078
429 -0.167823 0.018792 -0.016209 0.081969 -0.534413 0.891417 -0.227066 -0.418567 -1.331912 0.376492 0.930493 1.206236 -0.691664 0.022724 -0.905900 0.498827 0.548925 0.826184 0.470069 -0.294617 0.188136 0.354554 -0.560683 0.192479 -0.103161 -0.690329 0.029610 0.032461 -0.326167 -0.467940 0.540367 -0.131481 0.740456 -0.410826 -0.699144 0.556777 0.259221 -0.027054 0.883691 0.079864 -0.539815 1.152758 -0.066794 0.907542 -0.131428 -0.005147 -0.121202 -0.517005 0.334889 -0.312677 -0.268454 -0.140210 0.348518 0.108293 0.691322 0.618085 1.413946 -0.766223 0.081747 -0.926438 -0.180974 -0.607884 0.754332 0.626921
140 -0.650722 -0.677611 0.321096 -0.438037 0.089333 -0.095246 0.156433 0.391667 -1.050312 0.318623 0.983780 0.024838 0.036635 0.532760 -0.332856 -0.148463 0.262173 0.447833 -0.234539 -0.002157 0.444737 -0.047211 -0.949204 -0.225089 0.094691 0.308351 -0.307662 -0.300984 0.406999 0.486683 0.307704 0.165861 -0.197133 -0.536608 0.193760 0.333996 0.146904 0.230388 0.037645 -0.633470 -0.344530 -0.345397 -0.115431 0.067441 0.425430 0.118424 -0.077222 -0.547707 -0.043862 0.186281 -0.833563 -0.194121 0.741183 -0.419410 0.191345 -0.390928 -0.371313 -0.701171 -0.286039 -0.370346 0.550518 0.159594 -0.253440 -0.139593
742 0.037950 -0.198442 0.375577 -0.176635 0.310736 0.633123 1.041315 0.021284 -0.498936 0.623925 -0.370477 0.121015 -0.567541 -0.073567 -0.988134 -0.116181 0.221175 -0.030818 -0.718443 -0.238529 0.301973 -0.713705 0.229418 -0.189600 -0.435967 0.255976 -0.346580 -0.087606 -0.514909 -0.106781 -0.120844 -0.854728 -0.138724 0.471168 -0.931221 0.250221 -0.168620 0.152669 -0.028072 -0.285211 -0.531857 -0.002803 -0.680356 0.729590 0.038955 -0.154129 -0.055927 -0.233043 0.943111 -0.101472 -0.941498 -0.472579 -0.050015 -0.460002 0.069032 0.561773 0.094463 0.591712 -0.769892 0.099299 -0.198231 0.629596 0.422701 -0.423171
70 -0.185645 -0.528864 -0.030128 -0.328056 0.132576 -0.325551 -0.714508 0.528621 -0.165307 0.028704 -0.044914 0.440693 -0.218569 0.720196 0.088748 0.468404 0.557783 -0.475588 -0.294569 -0.014598 0.461420 -0.455419 -1.094726 -0.405744 -0.118623 0.062045 -0.501190 -0.173610 0.353580 -0.089443 0.106591 -0.326424 -0.020857 -0.839014 -0.000725 0.469245 0.425523 0.432769 -0.203825 0.098995 0.679532 0.606704 0.804531 0.563986 0.005507 0.415744 0.252164 -0.483666 0.075235 -0.382876 -0.804888 0.235678 0.156725 0.168917 0.136143 0.473514 0.160245 -0.499995 -0.621076 0.297681 -0.525451 0.142500 -0.201085 -0.119300
189 -1.011363 0.075507 -0.117361 -1.020232 -0.023672 -0.191606 -0.092404 -0.284244 0.210815 0.771363 0.227384 -0.750461 -1.131032 0.099744 -0.846342 -0.813113 0.720506 0.725348 -0.198639 -0.358472 -0.182266 0.275253 0.015967 -0.153764 0.049342 0.522668 -0.198705 -0.105940 0.213739 -0.047928 0.156504 -0.100754 0.245069 0.569887 -0.651527 -0.058973 0.427104 0.675334 -0.086868 1.133869 -0.149807 0.308498 -0.153322 0.754914 -0.118267 -0.630764 0.161267 -0.600711 0.623874 -0.764887 0.280692 -0.778956 -0.589243 -0.824969 -0.522110 1.235571 0.705526 -0.211358 -0.344257 0.437533 0.611622 0.216624 0.356967 -0.057790
1067 -0.455026 0.230371 0.337736 -0.453209 0.218607 -0.080481 0.222131 0.438478 -1.102190 0.762598 0.437593 0.114837 -0.471726 0.348234 -0.650940 0.030732 0.533732 -0.027485 -0.397623 0.390615 0.129135 -0.157554 0.019324 -0.168697 -0.105411 0.354201 -0.339550 -0.090396 0.474326 0.071681 -0.068146 0.089995 -0.160292 -0.168080 0.359778 0.158408 0.052449 0.060149 0.064535 0.155010 -0.558111 0.231816 0.049767 -0.121801 0.237258 -0.168219 0.070618 0.514556 -0.221969 -0.585038 -0.291552 0.069485 0.155758 -0.080236 0.595224 -0.295284 0.006585 -0.310390 0.020263 0.356436 -0.081075 0.035367 -0.590640 -0.240484
110 -0.493276 -0.537024 0.531161 -1.051312 -1.026736 0.057680 -0.847283 -0.058873 0.707035 1.422277 -0.274466 -0.032795 -0.651389 0.747485 0.312597 -0.102582 -0.247705 0.562436 -0.243761 -0.484596 -0.455175 0.251489 0.281299 0.178683 -0.530687 0.309311 0.694538 0.108638 0.238730 0.189998 0.727498 0.551556 0.196809 -0.889126 -0.587572 -0.183000 1.428210 0.470704 0.813046 -0.077472 -0.007088 0.195425 0.529833 0.217899 -0.263275 -0.571560 -0.351854 0.475533 -0.185444 -0.448383 0.373923 0.567765 -0.218602 0.027646 0.073535 0.535703 0.119663 -1.852723 -0.846618 0.439133 0.440106 -0.303308 -0.819933 -1.053673
158 0.168730 0.477165 0.030194 -0.377546 -0.660102 0.985161 -0.224104 0.088398 -0.149228 0.589471 -0.466787 0.200697 -0.058351 -0.042159 -0.345911 0.638652 0.216687 -0.088604 -0.029690 -0.240915 0.221165 0.182988 -0.611386 -1.290233 0.211989 -0.201997 0.169679 0.012985 -0.064492 -0.186511 0.021380 -0.012222 0.208627 -0.255687 0.284103 1.101661 1.298033 0.441767 0.179995 0.505283 0.280509 0.916039 0.226914 0.387820 0.649064 -0.325034 0.310071 -0.117960 0.208923 0.159272 -0.703947 -0.967219 0.074628 0.445605 0.218071 0.207178 1.122751 -0.462786 -0.606074 -0.046039 -0.191852 -0.500202 -0.259708 0.192499
203 -0.848065 -0.091853 0.443616 -0.358624 0.394156 -0.013595 0.348294 -0.085259 -1.489082 0.935032 0.587597 0.410718 0.053360 -0.075207 -0.587910 0.107414 0.120721 -0.123886 -0.107274 0.183831 -0.089155 -0.299986 0.384490 -0.251036 0.196407 0.536083 -0.186300 0.208444 0.498659 -0.620336 -0.422216 0.434520 0.397374 -0.069736 -0.440350 0.034850 0.067515 0.074606 0.204848 -0.628758 -0.142082 0.546782 -0.329196 -0.063989 0.437584 0.131792 0.366949 0.295551 -0.125581 -0.455152 -1.003529 0.260270 0.144926 -0.380042 0.054427 -0.054905 -0.443504 -0.855481 -0.297911 0.139043 0.105099 -0.281219 -0.238072 -0.367753
130 -0.489676 0.392799 -0.200147 -0.546310 -0.075974 -0.231073 -0.266808 0.025230 0.140003 0.425418 0.133352 -0.167338 -0.552393 -0.093020 -0.533010 -0.407278 0.544689 1.014880 -0.395366 -0.985218 0.260808 -0.086309 0.059171 -0.769945 0.501534 0.409929 0.036424 -0.323976 0.290321 -0.309091 0.163429 0.116694 0.070997 0.205616 -0.227587 -0.138369 0.427844 0.372903 -0.285477 1.251283 -0.165255 0.613308 0.396743 -0.061862 -0.092042 -0.292166 0.137228 -0.705660 0.128226 -0.928764 0.202284 -0.588355 -0.298938 -0.562751 -0.528470 0.797126 0.911019 -0.050858 -0.572272 0.716971 0.722261 0.195427 0.168909 -0.041047
290 -0.525813 -0.483260 0.457511 -0.415305 -0.048697 -0.585229 0.219258 -1.137364 -0.175888 0.467859 -0.280851 -0.151115 -0.320370 -0.458037 -1.411829 0.045793 -0.325493 0.914492 -0.405379 0.127582 -0.528659 0.631758 -0.169641 -0.838439 -0.889642 -0.457710 -0.173342 0.823884 0.107429 -0.459389 -0.023255 -1.091269 0.137987 0.360530 0.432407 -0.137501 0.179975 0.577693 0.700146 -0.371923 -0.435287 -0.478824 -0.142638 0.511291 -0.050170 0.655376 -0.235360 -0.700701 -0.062930 -0.150695 0.040949 0.573912 -0.802284 0.601145 -0.116577 -0.038627 1.004762 -1.049175 -1.054807 0.426322 0.291325 0.012595 0.341016 -0.673585
1066 -0.423798 0.312804 0.406742 -0.395683 0.142258 -0.068421 0.079155 0.478043 -1.131838 0.681818 0.493946 0.223935 -0.229406 0.400130 -0.484161 0.036746 0.566869 -0.138074 -0.524527 0.356972 0.070724 -0.240364 -0.129151 -0.004275 -0.036785 0.310962 -0.225570 -0.155845 0.473428 0.021774 0.102088 0.055928 -0.351255 0.035733 0.319928 0.269380 0.202507 -0.162346 0.083159 0.211221 -0.703518 0.277888 -0.033034 -0.100756 -0.027840 -0.444597 0.337342 0.555938 -0.216786 -0.729155 -0.243210 0.084275 0.009182 -0.235932 0.435497 -0.286832 0.196895 -0.132852 -0.117234 0.430914 -0.114741 -0.118643 -0.467442 -0.289519
1070 -0.413175 0.177427 0.456334 -0.695374 0.225153 -0.087385 0.289584 0.483999 -1.134015 0.957346 0.122174 0.271792 -0.385225 0.375165 -0.561299 -0.050296 0.408303 -0.088000 -0.328796 0.430761 0.185090 -0.212479 0.008586 -0.194150 0.142559 0.309770 -0.384113 -0.092092 0.530246 0.172806 -0.130115 0.206172 -0.099618 -0.208418 0.335507 0.306622 0.108566 0.052061 0.149768 0.095306 -0.666743 0.254435 0.178271 -0.048500 -0.070751 -0.126422 0.137233 0.377231 -0.066290 -0.480316 -0.100377 0.149310 0.094007 -0.082529 0.461783 -0.118933 -0.161891 -0.284029 -0.034955 0.395610 0.144952 -0.054742 -0.384432 -0.162023
63 0.325684 -0.303917 1.207146 -1.103782 0.226109 -0.209051 0.348211 0.440039 -0.018337 0.701718 0.746030 0.044647 -0.229931 -0.200910 -0.707527 0.267285 1.572278 1.168764 0.200139 -0.355095 -1.489204 -0.993049 0.118637 -0.768922 0.426567 -0.383475 0.477648 0.354834 0.097077 0.472424 0.430287 -0.946297 0.741300 -0.047912 -0.242244 0.745683 0.385637 1.213595 0.274665 -0.771261 0.283043 0.990239 1.114068 1.025793 0.243936 0.690535 0.340752 -0.402820 0.735586 -0.512370 -0.498919 0.291055 -0.395488 -1.425687 0.243916 -0.417669 0.450802 0.247173 0.315131 0.849915 -0.511382 -0.822879 -0.653229 0.037997
1068 -0.469496 0.266040 0.491480 -0.605821 0.155539 -0.003367 0.095385 0.502532 -0.931219 0.823798 0.278676 0.160302 -0.296150 0.485659 -0.584609 0.108577 0.449344 0.021243 -0.508960 0.552411 0.210816 -0.462276 0.055017 -0.199792 -0.131950 0.299245 -0.215214 -0.117589 0.483830 0.087005 -0.233487 0.145155 -0.144669 -0.060264 0.273451 0.283864 0.131645 0.052893 0.198479 0.222802 -0.693191 0.174344 0.058104 -0.043111 0.073744 -0.260202 0.226774 0.551493 -0.127209 -0.605938 -0.188477 0.072726 0.183358 -0.131839 0.635038 -0.179115 0.047593 -0.333001 -0.027774 0.398659 -0.169941 0.035967 -0.451172 -0.119664
1065 -0.395870 0.177995 0.272088 -0.498875 0.228117 -0.042481 0.041476 0.488136 -1.071479 0.640645 0.372315 0.155413 -0.388113 0.426800 -0.721043 0.071952 0.537338 -0.182627 -0.542967 0.454062 0.116722 -0.193742 0.145995 -0.217728 -0.079153 0.290893 -0.171909 -0.161350 0.590329 0.063424 0.075894 0.220628 -0.221732 -0.066434 0.323644 0.176292 0.177447 0.112151 0.146393 0.117296 -0.763446 0.310072 -0.016432 -0.079447 0.010986 -0.223603 0.267534 0.587395 -0.103051 -0.564998 -0.257437 0.060993 0.144597 -0.157488 0.444098 -0.288512 0.066083 -0.283271 -0.118130 0.444886 0.000323 -0.059920 -0.514120 -0.235045
341 -0.581846 0.010008 -0.344230 -0.782441 0.002061 -0.071334 -0.238225 0.059442 -1.451312 -0.212316 -0.233010 -0.575267 -0.634268 -0.391769 0.382237 -0.019721 -0.393158 0.619413 0.564667 -0.368865 -0.209580 -0.110081 -0.163105 -0.612731 -0.460383 -0.310465 0.617190 0.058008 0.342119 0.425753 0.694860 -0.405956 -0.512519 -0.668170 0.325085 -1.000884 -0.025449 0.765963 -0.091639 -0.220472 0.014432 0.484492 0.464753 -0.342029 -0.878474 -0.605740 -0.207775 -0.018337 1.231410 -0.201416 -0.788476 -0.438393 -0.666464 -0.373803 0.708918 -0.304700 -0.184205 -0.296874 -1.315197 0.175319 0.364403 -0.071243 0.094650 -0.003869
744 -0.305321 0.229978 -0.259608 0.034079 -0.843728 -0.297862 -0.496165 -0.058515 -1.541974 1.529401 -0.155240 0.263784 -0.362316 0.049931 0.092015 -0.009898 0.166955 0.505503 -0.197005 -0.270551 -0.489697 -0.077696 -0.502471 -0.685760 -0.409236 -0.870387 -0.609486 0.462229 -0.886829 -0.020898 1.539354 -0.448293 -0.039412 -0.828409 -0.154732 -1.119486 1.240542 -0.446436 0.613639 0.171872 -0.069126 -0.760210 -0.079330 -0.704480 0.852829 -0.815878 -0.410465 -0.228008 1.195397 0.103939 0.036419 0.320920 0.326936 -0.503287 0.470573 0.343138 0.159096 0.212679 -0.257541 0.401717 -0.559854 -0.745826 0.448193 0.443413
874 -0.289523 -0.175789 -0.271176 -0.699252 0.061975 0.073710 -0.347818 -0.113366 -1.304258 -0.090724 -0.289395 -0.457778 -0.500475 -0.437402 0.471582 0.239879 -0.525074 0.663041 0.916100 -0.211406 -0.162085 -0.353622 -0.099100 -0.564575 -0.637492 -0.073256 0.662354 0.140611 -0.065726 0.199342 0.593786 -0.350338 -0.501903 -0.915167 0.372892 -0.865267 0.240682 0.370274 0.035626 -0.201577 -0.039353 0.435078 0.560538 -0.286030 -0.855170 -0.744839 -0.082436 -0.223036 1.300343 -0.589229 -0.551455 -0.456013 -0.382852 -0.305814 0.468731 -0.251136 -0.081016 -0.501715 -1.344727 0.276761 0.066448 0.027103 0.075419 -0.057235
736 0.014278 -0.633097 -0.107381 -0.343386 0.355217 -0.296999 -0.361426 0.118875 -0.337302 -0.235306 0.213316 0.221481 -0.571379 0.446306 -0.326404 -0.039459 0.318175 -0.264864 0.020087 0.022536 0.492311 -0.459037 -0.713123 0.004132 -0.164316 0.582631 -0.101101 -0.379710 0.568672 0.142826 0.620740 0.141371 -0.319878 -1.148450 0.197520 0.390709 0.307290 0.126979 0.251352 -0.440578 0.270024 -0.027213 0.619173 0.566327 0.540110 0.603754 0.087613 -0.538311 -0.078604 0.072200 -0.406355 -0.088517 0.468536 -0.273066 0.123078 -0.030468 0.046354 -0.811382 -0.493586 0.127753 0.197927 0.631080 -0.383550 -0.151527
369 -1.262072 -0.727756 -0.290531 -0.767039 -0.108575 0.211198 0.935250 -1.102263 -0.734995 0.343515 -0.507713 0.118578 -0.212481 -0.129612 -0.920998 0.452824 -0.510616 0.301061 -1.102728 0.274973 -0.094374 -0.603710 0.319668 -0.371157 0.054209 1.174735 0.143158 -0.387537 -0.225946 -0.405738 0.506653 -0.319420 0.038867 -0.310418 0.709579 -0.070270 1.451878 0.080144 0.386603 -0.598702 0.230521 0.272735 0.804613 -0.183710 0.437596 -0.147012 -1.365978 -0.678508 -0.166076 -0.376764 -0.754467 0.698614 -0.778026 -0.716962 0.710773 -0.532740 -0.099580 0.697233 -0.539892 -0.026867 -0.244419 -0.575132 0.682346 -0.097358
185 0.793641 -0.392884 0.534157 -1.252990 0.051343 -0.150296 -0.532512 -0.339395 -0.084055 0.138529 -0.880546 -0.317879 -0.880935 -0.139836 0.084166 -0.456836 0.195092 1.009946 -0.506150 -0.581671 -0.267963 -0.816783 0.687756 -0.551496 -0.065741 1.118496 -0.184834 0.341461 0.071115 0.630387 1.433294 -0.572145 0.247090 -0.578599 0.799785 -0.329314 0.815347 -0.185080 0.340512 -0.255729 0.920503 -0.469326 0.089758 0.308321 0.524600 -0.459465 -0.353527 0.101900 -0.466973 -0.596528 -0.055506 -0.408613 1.088987 -0.547615 -0.264998 -0.201653 -0.128165 -0.929025 -1.054727 0.012838 -0.790384 -0.187592 0.525749 -0.286716
43 0.023504 -0.325663 -0.698547 -0.105804 0.516200 -0.800685 0.333700 -0.672945 -0.798415 0.117749 -0.578832 -0.205193 -0.574477 -0.169217 0.148926 -0.193750 1.005039 1.696334 -0.033690 -0.306091 -0.439747 0.602879 0.125083 -0.290577 0.583938 -0.191722 0.185405 0.022475 0.217261 -0.333362 -0.204643 0.271957 0.439368 0.059059 -0.432207 0.101827 0.394387 -0.499303 -0.057623 -0.365688 -0.067302 0.591385 0.021507 -0.266961 0.079363 -0.799841 0.114793 -0.383254 0.054006 0.433233 -0.664299 0.103310 0.459505 -0.349157 0.881205 1.207547 0.247293 -0.415947 -1.205942 0.907868 -0.239714 -0.076306 -0.597177 -1.290960
216 0.328807 -0.756402 -0.476723 -0.387794 -1.252111 0.380071 -0.214543 -0.601683 -0.463354 0.867340 -0.517341 -0.001763 -0.623195 0.155355 -0.070435 -0.325636 0.129852 0.162621 -0.014219 -1.380974 -0.217264 -0.110186 -0.112220 0.068138 0.581946 -0.249622 -0.058548 -0.132637 -0.358810 0.599900 1.417274 0.192252 -0.880278 -0.397604 -0.779738 0.508598 -0.133130 0.384768 0.437990 -0.035950 -0.067131 -1.329084 0.385817 0.415661 0.129623 -0.913754 -1.116910 0.262710 0.366967 -0.741993 -1.064064 0.037153 0.183997 0.577538 1.315022 -0.395790 0.021280 -1.062409 -0.991631 1.032891 -0.408202 -0.415952 1.007463 -0.985582
692 -0.371168 0.050002 0.379113 -0.201148 0.748888 0.620264 0.096316 -0.199726 -0.504793 0.866592 0.400493 0.175674 -0.716696 0.408476 -0.121408 -0.046657 0.063409 -0.211950 -0.596838 -0.022243 0.193165 -0.307486 -0.083043 -0.693627 0.118821 -0.358882 0.133662 -0.084654 0.158719 0.499387 -0.283612 -0.656343 -0.155476 -0.223512 -0.687513 0.523045 -0.060858 0.738897 -0.414599 -0.422795 -0.401632 0.526260 0.413021 -0.251680 0.181505 -0.224706 -0.375415 0.411439 -0.113040 -0.906874 -0.630212 0.254991 0.239282 0.251451 0.354560 -0.130618 -0.027730 0.021651 -0.290288 0.271834 0.062501 0.712819 0.154630 0.046384
245 0.005362 0.484508 0.017955 0.183632 -0.443104 0.593135 -0.283367 0.274085 -0.142850 0.385058 0.142079 0.693347 -0.539730 0.052080 0.033720 0.154625 0.483015 -0.298667 0.007908 -0.304335 0.234477 -0.174423 -0.699636 -1.268017 0.366179 -0.077647 0.285085 -0.088913 -0.256668 -0.365550 -0.250160 0.069449 0.399432 0.116065 -0.217844 0.809374 0.782702 0.133858 0.855335 0.261322 0.341471 0.631507 0.107667 0.590744 0.505562 -0.001300 -0.112899 -0.472292 0.631439 -0.032197 -0.484236 -0.583538 -0.043233 0.052400 0.387436 -0.085834 1.003963 -0.373948 -0.684408 -0.053563 0.178933 -0.447869 -0.021930 -0.328713
1069 -0.376267 0.211953 0.535827 -0.610106 0.156279 -0.110265 0.162435 0.509261 -1.052809 0.785413 0.455002 0.066982 -0.423885 0.285011 -0.361769 0.061809 0.491830 0.019301 -0.532738 0.516544 0.105295 -0.290692 -0.070025 -0.132381 -0.144516 0.467639 -0.292697 -0.182783 0.425339 0.014331 -0.066615 0.265893 -0.234318 -0.042889 0.189791 0.152768 -0.002327 0.045368 0.145552 0.068676 -0.758480 0.228314 0.067493 -0.055571 0.035835 -0.338624 0.046359 0.548519 -0.096121 -0.603335 -0.197859 0.072332 0.008481 -0.070875 0.539658 -0.133410 0.073875 -0.236816 -0.070641 0.443888 -0.094953 -0.063283 -0.488949 -0.167723
165 0.004420 0.252604 -0.461224 0.485432 1.155109 -0.582525 0.972655 -0.095053 -0.707659 0.104351 -0.828940 -0.857642 -1.420066 0.500385 -0.301009 0.471894 0.135977 0.959131 0.034603 0.122703 0.279837 0.723429 -0.352937 -0.480610 0.871149 -0.363728 -0.621308 0.487775 -0.528193 -0.026685 0.771365 0.266984 0.424564 0.063851 -0.167322 0.161976 0.319639 -0.502422 0.608602 -0.465912 -0.385831 0.418037 0.469423 -0.709885 -0.286538 -1.058692 0.827425 -0.302687 -0.016960 -0.079139 -0.380479 -0.455131 0.370841 -0.185239 0.812294 0.391148 1.028936 -0.902710 -1.776471 0.619048 -0.858682 -0.349171 0.595367 0.408455
227 -0.002485 -0.186564 -0.029129 -0.317240 0.216378 0.515976 1.014235 -0.510422 -0.542658 0.566206 -0.244913 0.192915 -0.570587 0.113766 -1.311048 -0.255946 0.555108 0.132309 -0.285727 -0.651304 0.216135 -0.468657 0.062385 0.108949 -0.928484 0.339491 -0.311765 0.168965 -0.124014 -0.249757 -0.012626 -0.871047 -0.171974 0.548660 -0.285087 0.614422 -0.180648 -0.107168 0.228127 -0.387177 -0.370230 0.105681 -0.388690 0.619295 -0.124486 -0.623245 -0.042102 -0.648316 1.232275 -0.657527 -1.127338 -1.144464 -0.665617 -0.437188 -0.018657 0.467163 0.158711 0.709218 -0.934962 0.112983 -0.449720 0.988774 0.897363 0.024618
875 -0.447400 -0.149693 -0.337341 -0.779105 -0.038349 0.043103 -0.291900 0.170152 -1.407149 -0.135446 -0.170628 -0.400632 -0.377748 -0.485951 0.294231 0.202713 -0.538149 0.748075 0.900958 -0.272987 -0.105796 -0.334307 -0.023263 -0.664858 -0.600441 -0.041050 0.785697 0.196313 -0.153730 0.077520 0.685871 -0.388875 -0.509154 -0.747693 0.372244 -0.936089 0.146402 0.540671 0.035922 -0.117008 0.020358 0.409445 0.396903 -0.225932 -0.876140 -0.749586 -0.097995 -0.226855 1.159275 -0.466554 -0.567141 -0.560716 -0.288407 -0.273680 0.565381 -0.206609 -0.166764 -0.351308 -1.384044 0.417539 0.076244 -0.002368 0.047816 0.018447
872 -0.268526 0.009102 -0.367422 -0.782339 0.140050 -0.030443 -0.398087 0.056082 -1.413229 -0.130889 -0.108867 -0.331920 -0.445391 -0.513709 0.612585 0.138848 -0.541146 0.553155 0.804142 -0.280427 -0.051006 -0.358945 -0.166535 -0.590921 -0.677081 0.003816 0.550115 0.337025 -0.035354 0.171215 0.544551 -0.488401 -0.496961 -0.773850 0.397386 -0.910847 0.162056 0.471604 0.039944 -0.147963 -0.056489 0.451049 0.393323 -0.256427 -0.780436 -0.713489 -0.284211 -0.213694 1.130173 -0.654427 -0.590673 -0.482332 -0.389429 -0.202009 0.591308 -0.199585 -0.244780 -0.281592 -1.482534 0.340474 0.208023 0.056755 0.142226 0.004934
878 -0.424837 -0.029866 -0.360495 -0.634557 -0.004089 0.043738 -0.236865 -0.151082 -1.340171 -0.032612 -0.211011 -0.355380 -0.490488 -0.343657 0.425649 0.162264 -0.450532 0.593269 0.970995 -0.164167 -0.251370 -0.289802 -0.203034 -0.519912 -0.573836 -0.056646 0.681479 0.156063 -0.007459 -0.103123 0.544687 -0.463999 -0.628012 -0.726486 0.529029 -0.907525 0.143438 0.522795 -0.207459 -0.335313 -0.083466 0.214553 0.509294 -0.312262 -0.872855 -0.766858 -0.148763 -0.198086 1.353503 -0.579271 -0.481145 -0.627094 -0.307765 -0.348746 0.492623 -0.154811 -0.076850 -0.336702 -1.430532 0.336718 0.128739 0.033824 -0.095364 -0.025896
42 -0.027110 -0.209750 -0.679909 -0.011969 0.853324 -0.755922 0.372284 -0.237321 -0.737740 -0.057145 -0.648246 -0.392855 -0.919655 -0.045561 0.188338 -0.116969 0.648621 1.618795 -0.105381 -0.222709 -0.353674 0.558164 0.129629 -0.368625 0.529150 -0.147935 0.087121 0.302234 -0.205285 -0.343200 -0.069247 0.319227 0.567337 -0.062212 -0.507828 0.356326 0.087349 -0.455843 0.022010 -0.465043 -0.062468 0.439715 0.329259 -0.284138 -0.015673 -0.728283 0.072335 -0.570889 -0.125399 0.213823 -0.490852 -0.294885 0.378808 -0.583152 0.670337 1.056471 0.496814 -0.617721 -1.024970 0.627888 -0.431404 0.266210 -0.293883 -1.005865
876 -0.282087 -0.016983 -0.426160 -0.835797 0.048088 -0.146191 -0.371401 0.019292 -1.425960 -0.142571 -0.188027 -0.424751 -0.552508 -0.490296 0.532031 0.214546 -0.467485 0.555758 0.754472 -0.297155 -0.170746 -0.377155 -0.074282 -0.626151 -0.509909 -0.023867 0.621400 0.205306 0.075560 0.107625 0.650025 -0.392997 -0.616588 -0.684942 0.338520 -0.973258 0.203098 0.420311 -0.059245 -0.188866 -0.050231 0.358774 0.493084 -0.340700 -0.871424 -0.687779 -0.171106 -0.115781 1.275698 -0.611352 -0.490552 -0.578689 -0.314674 -0.188658 0.616837 -0.169886 -0.093463 -0.351986 -1.435001 0.261058 0.108593 0.106448 0.055749 -0.043370
527 -1.154391 -0.772288 0.010325 -0.504528 -0.255581 -0.262312 0.745580 -1.170521 -0.350299 0.451302 -0.177899 0.245686 -0.191066 -0.012454 -0.904651 0.310091 -0.147563 0.158579 -1.120494 0.640636 -0.280473 -0.349315 0.168016 -0.264347 -0.108968 0.859952 -0.175662 -0.706032 0.145252 -0.095409 0.430222 0.142087 -0.150113 -0.515141 0.566751 -0.169074 1.349734 -0.154426 0.053444 -0.438528 0.317361 0.431808 0.538879 -0.400612 0.548519 0.028277 -1.261426 -0.652673 -0.140805 -0.639978 -0.700504 0.428336 -0.389172 -0.475006 0.768590 -0.196677 -0.131189 0.936075 -0.650333 -0.110900 -0.490427 -0.394689 0.586561 -0.121488
199 -0.401760 0.173455 0.600407 0.314968 -0.189675 -0.413570 0.404409 0.394465 -0.664765 0.233960 0.098438 0.068759 -0.049720 -0.089620 -0.452966 0.370128 -0.234546 -0.409168 -0.249688 0.184003 0.022050 -0.063926 -0.235130 -0.322484 0.132879 0.006285 0.258159 0.193774 0.058223 -0.007767 0.048559 -0.055919 -0.577944 -0.675723 -0.251477 -0.252879 0.895414 -0.122373 0.497994 0.586499 -0.438540 1.044825 0.051207 0.393464 0.393489 0.671807 -0.091421 0.094884 -0.436348 -0.329496 -0.263701 -0.131823 0.340753 -0.336294 0.079801 -0.014649 -0.214434 -0.000399 -0.406691 0.164963 -0.397137 0.567780 0.276525 -0.136005
877 -0.355335 -0.003612 -0.325346 -0.761205 0.096065 0.092967 -0.336323 -0.112324 -1.319321 -0.177724 -0.272690 -0.398223 -0.505156 -0.382122 0.511867 0.047022 -0.379826 0.576636 0.868962 -0.285868 -0.186526 -0.418342 -0.104781 -0.694041 -0.676624 -0.032879 0.678440 0.202507 -0.028900 0.144250 0.602980 -0.465943 -0.470243 -0.774203 0.430952 -0.847023 0.166311 0.410429 0.023624 -0.186672 0.002591 0.291481 0.417537 -0.373299 -0.688781 -0.744254 -0.089881 -0.198367 1.230220 -0.501533 -0.587098 -0.558580 -0.419840 -0.265546 0.625235 -0.170760 -0.138506 -0.414690 -1.378177 0.333276 0.152983 0.017397 0.115139 0.007111
541 -0.032492 -0.396209 -0.405842 -0.174455 -0.654947 -0.021134 -0.301218 0.374005 -0.227586 0.569516 0.498531 0.080010 -0.660534 -0.224685 -0.803090 0.028199 0.065108 0.325405 -0.689164 0.282062 1.007576 -0.423342 -0.724386 -0.704030 0.337037 0.975447 -0.028312 0.240225 0.334222 0.218549 -0.044926 0.239547 -0.423026 -0.345018 0.476060 0.473316 0.044140 -0.266132 -0.115281 0.110550 -0.236088 0.310350 0.833122 0.064746 -0.519566 0.067814 0.402819 0.409424 0.134311 -0.696599 -0.416490 0.281135 0.084513 -0.339936 -0.326969 0.357247 0.426938 0.139784 -0.280284 0.666268 -0.362726 0.100724 -0.693460 -0.315896
408 -0.940831 -0.483274 0.243601 -0.239982 -0.488893 0.027359 -0.089793 -1.322042 -0.462341 -0.887551 0.107303 -0.247745 -0.501615 -1.388566 -1.532727 0.542739 0.256732 0.922442 -0.660933 -0.151350 0.081135 0.143813 -0.143992 -0.480427 -0.689179 0.620600 0.454453 1.859277 0.520576 -0.581971 -0.116444 -1.240088 0.687401 0.233136 0.527173 0.252518 0.431649 0.138430 0.463960 -0.641427 -0.921562 -0.180530 0.334976 0.820909 -0.949731 0.916266 -0.078698 -0.632961 -0.174979 -0.557233 -0.315482 0.384548 -0.117201 0.536112 0.377382 0.010168 0.287134 -0.639039 -0.891242 1.078092 0.363744 0.046957 0.303489 -0.272081
191 -0.639652 0.790186 0.207114 0.002373 0.182487 0.187083 0.383109 0.361673 -0.821653 1.012064 -0.181063 0.574553 0.222005 0.234205 -0.473921 -0.398037 0.415006 -0.148056 -0.666033 -0.082971 0.199390 -0.201245 -0.331066 0.061462 -0.287384 0.390024 -0.233468 0.556152 0.722150 0.262428 -0.161182 0.151685 -0.029032 0.182505 0.238792 -0.132401 0.097366 0.063892 0.614037 -0.605281 -0.411200 0.475863 0.225616 -0.388257 0.267027 0.209945 -0.030622 0.018320 -0.099917 -0.454573 -0.481040 0.026492 0.150035 -0.288018 0.726704 -0.127150 -0.437526 -0.732477 -0.570935 0.155666 0.025713 0.096877 -0.397485 -0.164309
118 -0.020076 0.181237 0.632080 -0.191854 0.362568 0.312618 -0.270172 -0.129261 -0.416556 0.440413 0.700574 -0.419486 -0.151377 -0.173311 -0.101033 0.276295 0.864099 -0.187755 -0.151869 0.722007 0.078720 -0.035032 -0.625935 -0.149371 0.234538 0.390908 -0.384756 0.161569 0.314701 -0.340709 -0.414645 -0.536683 -0.420502 -0.474150 0.007645 -0.155410 0.722938 -0.075214 0.260124 -0.354059 -0.465511 0.380602 0.664793 0.280327 0.027180 0.124714 0.319246 0.387231 -0.146128 -1.175764 -0.145889 0.367994 0.777825 -0.043730 0.815340 0.055765 0.137707 0.125867 -0.497852 0.536928 0.225578 0.533546 0.018705 -0.132999
210 -0.917875 0.137369 0.380524 -0.079185 -0.710337 -0.175164 0.517609 -0.159345 -1.347994 0.371108 0.083165 -0.448576 -0.927105 0.241989 -0.204527 -0.623066 0.297244 0.680747 -0.621778 1.101059 1.496829 -0.035972 0.389262 -1.043012 -0.062006 0.079839 0.635785 -0.124221 0.063984 -0.290867 0.244799 -0.527024 0.271647 0.039274 -0.543535 -0.983906 -0.189953 0.682290 1.216050 0.378665 0.807389 1.288612 -0.176826 0.689764 -0.093524 0.705132 -0.217370 0.583319 0.190549 -0.572807 0.448651 -0.384880 -1.048435 -0.568050 0.321839 -0.654702 0.267814 0.696363 -2.163063 -0.649955 -0.206751 -0.125363 -0.519669 0.476578
796 0.809880 -0.722684 0.116595 -0.102932 -1.287950 -0.375981 0.208393 -0.357174 -0.349855 1.062021 -0.062813 0.325137 0.472330 -0.246626 -0.411137 -1.248333 0.477990 1.226603 -0.381590 0.606142 0.158084 -0.032166 0.341681 0.492063 0.443180 -0.473283 0.514547 0.374595 -0.381725 -0.649274 0.579407 -0.737712 -0.367197 -1.430804 -0.066995 0.832879 -0.453445 0.203160 0.612790 -0.604991 -0.715924 1.022099 -0.413139 1.132242 -0.725132 -0.384743 -0.120338 -0.557248 -0.961349 -0.177223 -0.538832 -0.336378 -0.227926 -0.335532 1.265993 -0.655692 0.035855 0.163572 -1.234653 -0.458509 -0.817474 0.724910 -0.130088 -0.543533
470 -0.259063 -0.242720 0.742503 0.266292 -0.239246 0.525857 0.185575 0.077792 -1.144183 0.919968 0.357035 -0.474228 0.392666 0.244052 -0.248721 -0.038795 0.024381 -0.240459 -0.469792 0.743620 -0.746586 -0.036752 -0.228976 -0.523074 0.125432 -0.317530 -0.685616 0.571800 0.086800 -0.275773 0.219922 0.110702 -0.511674 -0.201743 0.126972 0.346669 0.262589 -0.639964 1.031065 -0.241037 -0.025680 0.440282 0.300758 0.558004 0.038425 0.028470 0.096523 -0.039385 0.058013 -1.045026 0.116175 -0.235434 -0.008684 -0.450332 0.346179 -0.178523 -0.021201 -0.099362 -0.610393 0.314038 -0.483923 1.353183 -0.099134 0.120649
287 -0.226701 0.097853 -0.045878 -0.115350 0.338070 0.624491 -0.224832 -0.578383 -1.184115 0.351564 -0.026773 0.101545 0.016271 -0.445914 0.465338 0.611621 0.534744 0.640250 0.664649 0.253259 -0.266295 0.161672 -0.111035 -0.256204 -0.631175 -0.413499 -0.192212 0.375804 -0.477938 -0.501922 1.180734 0.060363 0.619497 -0.400643 0.063156 -1.116437 1.285836 0.010514 -0.021610 -0.425288 0.296759 -0.326045 0.355379 -0.352965 0.185435 -0.494817 -0.013663 0.111646 1.586152 -0.407525 -0.444737 0.009878 0.048969 -0.650959 -0.126194 0.122436 -0.191147 -0.448411 -1.033759 0.543175 0.459643 -0.159777 0.227846 -0.154227
472 -0.177843 -0.305065 0.868381 0.167284 -0.170158 0.614953 0.179382 -0.068652 -1.201584 0.791563 0.126019 -0.558584 0.442624 -0.029360 -0.345183 -0.076759 -0.027031 -0.120019 -0.309953 0.684187 -0.599604 0.017483 -0.472212 -0.460481 0.282990 -0.364419 -0.651296 0.542459 0.252023 -0.439902 0.308111 0.056799 -0.457979 -0.252450 -0.006894 0.288955 0.197255 -0.491963 0.956806 -0.231330 -0.050552 0.374802 0.340753 0.665700 0.041739 -0.164545 0.254197 0.167248 0.017690 -0.915971 0.048609 -0.169680 0.176973 -0.475401 0.282283 -0.414890 -0.031321 -0.188860 -0.537572 0.318106 -0.373739 1.435951 -0.131219 0.041255
559 -0.405790 -0.244089 0.057247 0.674003 -0.203852 -0.133130 -0.604524 -0.106881 0.222512 1.140680 -0.175108 0.490274 -0.266732 -0.300725 -0.463287 -1.375420 -0.583068 0.853998 0.707626 0.477744 -0.472787 0.011128 -0.169317 -0.170723 -0.000171 -0.580775 0.037260 0.062502 -0.201344 -0.066101 0.762587 -0.802137 0.265264 -0.359722 0.208150 -0.153490 -0.138351 0.385869 0.238087 -0.239362 -0.132469 0.390869 0.216486 0.604550 0.193598 -0.412250 -0.034411 0.270523 -0.571143 -0.010034 -0.144061 -0.791176 -0.387840 -0.034213 0.315554 0.149829 0.811803 -0.627249 -1.362383 -0.060635 -0.667901 0.186252 0.298828 -1.417173
602 -0.966082 -0.174637 0.223547 -0.342670 -0.532089 -0.207643 -0.544226 -0.029996 -0.704570 -0.015942 0.136740 -0.347379 -0.782347 0.210655 0.237814 -0.152144 0.193402 0.610798 -0.446388 0.781940 0.758416 0.076463 -0.268960 -0.264763 0.071359 -0.079454 0.712704 0.387377 0.486184 -0.122152 -0.028768 -0.745565 0.057544 -0.830008 -0.582769 -0.246270 0.971157 0.686228 0.527486 1.306596 0.043658 1.817516 -0.359626 0.609884 0.052959 0.831380 0.072757 -0.224893 0.495130 -0.683016 0.138888 -0.432811 0.323431 -0.339843 -0.490188 0.535288 0.273395 0.504244 -1.453194 -0.565428 0.025590 0.848931 -0.314391 0.617565
483 -0.274499 -0.316715 0.743913 0.172626 -0.340853 0.495567 0.031974 -0.110105 -1.046123 0.797812 0.334278 -0.486786 0.424448 0.017728 -0.189746 -0.097876 0.099639 -0.315717 -0.297333 0.718154 -0.674896 0.096585 -0.242283 -0.656969 0.167875 -0.310484 -0.761184 0.493520 -0.092151 -0.496921 0.143957 0.104554 -0.071947 -0.207842 -0.180561 0.352840 -0.009598 -0.351844 0.887745 -0.397156 -0.095954 0.448210 0.358640 0.455018 -0.153855 -0.070361 -0.063079 0.328334 0.016405 -1.005249 -0.232183 0.187335 0.084022 -0.713277 0.296770 -0.435544 -0.015906 -0.188762 -0.464576 -0.078158 -0.291752 1.150865 -0.127282 0.097244
121 -0.098615 0.859499 -0.002352 -0.181061 -0.386176 -0.406232 -0.193616 -0.982435 -0.176787 0.648163 -0.666061 -0.043222 0.291272 -0.376267 -0.297190 -0.583875 0.376305 1.310668 -0.825575 -1.043013 0.455413 0.499666 0.281218 -0.783918 0.156853 0.280887 -0.317558 -0.137071 0.312640 0.247226 0.350912 0.440648 0.752213 -0.273207 -0.329346 -0.315739 -0.292747 -0.383892 -0.066657 0.211044 -0.038648 0.537217 0.783812 -0.874136 -0.002361 0.157101 0.727573 0.121114 0.170679 -0.415149 -0.147404 -0.632051 -0.050495 -0.514478 0.531020 0.728137 0.881363 -0.504211 -1.128810 0.098324 0.538837 0.424647 -0.242534 -0.678573
285 -0.368089 0.657420 -0.150628 0.167131 -0.057773 0.462345 -0.510247 -0.585631 -1.610087 0.797259 -0.118711 0.630570 0.081252 -0.797416 0.323990 0.160606 0.727974 1.282448 0.208142 0.366437 -0.086482 -0.147316 -0.230643 -0.559996 -0.741235 -0.262652 -0.525734 0.716849 -0.569989 -0.590223 1.103227 0.044867 0.864674 -0.436703 0.238484 -0.937804 1.249632 -0.376709 -0.295160 -0.282300 0.163095 -0.580599 0.234746 -0.222429 0.413738 -0.795694 0.441857 -0.177856 0.978223 -0.455285 -0.133461 0.577704 0.187136 -0.437720 -0.027392 0.465624 0.160781 -0.064378 -0.862454 0.131050 -0.349024 -0.451411 0.454316 0.216714
775 0.132228 -0.126286 0.574527 -0.087279 -0.744377 0.386091 0.332093 0.657851 -0.739022 0.850952 0.221573 0.288503 -0.326141 -0.476746 -1.020668 0.030901 0.673666 -0.403661 -0.722210 0.545258 -0.255302 0.719044 -0.036753 -0.093719 -0.155535 0.542235 0.087910 0.139815 0.132469 -0.336559 -0.248426 -0.067705 -0.228489 -0.714692 -0.383241 0.045203 -0.225148 0.130138 -0.472428 0.226257 -0.168433 0.048619 0.509229 -0.558697 0.004408 0.151341 -0.259199 0.788138 0.194023 -0.625679 -0.613119 -0.122374 0.623895 0.078914 -0.051965 -0.115581 0.355498 -0.138111 -0.465087 0.451827 -0.711294 0.019332 0.079878 -0.261872
423 -0.627019 0.492402 0.680570 -1.115327 -0.274966 0.893709 0.039812 -0.457256 0.195121 0.193819 -0.488121 0.489502 0.168098 1.359257 -0.924421 0.010272 0.514021 1.279680 -0.546947 -0.181999 1.390939 0.167070 -0.489557 0.047437 0.940254 -1.206233 -1.062628 0.315808 -0.858729 -1.850710 -0.122001 -0.851007 0.274223 0.050528 0.078421 -0.188982 -0.146262 -0.568911 0.023616 -1.468243 0.072179 1.108719 0.260895 -0.741717 1.268348 0.142726 -0.563728 0.612486 0.109295 -0.434623 -0.018649 -0.491054 -0.653258 -0.422376 0.252997 0.496787 -0.011950 0.123976 -2.206002 0.430738 0.249542 0.202238 0.325589 -1.174007
943 -0.758345 0.729764 0.255295 0.192166 0.125127 0.286260 0.510812 0.149050 -0.774287 1.035015 0.021480 0.519833 0.037815 0.066551 -0.723515 -0.476532 0.450823 -0.251064 -0.618087 -0.005914 0.205963 -0.137122 -0.530672 0.064169 -0.194353 0.008582 -0.086712 0.593513 0.828203 0.085102 -0.045610 0.227516 0.106072 -0.001981 0.270260 -0.181332 0.262250 0.138622 0.505407 -0.539624 -0.430356 0.487334 0.125771 -0.251971 0.392144 -0.016890 -0.021187 0.050570 -0.345963 -0.629640 -0.420512 0.084286 0.320043 -0.627944 0.499101 -0.432645 -0.503727 -0.671240 -0.558863 0.440679 0.087134 -0.093491 -0.575811 0.136059
123 -0.014562 0.690400 0.054076 0.186671 0.033588 -0.432257 0.052915 -0.641992 -0.061340 0.280570 -0.296160 -0.176021 -0.076797 -0.013882 -0.148352 -0.522775 0.486970 1.542125 -0.542056 -0.940332 0.086648 0.542896 0.342637 -0.473930 0.327117 0.317553 -0.402963 -0.101146 0.375437 0.125371 0.524627 0.569332 0.528592 -0.098753 -0.163449 -0.272183 0.027770 -0.585375 0.166285 0.300290 0.170786 0.609519 0.544211 -0.703333 -0.019327 -0.138582 0.219850 0.079112 0.344693 -0.068161 -0.264627 -0.245848 -0.113534 -0.504876 0.846019 0.742940 0.936965 -0.505003 -0.973859 0.081613 0.373519 0.640182 -0.053494 -0.847205
288 -0.476533 -0.527431 0.283859 -0.782471 -0.142991 -0.587590 0.555771 -0.770053 -0.057006 0.938495 -0.117015 -0.112015 -0.171868 -0.415881 -1.347791 0.138390 -0.055279 1.021950 -0.428195 0.103030 -0.446751 0.786900 -0.242840 -0.695473 -0.977239 -0.455447 -0.378549 0.271628 0.131237 -0.634272 0.197683 -0.939084 0.228752 0.548270 0.246802 -0.404742 0.180635 1.035901 0.659232 -0.338819 -0.489264 -0.285064 -0.218752 0.702317 0.145011 0.326099 -0.255388 -0.525773 -0.290088 0.286555 0.121726 0.741432 -1.102869 0.559135 -0.007909 -0.131756 0.873768 -0.998895 -1.310106 0.077855 0.109982 0.160503 0.314456 -0.747220
784 -0.266159 0.118904 0.658813 0.189806 0.185738 -0.329101 0.321123 0.140902 -0.320053 0.713137 0.569431 -0.100442 -0.057276 0.023345 -0.176597 0.077878 0.599797 -0.293770 -0.411377 0.241453 0.094816 -0.372403 -0.483022 -0.176589 0.081404 0.126027 0.054633 -0.358505 -0.136676 -0.130252 -0.078592 -0.167046 -0.337037 -0.465013 -0.100993 -0.075777 0.564917 0.046005 -0.063085 -0.342524 -0.459509 0.460209 0.818302 0.239982 0.118358 0.271715 -0.158355 0.063647 -0.262142 -1.192110 -0.408410 0.093060 0.707339 0.202881 0.171343 0.265277 0.054213 -0.166402 -0.416003 0.188581 -0.118055 0.124693 -0.132860 -0.068333
942 -0.636206 0.627888 0.400033 0.116269 0.123197 0.164071 0.422909 0.179635 -0.792296 1.135459 -0.079253 0.328690 0.210601 0.046951 -0.574044 -0.248680 0.669745 -0.141975 -0.731108 -0.069018 0.267369 -0.338115 -0.712273 0.125401 -0.310586 0.001717 -0.249953 0.335399 0.703651 0.167361 -0.066000 0.129814 0.135163 0.018574 0.229979 -0.287238 0.257448 0.090100 0.522366 -0.520777 -0.546025 0.557722 0.039902 -0.328374 0.279829 0.103039 -0.172758 0.045769 -0.228118 -0.484502 -0.483780 0.002413 0.291625 -0.379593 0.495134 -0.428168 -0.475730 -0.806584 -0.462885 0.396788 0.030889 -0.036084 -0.609028 -0.011230
703 0.084008 0.168236 0.467332 -0.091667 -0.748355 -0.032771 -0.512578 -0.598399 -0.083954 0.657497 -0.264461 0.500059 -0.718386 1.162685 -0.244234 0.218550 -0.637452 -0.159580 0.121715 -0.443816 -1.044824 1.524603 0.009171 0.006727 -0.723804 0.985684 -0.260971 0.637158 -0.109206 -0.007646 0.800568 -0.498685 0.080205 0.444939 0.233652 -0.171324 0.839570 0.784221 1.302852 0.032280 -0.861154 -0.359273 0.892252 -0.398023 0.359730 0.215461 -0.952641 -0.361046 -0.449737 -0.714319 -0.398831 -0.011647 0.827866 -0.235660 0.235384 0.694756 0.220731 0.354833 -1.725110 0.202182 -0.214164 0.088892 -0.085158 0.152963
785 -0.040151 0.065271 0.496130 0.031737 0.169374 -0.266444 0.332784 0.119350 -0.338438 0.694626 0.392921 -0.045731 -0.006760 -0.016911 -0.244611 0.262486 0.465343 -0.417369 -0.404860 0.300917 0.107312 -0.261372 -0.478644 -0.169852 0.258937 0.200146 -0.119633 -0.180275 -0.232301 0.282015 -0.068243 -0.177217 -0.359703 -0.356608 -0.298527 -0.272219 0.534974 0.099218 -0.014661 -0.329067 -0.513274 0.597921 0.710455 0.366112 0.228085 0.152159 0.056049 0.040486 -0.322043 -1.308315 -0.372123 -0.023255 0.726865 0.123238 0.193677 0.082095 0.187117 -0.102383 -0.431178 0.309214 -0.037185 0.110024 -0.227186 -0.200742
200 -0.549627 0.320630 0.403717 -0.079152 0.276006 -0.043373 0.484971 0.685344 -1.052506 0.249319 0.175760 0.462995 -0.513719 -0.104936 -0.664362 0.379705 -0.277101 -0.444471 -0.253019 0.135725 -0.356284 -0.321399 0.027354 0.190106 0.333720 0.450441 -0.081947 -0.029761 -0.140283 0.143947 0.162167 -0.214711 0.218851 -0.575356 -0.110856 0.261883 0.390442 0.036541 0.306917 -0.013509 -0.742169 1.037176 -0.305743 0.071676 0.153609 0.247170 -0.197764 0.617951 -0.277318 -0.426285 -0.447869 0.337729 0.272928 -0.440164 0.235735 -0.232620 0.117924 -0.061508 -0.274482 0.100590 0.217852 0.653492 -0.150866 -0.510259
944 -0.506376 0.644805 0.321747 0.212445 0.124992 0.062049 0.382947 0.147356 -0.815060 0.935361 -0.009514 0.399305 0.176988 0.215719 -0.724193 -0.321103 0.635474 -0.058014 -0.455800 0.054166 0.191547 -0.175226 -0.571701 -0.008011 -0.386971 0.250179 -0.337553 0.284043 0.541636 0.111550 -0.049136 0.036807 0.206839 -0.013163 0.345704 -0.157562 0.221360 -0.004411 0.559058 -0.486500 -0.475942 0.357588 0.121436 -0.312838 0.227151 0.092602 -0.156434 0.118957 -0.296981 -0.687533 -0.424456 0.069720 0.195008 -0.373870 0.469397 -0.362186 -0.556580 -0.847264 -0.388458 0.387144 0.152368 0.114600 -0.580643 0.127591
1304 -1.167313 -0.704751 -0.026232 -0.877934 -0.202559 0.140517 0.817543 -1.163977 -0.705975 0.341771 -0.692425 0.081688 -0.129721 -0.125624 -0.943660 0.465153 -0.423537 0.405334 -1.047752 0.618155 -0.232088 -0.500324 0.092781 -0.212750 0.047295 1.183974 -0.041181 -0.629821 -0.139396 -0.351957 0.401254 -0.218156 0.005398 -0.516527 0.669805 0.097275 1.255133 0.213944 0.293657 -0.565545 0.122890 0.311626 0.489926 -0.182673 0.646171 -0.216679 -1.234821 -0.614129 -0.080900 -0.458294 -0.803750 0.635376 -0.635888 -0.544124 0.741150 -0.469364 -0.009846 0.856321 -0.540115 -0.082270 -0.273138 -0.539565 0.617112 -0.188121
220 -0.502742 -0.558048 0.094365 0.237236 -0.582559 -0.319005 0.401372 -0.673648 0.170145 0.430265 -0.019651 0.399084 0.526443 0.310074 -0.683286 0.433039 0.304765 -0.454649 -0.857370 0.498400 -0.220351 -0.455506 0.266922 -0.414313 -0.052965 0.073129 -0.720538 -0.837122 -0.230425 0.655266 0.612591 0.074391 -0.297888 -0.672197 0.032406 -0.260935 1.111786 -0.240793 -0.013934 -0.523062 0.422224 1.199724 0.113254 -0.010306 0.169466 0.086481 -0.850982 -0.488866 -0.498786 -0.903043 -0.290451 0.167937 0.371933 -0.232283 0.468068 0.076529 -0.765196 0.408451 -1.366627 0.382149 -0.478705 -0.288134 0.032578 0.215803
941 -0.721943 0.628532 0.291811 0.110704 0.140623 0.321404 0.448440 0.166426 -0.803414 0.963354 -0.125140 0.374742 0.111686 0.283383 -0.704721 -0.412451 0.633933 -0.074250 -0.512388 0.008464 0.272987 -0.087331 -0.498023 -0.181054 -0.387259 0.006336 -0.197560 0.339602 0.764558 0.113824 -0.116710 0.199901 0.124915 0.052867 0.239195 -0.217872 0.138916 0.043988 0.473224 -0.462952 -0.619789 0.389546 0.082576 -0.278920 0.371234 0.191535 -0.032902 0.034433 -0.354583 -0.594271 -0.349529 0.004243 0.359596 -0.510156 0.532951 -0.425336 -0.635860 -0.806603 -0.435354 0.386109 -0.081395 -0.009697 -0.578318 -0.038577
1305 -1.315383 -0.748471 -0.102122 -0.778859 -0.062849 0.148999 0.850033 -1.264647 -0.695291 0.483489 -0.521831 0.200774 -0.128663 -0.099593 -1.106952 0.542337 -0.395941 0.573177 -0.900241 0.621656 -0.177476 -0.349999 0.068655 -0.357740 -0.044671 1.138196 0.067870 -0.509518 -0.119492 -0.369190 0.466778 -0.186795 0.001094 -0.604864 0.714939 0.204567 1.311293 0.181192 0.190446 -0.489625 0.173163 0.297335 0.726850 -0.265342 0.588645 -0.145401 -1.227315 -0.650236 -0.088690 -0.522983 -0.764496 0.706233 -0.610366 -0.511786 0.621447 -0.645607 -0.079322 0.875128 -0.399150 -0.013078 -0.333344 -0.465163 0.679004 -0.241006
366 -0.519136 -0.034922 -0.066509 -0.232084 -0.104920 0.054146 -0.290386 0.088068 -0.070314 0.320269 0.475656 -0.070758 -0.410056 0.209703 -0.389121 0.712164 0.008443 0.425405 -0.439565 -0.595698 1.106287 -0.237152 -0.467357 -0.491307 0.213622 0.190257 -0.741794 -0.196360 -0.065624 -0.047728 0.199686 0.322010 0.023824 -0.362346 0.427582 0.145174 -0.057916 0.444888 -0.268881 0.342054 0.274680 0.481120 0.313029 0.218577 -0.306723 0.057304 -0.144095 -0.073343 -0.138837 -0.446334 -0.092793 -0.217121 0.141402 -1.038095 0.231367 0.572202 0.833148 -0.217040 -0.626869 0.584381 -0.265246 -0.022828 0.390052 0.325443
364 -0.552720 0.169717 -0.069311 0.015385 -0.764741 -0.453799 0.259569 0.312840 -0.902839 -0.025015 -0.269325 -0.325832 -0.220109 0.056039 -0.065759 0.325696 -0.095653 -0.184089 -0.315261 0.352336 0.473368 0.188224 -0.361692 -0.246144 0.514422 -0.169201 0.355495 -0.029066 0.221894 -0.211336 -0.244169 -0.628316 -0.122121 -0.489225 0.042417 -0.236302 0.748107 0.409157 0.667369 0.961544 0.149594 1.289023 -0.259374 0.650463 0.640352 0.731926 -0.112871 0.112327 0.202433 -0.423062 -0.020973 -0.300247 0.171354 -0.178632 0.088991 -0.099599 0.376090 0.086890 -1.070050 -0.323743 -0.458703 0.379070 0.323162 0.292257
484 -0.143753 -0.301055 0.873429 0.101802 -0.280595 0.596668 0.075796 -0.043897 -1.246019 0.771584 0.346941 -0.453009 0.315945 0.067052 -0.250756 -0.192897 -0.037829 -0.149435 -0.320111 0.735736 -0.806525 0.183834 -0.393738 -0.673251 0.109534 -0.234675 -0.630611 0.371298 -0.088698 -0.415706 0.344068 -0.083014 -0.298182 -0.332114 0.048305 0.148851 0.039258 -0.506222 0.852368 -0.408379 0.015803 0.431273 0.448431 0.612391 0.093377 0.181329 0.007049 0.329965 -0.173947 -0.903497 0.001832 0.031928 0.124257 -0.608372 0.244375 -0.423849 -0.044146 -0.232090 -0.464386 0.141743 -0.193431 1.220438 -0.205298 0.011346
774 -0.054214 -0.168324 0.183261 -0.250639 0.121220 0.524612 0.948859 -0.390781 -0.529981 0.694120 -0.125566 0.045793 -0.771150 0.293166 -1.368512 -0.330848 0.408709 -0.030145 -0.335393 -0.470513 0.296893 -0.440839 0.232581 -0.002319 -0.643574 0.512474 -0.409312 -0.043738 -0.275106 -0.377683 0.020848 -0.965270 -0.084953 0.532999 -0.582356 0.500837 -0.103933 -0.041970 0.127876 -0.289276 -0.505269 0.051816 -0.426381 0.735816 -0.079058 -0.439512 0.054823 -0.568374 1.167099 -0.387665 -0.940127 -1.078477 -0.514759 -0.461537 -0.259541 0.495842 0.152554 0.538706 -0.855433 -0.121429 -0.323801 0.932569 0.651116 -0.182323
985 0.698193 -0.280633 0.364471 0.197732 -0.347209 0.884130 0.010504 0.717427 -0.772522 1.204244 -0.266125 0.663840 -0.378152 -0.279988 -1.186939 -0.094905 0.896367 -0.350917 -1.032459 0.627810 -0.408357 0.736602 -0.129306 -0.287102 -0.757171 0.450208 -0.085598 0.091748 0.487104 -0.357786 -0.063804 -0.235969 0.031792 -0.615800 -0.648985 0.009990 -0.265906 0.154310 -0.132514 0.253570 -0.469369 0.201886 0.782536 -0.269188 0.142510 0.523136 -0.830122 0.887814 0.583852 -0.576498 -1.047907 -0.428801 0.624939 -0.131435 -0.197539 0.051769 0.603744 -0.198367 -0.357496 0.097318 -0.597829 0.196763 0.833960 -0.635059
402 0.024098 -0.786743 0.587666 -0.965535 -0.873399 0.081038 -0.512642 -0.350925 0.099455 0.551634 0.264843 0.807909 -0.584990 0.609790 -0.161255 0.265623 -0.263316 0.564004 0.755186 -0.420965 -0.555190 0.840079 -0.113389 0.422571 -0.024731 1.019799 -0.354100 0.175463 0.355012 -0.771770 1.029765 -0.431458 0.153268 0.642904 -0.278706 -0.305023 0.342353 0.938353 1.251470 0.254832 -0.333638 -0.461109 0.344532 -0.238297 0.275170 -0.215344 -0.021582 -0.548457 -0.455426 -0.022818 -0.644078 -0.246764 0.575486 -0.561927 0.344850 0.287748 -0.399519 0.625450 -1.395385 0.534360 -0.664329 -0.098743 -0.308954 -0.057795
481 -0.098948 -0.201026 0.693588 0.124700 -0.222376 0.437972 0.016836 0.066783 -1.189614 0.865828 0.242742 -0.424224 0.432123 -0.090269 -0.255633 -0.094958 -0.025722 -0.221371 -0.407431 0.793487 -0.709910 0.061948 -0.408042 -0.588122 0.121032 -0.170618 -0.706174 0.479937 0.008080 -0.398829 0.287748 0.023343 -0.366714 -0.377350 -0.122984 0.198917 0.173780 -0.400358 0.962219 -0.343852 0.008287 0.378551 0.285451 0.553225 -0.026761 0.158501 0.056765 0.251126 -0.169794 -0.977882 -0.020058 0.119103 0.099571 -0.589514 0.353495 -0.453337 0.102328 -0.081148 -0.519486 0.050581 -0.030856 1.166923 -0.075126 -0.038374
938 -0.121220 -0.380618 0.638971 -0.426973 -0.725954 -0.847852 -0.162246 1.006711 -0.538980 0.600314 -0.564098 -0.238412 0.511284 -1.311347 -0.528344 -0.035961 -0.036402 0.453643 0.074086 -0.495080 -0.347221 -0.721901 -0.024717 -0.801209 -0.717137 -0.348798 0.865955 0.308685 -0.362905 -0.284799 0.612379 -1.111647 -0.119817 -0.413164 0.678469 -0.688379 0.748714 1.089534 -0.444279 0.026238 -1.060788 -0.046384 1.714968 -0.203711 -0.412861 -0.496668 0.514107 -1.109937 0.972851 -0.310708 -1.068957 -0.399262 0.056812 -0.193958 0.061890 -0.427521 0.434379 0.592696 -0.978370 0.446883 -0.974967 1.470810 -0.372829 0.342120
390 -0.251588 -0.952118 0.227770 -0.749699 0.232495 -0.737031 0.556720 0.072351 -1.433619 0.189337 0.815998 0.549723 0.378228 0.472427 -0.897846 0.197340 0.410872 0.564557 -0.324062 0.125595 0.158865 -0.225798 -0.645342 -0.020824 -0.048988 -0.324700 -0.246641 0.224229 -0.082926 0.226644 0.705973 0.262641 -0.049810 -0.599111 0.688042 1.256633 0.552965 0.743340 -0.395491 -0.286401 -1.092052 -0.844616 0.014683 0.107253 0.404567 0.348606 0.196142 -1.386546 0.573839 0.299762 -1.099519 -0.328237 0.864663 -0.013859 0.864175 -0.394219 0.265172 -0.364151 -0.541456 -0.122715 0.643708 0.527612 -0.526623 0.094297
773 0.021856 -0.159152 0.236006 -0.192016 0.234694 0.537952 1.035408 -0.418977 -0.460793 0.623951 -0.183656 0.058060 -0.694956 0.192076 -1.359779 -0.210769 0.462671 -0.111154 -0.357413 -0.512502 0.284235 -0.462343 0.069952 -0.005363 -0.694040 0.589564 -0.377020 0.053395 -0.305027 -0.339993 0.085516 -0.988661 0.018472 0.286479 -0.723338 0.516568 -0.086454 0.143636 0.026595 -0.202022 -0.482235 0.097834 -0.489820 0.678648 -0.037368 -0.392563 0.000659 -0.454354 1.095799 -0.360465 -0.907355 -1.007311 -0.331552 -0.426684 -0.092745 0.424726 0.151885 0.636543 -0.906411 0.038693 -0.383278 1.040495 0.664575 -0.095314
291 -0.312376 -0.612338 0.252484 -0.731943 0.052743 -0.608262 0.472169 -0.918458 -0.043853 1.224102 -0.141159 -0.108383 -0.109769 -0.320063 -1.229595 -0.007886 -0.063161 0.855442 -0.394436 0.225601 -0.420465 0.816455 -0.220948 -0.699130 -0.883686 -0.417957 -0.520555 0.340280 0.008169 -0.613831 0.059632 -0.850087 0.154176 0.578103 0.339712 -0.474081 0.030101 0.943390 0.619359 -0.324082 -0.251314 -0.445831 -0.123158 0.714049 0.107028 0.332447 -0.046523 -0.543680 -0.252310 0.142954 0.007964 0.726093 -1.077624 0.454171 -0.162041 -0.046680 0.842777 -1.163063 -1.304301 0.160555 0.153733 -0.043458 0.279736 -0.887382
213 -0.632503 -0.016808 0.174874 -0.019500 -0.790150 -0.493997 0.130090 -0.196138 -0.934206 0.064944 0.063750 -0.499883 -0.678962 0.242717 -0.133292 -0.149821 0.390181 0.405417 -0.500046 0.889896 1.107002 0.081145 0.265423 -0.702755 0.059367 -0.119741 0.762439 -0.015287 -0.066958 -0.210198 0.007765 -0.532630 0.280707 -0.432449 -0.218127 -0.392445 0.392943 0.555626 0.796881 0.794570 0.446457 1.565881 -0.372103 0.673441 0.189724 0.751178 0.013311 0.241597 0.280246 -0.633333 0.046768 -0.178281 -0.240122 -0.210023 0.090022 -0.444637 0.223940 0.547390 -1.743140 -0.707082 -0.088384 0.444887 -0.340110 0.465138
293 -0.470528 -0.629179 0.261039 -0.659629 -0.122449 -0.613035 0.419379 -0.901321 0.000312 0.994969 -0.122426 -0.151631 -0.066267 -0.359685 -1.167614 0.118267 0.119954 0.922481 -0.435850 0.201232 -0.572194 0.799700 -0.254759 -0.676304 -0.925902 -0.538648 -0.421198 0.253922 0.162232 -0.567706 0.246136 -0.918669 0.307824 0.621976 0.328025 -0.360625 0.243335 0.972421 0.546988 -0.209302 -0.389522 -0.278575 -0.097517 0.653334 0.123269 0.362887 -0.098910 -0.546596 -0.245847 0.141735 0.062216 0.863824 -1.205785 0.552352 -0.168062 -0.176951 0.860405 -1.001414 -1.198717 0.109864 -0.018711 0.169178 0.277219 -0.824999
771 0.065984 -0.315543 0.197307 -0.334758 0.207552 0.645386 0.971555 -0.375120 -0.462017 0.662000 -0.132878 0.170527 -0.719757 0.229899 -1.318078 -0.211636 0.512775 0.024707 -0.382424 -0.515158 0.274274 -0.405888 0.223028 -0.082955 -0.641562 0.528159 -0.289387 0.108049 -0.384345 -0.140056 0.084851 -0.933656 0.062914 0.370779 -0.568388 0.650422 -0.124625 0.061886 0.159337 -0.286793 -0.441549 0.151929 -0.435342 0.597812 -0.057861 -0.300807 -0.008831 -0.585867 1.142150 -0.394807 -1.033735 -0.983361 -0.309008 -0.594861 -0.200483 0.313815 0.112710 0.681845 -0.766463 -0.167753 -0.429881 1.072484 0.723700 -0.101823
1303 -1.248799 -0.720582 -0.155259 -0.690381 -0.070410 0.056033 0.910065 -1.102780 -0.629041 0.355337 -0.618613 0.109304 -0.036644 -0.061742 -1.043892 0.457161 -0.340605 0.433323 -0.987301 0.490456 -0.220933 -0.476597 0.228813 -0.173990 0.009043 1.071508 0.131224 -0.465213 -0.142262 -0.394145 0.523514 -0.186893 0.059295 -0.503844 0.689610 0.110616 1.334700 0.235021 0.132101 -0.502510 0.009079 0.358110 0.739046 -0.274090 0.592813 -0.086439 -1.163728 -0.663458 -0.120038 -0.442389 -0.930067 0.691136 -0.709325 -0.652443 0.626916 -0.600024 -0.158385 0.772730 -0.461565 0.031019 -0.255756 -0.439218 0.636725 -0.245711
691 -0.094006 0.205795 0.488380 -0.348828 0.883558 0.944614 0.002410 -0.430475 -0.365629 1.074817 0.474239 0.274131 -1.112314 0.283387 0.161977 0.222790 -0.046517 -0.042543 -0.648546 -0.187289 0.210075 -0.132742 -0.311103 -1.037172 0.372518 -0.414485 0.091316 -0.057653 0.474778 0.524075 0.050817 -0.716222 -0.281883 -0.157620 -0.895391 0.807850 0.078471 0.996619 -0.322374 -0.608145 -0.324275 0.440409 0.353207 -0.295494 0.240540 -0.224001 -0.219991 0.525699 0.259083 -0.750970 -1.070623 0.295589 -0.178402 0.301489 0.176783 -0.006860 -0.101599 0.045384 -0.316514 0.183999 0.145347 0.661985 -0.137117 0.180053
769 -0.062301 -0.206777 0.198687 -0.203829 0.136110 0.593630 1.024104 -0.325061 -0.536603 0.733549 -0.261250 0.172224 -0.582558 0.100172 -1.385863 -0.201045 0.459653 0.064458 -0.319731 -0.425500 0.255431 -0.431748 0.277494 0.011180 -0.601474 0.516851 -0.326545 0.220973 -0.224524 -0.345301 -0.198880 -0.881739 -0.035255 0.508382 -0.644960 0.547029 -0.046006 0.103626 0.175561 -0.167362 -0.550012 0.068309 -0.420557 0.738591 -0.025312 -0.322804 -0.021953 -0.459360 1.171484 -0.369928 -0.957769 -0.834841 -0.294738 -0.631493 -0.274560 0.462978 0.159952 0.609610 -0.807328 -0.033489 -0.523129 0.996125 0.735317 -0.189649
482 -0.145301 -0.410651 0.680012 0.124772 -0.154727 0.654673 0.079727 -0.001294 -1.243335 0.750839 0.374249 -0.329421 0.428665 0.030407 -0.174973 -0.172496 -0.016148 -0.188280 -0.365653 0.708882 -0.667368 0.088198 -0.338924 -0.533868 0.099647 -0.204006 -0.623875 0.542537 -0.108078 -0.290817 0.311588 0.050167 -0.330104 -0.319596 -0.086669 0.297766 0.102358 -0.477036 0.945188 -0.358611 0.008771 0.400510 0.426681 0.470145 -0.007269 0.132577 0.005918 0.174307 -0.079875 -0.888571 0.046961 0.052327 0.154083 -0.612383 0.377393 -0.359466 0.079815 -0.245144 -0.581261 0.119576 -0.289285 1.360195 -0.367739 0.056301
289 -0.313622 -0.657295 0.134570 -0.772809 -0.056211 -0.733856 0.449916 -0.867168 -0.018754 1.038650 -0.065363 0.037561 -0.225068 -0.479522 -1.216871 0.148847 0.001573 0.907127 -0.398044 0.091219 -0.425370 0.713041 -0.222868 -0.591602 -0.847909 -0.538105 -0.174870 0.251134 0.008750 -0.552921 0.251837 -0.800162 0.369990 0.591791 0.356460 -0.329782 0.122055 1.102788 0.624076 -0.224474 -0.390134 -0.321572 -0.041272 0.599125 0.285047 0.502736 -0.076235 -0.442536 -0.432710 0.142410 0.080963 0.846895 -1.083511 0.620066 -0.079991 -0.172740 0.996967 -1.016698 -1.407478 0.109533 0.051618 0.123682 0.282718 -0.727236
770 0.056193 -0.170656 0.208188 -0.285659 0.170053 0.523103 0.971214 -0.459985 -0.380312 0.663123 -0.167846 0.182497 -0.692695 0.111061 -1.256935 -0.146061 0.485439 -0.094092 -0.395036 -0.511539 0.362666 -0.467744 0.181485 0.003621 -0.647613 0.560585 -0.250442 -0.069418 -0.405505 -0.285837 0.004307 -0.915481 0.007241 0.620752 -0.587526 0.576992 -0.087208 0.097635 0.179133 -0.281242 -0.541792 0.139991 -0.432472 0.588200 -0.008469 -0.454838 0.030240 -0.532896 1.023892 -0.397969 -0.937304 -1.003219 -0.264804 -0.506187 -0.202923 0.492091 0.217618 0.701699 -0.894650 -0.057424 -0.386321 1.125157 0.570521 -0.134431
557 -0.189559 -0.391746 0.063382 0.598231 -0.263305 -0.180145 -0.550146 -0.086978 0.275136 1.118566 0.020936 0.516369 -0.290523 -0.209034 -0.228502 -1.389340 -0.451877 0.809258 0.597204 0.613248 -0.368075 -0.023948 -0.202890 -0.107379 -0.046577 -0.548319 -0.115427 -0.282595 -0.319002 -0.228643 0.686472 -1.080818 0.574610 -0.597448 0.277260 -0.261613 -0.080534 0.350202 0.077225 -0.201435 -0.337836 0.415031 0.268034 0.334234 0.118391 -0.201448 -0.077443 -0.054781 -0.836552 -0.149304 -0.102341 -0.831818 -0.418266 -0.132277 0.396475 0.093218 0.723241 -0.901881 -1.383808 -0.082367 -0.604251 0.145420 0.322241 -1.310695
447 -0.198841 0.622057 0.527303 -1.441780 -0.191195 0.333862 -0.277597 -0.660632 0.427250 0.361030 -0.054139 0.185104 -0.309606 0.980709 -0.996364 0.508599 0.682322 1.119570 -0.334791 -0.709093 0.933573 0.205847 -0.302299 0.112400 0.930668 -0.942456 -1.176076 0.252996 -0.487485 -1.375516 0.082392 -0.563262 0.067522 -0.026690 0.192544 -0.359978 -0.082311 -0.433991 0.022088 -0.936947 0.151347 1.297921 0.140614 -0.686762 1.163269 0.369194 0.001687 0.412518 0.314816 -0.461663 -0.007539 -0.549798 -0.417858 -0.798393 -0.073084 0.668054 -0.014922 -0.101674 -1.482820 0.378827 0.259112 0.204284 0.032006 -0.758004
480 -0.119147 -0.286859 0.684843 0.311333 -0.184262 0.451555 0.205976 -0.081300 -1.178126 0.848808 0.273059 -0.493638 0.525319 -0.019734 -0.343085 -0.235911 0.026500 -0.228771 -0.336459 0.650460 -0.742943 0.048037 -0.226150 -0.554210 -0.010705 -0.302154 -0.573526 0.596365 0.046759 -0.304202 0.290800 0.079845 -0.250104 -0.293201 -0.202986 0.286080 0.207778 -0.423789 0.777610 -0.396823 0.042140 0.414874 0.380044 0.596881 -0.032464 -0.009335 0.012555 0.324038 -0.124607 -0.962303 -0.207649 0.101927 0.125096 -0.621702 0.339203 -0.339627 -0.034806 -0.159469 -0.634556 0.170371 -0.101818 1.361675 -0.144799 0.155104
555 -0.296751 -0.280361 -0.091217 0.648443 -0.154168 -0.054133 -0.549585 -0.079106 0.380941 1.102389 -0.064424 0.557338 -0.414070 -0.316575 -0.244371 -1.379190 -0.405367 0.825468 0.528338 0.557062 -0.380613 -0.064221 -0.018447 -0.231873 -0.179612 -0.540121 0.028831 -0.035971 -0.325307 -0.184205 0.820674 -1.076768 0.520360 -0.489936 0.339176 -0.180318 0.105397 0.280997 0.203456 -0.197253 -0.201570 0.558123 0.183071 0.471491 0.083678 -0.519939 -0.097763 0.048037 -0.828280 -0.204474 -0.092249 -0.763968 -0.518229 -0.042265 0.478369 0.056661 0.665320 -0.840281 -1.277333 -0.101269 -0.728034 0.370424 0.296285 -1.246650
365 -0.292990 -0.148001 -0.210426 -0.281430 -0.135682 0.042011 -0.189503 0.076405 0.006452 0.307992 0.604019 0.016392 -0.390510 0.245100 -0.474780 0.729811 0.080395 0.528579 -0.320188 -0.564033 0.934218 -0.335448 -0.579060 -0.419155 0.289492 0.204349 -0.749704 -0.161340 -0.002157 0.060171 0.180467 0.456471 -0.105590 -0.332847 0.415062 0.106272 0.131801 0.369064 -0.345942 0.435685 0.138963 0.528894 0.163976 0.197790 -0.288622 0.155057 -0.062813 -0.241538 -0.177225 -0.481188 -0.112916 -0.067093 0.005498 -1.179882 0.099202 0.505785 0.877153 -0.147734 -0.819358 0.557187 -0.333692 0.205071 0.266895 0.245311
277 -0.317471 0.224773 -0.237317 0.126567 -0.541641 -0.151276 -0.402675 -0.307536 -1.635844 1.520676 -0.297021 0.294396 -0.230751 0.071475 0.248462 -0.053138 0.375364 0.579659 -0.067177 0.055998 -0.430029 -0.101010 -0.597234 -0.663610 -0.672864 -0.776438 -0.567445 0.222869 -0.874759 -0.163541 1.611185 -0.509839 0.363673 -0.811552 -0.122122 -0.993329 1.122397 -0.228024 0.388208 0.187545 -0.070593 -0.909086 -0.007607 -0.554258 0.705236 -0.922797 -0.191498 -0.356291 1.287643 -0.081217 0.001897 0.352999 0.114791 -0.317281 0.359026 0.245585 0.116226 0.163901 -0.356186 0.412948 -0.463555 -0.732219 0.432752 0.480401
441 -0.414052 -0.364834 -0.032948 -1.116855 0.539063 0.427071 0.785789 -0.534909 -0.938225 0.032673 0.162234 -0.190807 -0.736039 -0.500341 0.559015 -0.205527 -0.082764 0.394490 1.026506 -0.414311 0.221565 -1.055851 0.240381 -0.603546 -0.085266 -0.345802 0.653679 0.497614 -0.642078 0.402698 0.531407 -1.113892 -0.056846 -0.809876 0.076267 -0.954157 1.146933 -0.235270 -0.149232 0.036466 0.611386 0.232954 0.226519 -0.117035 -0.117954 -0.024422 0.147069 0.494642 0.809179 0.094339 -0.171701 -0.491619 0.105629 -0.652331 1.125053 0.513130 -0.126523 -0.893551 -1.468126 0.166982 -0.228725 -0.443604 -0.098748 -0.341563
747 -0.375851 0.363634 -0.232048 0.058095 -0.561271 0.021542 -0.375178 -0.230955 -1.546052 1.575404 -0.494127 0.327036 -0.270786 0.168292 0.265667 -0.056934 0.411425 0.512174 0.025248 -0.014526 -0.224046 -0.107798 -0.662962 -0.633568 -0.658984 -0.689855 -0.619220 0.252629 -1.109117 -0.130402 1.756531 -0.360837 0.315166 -0.781393 -0.169159 -1.014525 1.185422 -0.378508 0.432586 0.123516 -0.003150 -0.897143 0.049211 -0.487087 0.792071 -0.957352 0.018624 -0.360318 1.234028 -0.162323 0.017681 0.182808 0.165729 -0.269869 0.415269 0.208507 0.035938 0.101565 -0.313083 0.365470 -0.339799 -0.552075 0.336818 0.223929
266 0.604587 -0.797646 -0.499674 -0.293383 -1.442084 0.456837 -0.193245 -0.708723 -0.495777 1.158169 -0.861036 0.050216 -0.640342 0.211357 -0.391674 -0.247811 -0.046459 0.166520 -0.205711 -1.335129 -0.278586 -0.043716 -0.298357 0.257675 0.622771 -0.411363 0.021411 0.117095 -0.284888 0.469331 1.473602 0.024878 -0.824529 -0.456813 -0.509993 0.709458 -0.159815 0.074202 0.272281 0.188618 -0.177192 -1.378000 0.267488 0.155168 0.132284 -1.122695 -0.854663 0.355932 0.711074 -1.129896 -1.079354 -0.413004 0.300790 0.682290 1.042469 -0.367850 0.223686 -0.914036 -0.746676 1.326931 -0.457304 -0.222183 0.848639 -0.833067
743 -0.284205 0.164527 -0.160264 0.091238 -0.636700 -0.048213 -0.388391 -0.310736 -1.485983 1.602105 -0.429865 0.211971 -0.245342 -0.017062 0.181850 -0.108898 0.337357 0.532272 -0.084547 0.058872 -0.275602 -0.177435 -0.605478 -0.639480 -0.600200 -0.735718 -0.596073 0.326755 -0.971462 -0.269719 1.716705 -0.485054 0.342679 -0.788959 -0.124205 -1.068334 1.293975 -0.236433 0.579379 0.247994 0.149878 -0.906441 0.005205 -0.339547 0.799937 -1.019817 -0.018720 -0.333992 1.162915 -0.022951 0.089566 0.190108 0.226184 -0.381217 0.305368 0.151095 0.140458 0.156694 -0.288334 0.410742 -0.494029 -0.712008 0.351435 0.481577
328 -0.736692 -0.617631 0.666847 0.385719 -1.107204 0.740409 -0.316270 -0.438372 0.157727 0.257953 -0.805180 0.493165 -0.435328 0.098530 0.586470 -0.725365 0.115073 1.062226 -0.357647 0.571444 0.344815 0.368756 0.629691 -0.252119 -0.099607 -0.088856 0.332726 0.045574 -0.145477 0.771504 1.204258 -0.302792 0.281219 -0.449322 -0.084663 -0.136932 1.133523 0.520641 -0.081085 0.010992 -0.578470 -0.088076 0.245555 0.858268 -0.625509 -0.678478 -0.247108 -0.422768 -0.203639 -0.299539 -0.258534 0.889536 -0.003344 0.215542 0.049236 -0.040633 0.134698 -1.770183 -0.640274 0.358719 -0.322415 0.371371 -0.322456 -1.522447
681 0.801946 -0.378824 0.431737 0.051120 -0.039584 0.653699 0.147694 0.355258 -1.030044 0.530282 0.153443 0.618067 -0.597333 -0.440966 -1.019570 0.193655 1.115897 -0.188009 -0.882429 0.834858 -0.480745 0.784123 0.131949 -0.116165 -0.660420 0.950346 0.202421 -0.043714 0.642144 -0.194368 0.108426 -0.264623 0.528797 -0.809147 -0.840238 0.144053 -0.018705 -0.019518 -0.560266 -0.013453 -0.400966 0.206223 0.377309 -0.495057 -0.060163 0.304053 -0.716932 1.116295 0.707796 -0.538877 -0.746047 -0.383328 0.843461 -0.173733 -0.119868 -0.060272 0.513905 -0.215071 -0.528907 0.243738 -0.521714 0.413270 0.671640 -0.491375
473 0.224485 -0.136667 0.473698 0.092007 0.041173 0.060840 0.116687 0.373517 -0.786542 1.307086 0.237390 -0.602250 -0.249711 0.334737 -0.583756 0.058276 0.168405 -0.499861 -0.678669 0.181398 -0.397896 -0.214279 -0.047005 -0.256432 0.228985 -0.051786 0.043424 0.241366 -0.212738 -0.097414 0.029008 -0.554673 -0.278345 -0.442193 -0.547262 0.049014 0.459836 0.068168 0.649412 -0.475785 -0.155410 0.404775 0.454769 0.037068 -0.080301 -0.112002 -0.099343 0.700874 -0.145032 -0.358383 -0.023885 0.439849 0.444965 -0.462162 0.679785 -0.448411 0.385016 -0.279221 -0.161472 0.494201 0.004670 0.365554 -0.100231 0.281504
746 -0.334862 0.213439 -0.203029 0.146359 -0.558359 -0.090985 -0.371710 -0.113700 -1.596419 1.530927 -0.385023 0.243223 -0.387619 0.155211 0.210491 -0.033248 0.295853 0.602807 -0.086881 0.033654 -0.233084 -0.206838 -0.558180 -0.524205 -0.605940 -0.729790 -0.600185 0.272910 -0.907970 -0.035103 1.745128 -0.417650 0.245286 -0.792383 -0.083882 -1.008376 1.226848 -0.230919 0.488553 0.286048 -0.065925 -0.875804 -0.031900 -0.377882 0.750391 -0.892167 -0.192059 -0.322144 1.288248 -0.148408 0.108342 0.305278 0.179098 -0.322404 0.232843 0.160834 0.116171 0.103047 -0.291943 0.321104 -0.521318 -0.682169 0.378996 0.422738
574 -0.486066 -1.085917 0.648919 -0.748183 -1.383744 0.389944 -0.851193 -0.283588 0.400453 -0.031911 0.824070 0.543190 -0.750557 0.199674 -0.407863 0.095746 0.216739 0.601593 0.260929 -0.733876 -0.528811 0.353474 -0.199751 0.547701 0.079132 1.235721 0.213097 0.192477 1.137491 -0.826113 1.232851 -1.436654 1.173905 -0.014233 -1.044826 -0.431597 0.625061 0.529869 0.878567 -0.109513 -0.096590 0.468762 0.461568 -0.245282 -0.354098 -0.414052 0.002491 -0.047017 0.479195 0.774552 -0.694228 -0.885936 0.219531 -0.758489 0.725063 0.277383 -0.413136 0.467810 -0.750073 0.893127 -0.403126 -0.195282 -0.261178 -0.145902
235 -0.068268 0.615858 0.042707 -0.049661 -0.475716 0.268882 -0.252994 0.336221 -0.115849 0.091627 0.328946 0.611982 -0.727680 0.429598 0.087836 -0.103642 0.815051 -0.681254 0.143691 -0.074394 -0.139772 -0.323223 -0.173358 -1.725346 0.696809 -0.020809 0.225722 -0.010431 -0.455398 0.161335 -0.552311 -0.383354 0.244819 -0.020847 -0.131723 1.049048 0.747654 0.365491 0.304994 -0.063349 -0.289664 0.153170 -0.266572 0.086310 0.314810 0.456816 0.201113 -0.221676 0.930996 -0.235679 -0.421607 0.130173 -0.063842 -0.340893 0.002039 -0.378618 0.738853 -0.203057 -1.006574 0.158857 -0.183589 -0.253904 0.252963 -0.212383
558 -0.295639 -0.305107 0.150132 0.443838 -0.264764 -0.104536 -0.665465 -0.133018 0.398901 1.113579 -0.054147 0.417743 -0.442580 -0.241962 -0.209735 -1.433684 -0.473142 0.888837 0.461122 0.686874 -0.325915 -0.073305 -0.080132 -0.210019 -0.094531 -0.508129 -0.079569 -0.078349 -0.430425 -0.201457 0.815831 -1.100461 0.458368 -0.485946 0.357818 -0.145645 0.004099 0.267283 0.162776 -0.164169 -0.324545 0.479694 0.167106 0.381928 0.244529 -0.472682 -0.016615 0.068983 -0.715976 -0.165098 -0.126891 -0.659967 -0.556909 -0.037612 0.365902 0.185909 0.867432 -0.875555 -1.217562 -0.251417 -0.691483 0.388108 0.376886 -1.242544
164 -0.185761 0.029890 0.041949 0.129881 -0.620732 1.020494 -0.260417 -0.616637 -1.239715 0.153472 0.918445 1.221193 -0.867636 -0.073981 -0.848876 0.514262 0.599253 0.826989 0.407920 -0.152541 0.388029 0.306259 -0.506985 0.021498 0.087262 -0.667702 -0.060575 0.107678 -0.362528 -0.671701 0.715960 -0.132102 0.847871 -0.304221 -0.773734 0.691027 0.441771 -0.047104 0.919392 0.009690 -0.650804 0.835250 -0.311268 0.968822 -0.267944 -0.086830 -0.074265 -0.464412 0.494739 -0.414452 -0.025576 -0.283250 0.394621 0.125328 0.483536 0.390792 1.328108 -0.802530 -0.115260 -0.745142 -0.243025 -0.501476 0.537076 0.605210
853 -0.531663 -0.231087 -0.040288 -0.752501 -0.133854 0.403605 0.334276 -0.061551 -0.015866 1.015436 -0.047717 -0.540102 -0.430897 0.315058 -1.036315 -0.071997 0.676400 0.414275 0.145814 -0.645371 -0.097077 -0.177912 0.187833 0.684151 -0.981764 0.754696 0.032806 0.047049 -0.620337 -0.086035 -0.009632 -0.994358 0.414170 -0.241676 -0.483130 0.771633 0.069479 0.283684 0.254862 0.437991 -0.324202 0.607153 0.177550 0.681287 0.015646 -0.987782 0.086539 -0.416859 0.763480 -0.481858 -0.305922 -0.688130 -0.315165 -0.824622 -0.380926 0.702901 0.115357 0.293824 -0.332820 0.175907 0.239093 0.685304 1.037943 -0.057144
201 -0.631256 0.397113 0.289579 0.050712 0.057130 0.158076 0.209170 0.633258 -0.505202 0.216675 0.541240 0.345782 -0.176922 -0.117578 -0.842760 0.169875 0.031983 -0.267098 -0.057201 0.357759 -0.214851 -0.035470 0.090143 -0.366663 0.505081 0.138076 -0.216502 0.376801 0.179912 -0.438632 0.310597 -0.291912 -0.607718 -0.748919 -0.222652 -0.168686 0.730252 -0.210414 0.483571 -0.047092 -0.851860 0.736281 0.280596 0.244853 0.207287 0.215041 -0.370620 0.494849 -0.331156 -0.680081 -0.174462 0.098860 0.100649 -0.210176 0.380232 -0.217082 -0.318014 0.095744 -0.163992 0.063076 -0.159065 0.970059 0.156954 -0.342945
794 -0.234060 0.080607 0.544896 0.194143 0.283785 -0.267442 0.393921 0.332227 -0.138372 0.766351 0.461448 -0.035347 -0.035075 0.022366 -0.424060 0.083727 0.575746 -0.250536 -0.424864 0.275455 0.227170 -0.183491 -0.425384 -0.301863 0.199818 0.104944 -0.008443 -0.123222 0.072821 0.095200 -0.075070 -0.152768 -0.363947 -0.456956 -0.085336 -0.200563 0.733658 0.187668 -0.052044 -0.259240 -0.499805 0.388094 0.717782 0.081587 0.217117 0.195724 -0.139479 -0.012473 -0.279072 -1.084775 -0.523030 0.187127 0.744019 0.129157 0.064690 -0.015231 0.054367 -0.241450 -0.457978 0.132710 -0.220378 0.309646 0.053707 -0.076965
556 -0.379314 -0.263570 -0.017583 0.559410 -0.242538 -0.196333 -0.668073 -0.280335 0.360735 1.062668 0.001988 0.552272 -0.314915 -0.330260 -0.193101 -1.287710 -0.507093 0.848092 0.553840 0.550846 -0.349056 -0.036229 -0.062240 -0.409358 -0.057551 -0.548672 -0.155932 -0.077314 -0.237875 -0.247536 0.780913 -0.996094 0.550337 -0.431985 0.410769 -0.122570 -0.123211 0.363702 0.120530 -0.297031 -0.412776 0.378848 0.205664 0.329226 0.052369 -0.382129 -0.086723 0.131243 -0.666225 -0.003648 -0.019024 -0.644236 -0.632852 -0.061160 0.353028 0.090321 0.728050 -0.932860 -1.507841 -0.070507 -0.910658 0.421640 0.403596 -1.206923
209 0.355862 -0.545229 1.392213 -1.050336 0.061590 -0.546775 0.711594 0.402557 -0.034342 0.851640 1.014120 0.239065 0.171967 -0.377244 -1.011956 0.251541 1.680774 1.209725 0.127775 -0.179645 -1.531895 -0.842809 0.419098 -0.731378 0.239861 -0.156418 0.526393 0.466476 0.158498 0.030676 0.519938 -0.924408 0.980028 0.285163 0.108525 0.328311 0.758620 1.283657 0.655235 -0.433190 0.163595 1.029537 1.305054 1.089750 0.260553 1.032288 0.576748 -0.933823 0.318329 -0.500898 -0.567633 0.307704 -0.180553 -1.702400 0.119477 -0.470069 0.509227 0.271420 0.039258 0.398480 -0.770376 -0.579987 -0.993535 0.495418
414 0.681690 -0.664155 -0.039692 -0.037263 -0.600042 -0.082791 -0.084408 -0.509988 0.020971 1.175199 0.067871 0.573680 0.319057 -0.290283 -0.151901 -0.986248 0.049660 1.076757 -0.152941 0.543916 0.064605 -0.089464 0.198312 0.227516 0.294836 -0.310587 0.131814 0.302687 0.285890 -0.631098 0.681358 -0.319071 -0.182899 -1.177466 -0.331364 0.699580 0.072127 0.300101 0.320186 -0.380465 -0.504478 0.631581 -0.349786 1.061898 -0.940484 -0.317956 0.008033 -0.476587 -0.868555 -0.072664 -0.070261 -0.546476 -0.717620 -0.158683 1.053439 -0.519781 0.235152 -0.022993 -1.320495 -0.524383 -0.812525 0.585355 -0.256520 -0.676407
745 -0.397667 0.219260 -0.129859 0.006826 -0.582018 0.056446 -0.188130 -0.074011 -1.518982 1.310533 -0.216259 0.404336 -0.331799 0.161162 0.258317 -0.034991 0.227107 0.503946 -0.049365 0.096163 -0.364812 -0.067799 -0.483736 -0.695329 -0.486413 -0.673595 -0.662638 0.412909 -0.917328 0.028545 1.662421 -0.482487 0.281314 -0.687312 -0.153712 -1.064334 1.230689 -0.152736 0.306841 0.215576 0.006732 -0.749738 -0.058564 -0.528234 0.673531 -0.884958 -0.151006 -0.294345 1.414089 0.003687 -0.020558 0.267679 0.136030 -0.307661 0.376384 0.162496 0.023555 0.232117 -0.465737 0.356650 -0.685955 -0.636325 0.548377 0.369345
478 -0.089948 -0.088863 0.619378 0.234945 -0.189754 0.133137 0.158241 0.404003 -0.696985 1.170768 0.170595 -0.627478 -0.167532 0.456683 -0.654455 -0.056100 0.234943 -0.355210 -0.711868 0.270655 -0.345046 -0.254486 -0.146131 -0.424059 0.085899 0.026597 0.059701 0.123209 -0.082473 -0.130514 -0.011390 -0.534771 -0.239719 -0.331296 -0.709299 0.017586 0.299198 -0.089976 0.753431 -0.548000 -0.134860 0.260841 0.338522 -0.152477 -0.087407 -0.114282 -0.088570 0.671178 -0.211369 -0.333446 -0.086821 0.461627 0.319820 -0.553407 0.854023 -0.293889 0.297629 -0.464211 -0.148945 0.537698 -0.108961 0.283353 -0.197359 0.339140
