516 10
114 0.033603318 0.49824375 0.29329857 -0.2832745 -0.3457126 -0.6739534 1.4068452 0.35828355 -0.39918453 -0.47898385
55 -1.1262515 1.7453836 0.28690264 0.5402443 -0.23413233 0.5936924 0.9453349 -0.9969595 -0.12971523 1.4361808
87 0.69172084 0.5632822 -0.2925705 -0.6657476 -0.53161395 -0.058515362 0.69298464 -1.201933 0.32917315 -0.8684845
137 0.44716832 0.027583104 0.41063103 -0.52524585 -0.08442165 -0.9293241 1.3220755 -0.08927096 -0.7216904 -0.5528308
47 0.025294831 0.4522626 0.7089744 -1.0255312 -0.06227348 -0.84516764 0.91078436 -0.014205576 0.22554721 -0.20255494
634 0.76237977 0.17378023 0.5718529 0.15211287 -0.119582035 -0.8371311 1.4648973 -0.23787174 -1.2519878 -0.6104072
117 -0.4750181 0.5869598 0.25124088 -0.46119654 -0.34662345 -0.60026246 1.525963 0.57213026 -1.2450466 -0.49561638
45 0.36609313 0.59669834 1.7156618 0.4397814 1.2749101 1.1530854 0.21978499 -2.221012 -1.4046029 0.80979913
59 0.5381604 0.02263365 0.41455558 -0.5046857 -0.2430658 -0.9173515 1.3299179 -0.046190307 -0.7647877 -0.26913333
30 0.32048097 0.704698 -0.09946723 -0.9586553 -0.53037107 0.64475346 0.24470277 -1.730407 -0.13040942 -0.8900416
54 0.34557208 1.8704088 0.2461156 0.6693916 -0.186588 0.2786138 0.71592844 -0.6611813 0.9355155 0.16896
81 0.5076871 -0.68393844 -1.8284054 -0.83125824 1.6568359 -1.0464709 3.2362282 -2.0846558 0.3835706 1.7420505
139 0.30369136 -0.06549723 0.43277943 -0.071947984 0.050230443 -0.9717139 1.4934596 -0.47456732 -1.0798445 -0.6519651
224 0.6040467 0.1938982 -0.062012043 -0.20401424 -0.3648188 -0.60130507 1.1765733 -0.23494534 -0.4272987 -0.5842836
68 -0.748086 1.1434109 -0.2992775 -1.4679909 -0.31144986 0.4861781 1.2644863 -1.0301365 0.7538173 -1.6960207
120 0.71079123 1.1225339 1.4514002 -0.31203938 -0.5894947 0.55203027 -0.0020075918 -2.1144505 -0.76745516 -0.661214
197 -0.13314436 0.41999748 0.3284886 -0.3004658 -0.33637157 -0.91168046 1.5996802 -0.11282481 -0.4475673 -0.8848778
384 -0.13521805 0.28814912 0.07865291 -0.2936447 -0.32798192 -0.5180854 1.2578822 -0.47243994 0.1328854 -0.931582
302 1.4207325 2.6517642 -1.6676767 -0.047356397 2.5166698 -0.7299811 1.1515572 -0.5893278 0.83808315 0.79995954
99 0.36128047 0.60916245 0.3016307 -1.2978423 0.07469747 0.11801076 0.07040712 -1.5508512 -0.23276415 -1.046506
48 -1.5171442 1.170165 -1.6141696 -2.033241 0.8428176 1.7960836 0.70840615 -0.8523144 -1.8394296 -0.9862215
474 0.12022158 0.34671792 0.7269931 -0.3738624 0.06168096 -0.8169627 1.4308603 0.522259 -0.5848784 -0.13874401
454 0.6692628 -0.23599878 0.80027664 -1.0384482 0.07635884 2.721373 2.4983149 0.40311676 0.5359035 0.41118577
751 -0.74526864 0.45136863 -0.29619467 -1.0259045 -0.32519928 0.79895055 0.803312 -1.408383 -0.13745937 -1.4108214
222 0.44577572 0.8396351 1.2962779 0.13434213 2.6924298 3.4868133 2.1106882 0.5713753 -0.2975256 -1.4594085
86 -1.6975392 1.3053385 -2.1906214 -2.6337829 1.3825337 2.3332531 1.2500355 -0.7207648 -2.7102947 -1.2426939
248 0.06933764 0.22722307 0.52700186 0.115431145 -0.18286556 -1.06209 1.6619605 -0.38379344 -1.1745551 -0.68859464
155 0.01853498 0.4800634 0.4546049 -0.5173319 -0.28163868 -1.0759095 1.5777828 -0.21243222 -0.029984377 -0.8506755
476 -0.64929414 0.69257855 0.7861316 -0.45420527 0.12652764 -0.63373375 1.9496571 1.1219285 -1.2103369 -0.21903422
292 -0.41588265 1.7598262 0.57636416 0.34214586 0.4707167 0.09709663 1.4175758 -1.2215409 -0.53041303 3.166845
795 -0.3546749 0.4905712 0.82558006 -0.42115697 -0.1507994 -1.1490904 1.4867475 -0.34154102 0.0018706794 -0.6747516
146 0.62948376 3.8312998 -2.3503795 1.0510669 2.0198848 -1.4078166 2.428535 -0.9018839 0.3767852 -0.931726
790 -0.015058655 -0.014843962 0.78580815 0.25939757 0.032177664 -1.1940025 1.7955693 -0.81422275 -1.0340115 -0.6190191
772 0.15132704 1.4296255 0.088456534 -3.335668 0.30096498 -0.112314075 -0.05199706 -0.8567917 -0.63719016 1.496273
411 0.6571582 1.687574 -0.17449039 -2.2905328 0.09492141 0.2039602 -0.5332608 -0.96154183 -0.81586957 0.75283724
53 0.808837 2.2108772 0.5106179 0.53495336 -0.28629223 0.6244472 0.86073345 -0.27786675 1.0413188 0.7099758
223 0.7383161 2.5359547 -0.062032666 0.40343592 -0.25131118 -0.06661244 0.73916125 -0.20396382 0.9353764 0.36340445
236 0.6035857 0.5012391 0.49763894 -1.6052799 -0.27492017 -0.22823374 1.0047014 -0.83609974 1.2017325 -0.5270732
65 0.7058429 0.8703081 -0.40785944 -1.1652896 -0.25692987 0.6431415 0.20303202 -1.8266851 0.08093873 -0.3837682
401 1.050495 3.2845197 -2.0663233 0.50853544 2.4739206 -0.9063406 1.3487681 -0.8773462 0.29351732 0.05011387
306 1.7343605 1.3772142 -0.71321976 -0.17092693 0.34410894 0.85929245 1.9231346 -0.58912945 -1.401496 3.373758
873 0.36991787 0.2464275 1.1120872 -1.1263283 -0.6391094 2.5816607 3.0849407 0.62210345 1.24651 0.8813907
325 0.11949097 0.46439138 0.9782206 -0.6293868 -0.36019546 2.5905812 2.4265316 0.23160635 1.1895206 0.8385347
44 0.64389676 1.1691049 2.4895427 0.43992624 1.8837658 1.3156457 0.26496 -3.0070348 -1.7687646 1.6062691
109 -1.5360025 1.2286028 -2.212334 -2.4800797 1.4134121 2.183554 0.8466316 -1.479741 -2.6460643 -1.369848
80 0.6442181 0.6230212 -0.16471449 -1.2498031 -0.28009257 0.5312443 0.3028537 -1.702691 0.019244822 -0.78507936
607 -0.25713128 0.5675759 2.1058445 -0.93104947 1.9011413 0.3643149 -0.02929166 -2.0905805 -0.8896004 0.24978483
122 -0.1467507 1.7514192 2.025933 0.3037914 -0.20099618 1.332837 0.07426832 -3.2192473 -1.6556665 -0.8528792
239 0.33785275 1.817162 1.7503499 -1.9576479 0.26621538 -0.48976967 -0.45362368 -1.7955157 -0.79695934 -1.4230331
187 0.9201201 1.9230791 -0.22730324 -2.3269324 -0.26392442 0.34384343 -0.56838495 -0.5546968 -1.0934746 0.8253497
429 -1.6212384 1.3337384 -2.1459901 -2.28378 1.2916073 2.2511926 0.79512554 -1.5006129 -2.6817417 -1.316603
140 0.7261656 -0.19104874 -0.031669572 -0.4419597 0.5615642 -0.47724873 1.1674626 -0.48430339 -0.36746374 -0.8735438
742 -0.3737547 0.73185873 0.5169918 -2.7724383 0.4759147 -0.3014917 0.47077423 -0.89351994 0.21293007 1.3060006
70 0.32568103 0.703643 -0.2194558 -0.9298596 -0.28949517 -0.21801484 1.1916043 -0.86654073 0.61010015 -1.5204157
189 1.8923044 2.3716712 0.08131756 -1.3931874 -1.4153855 0.6669449 -0.26443952 -1.1039436 -0.93341494 0.564288
1067 0.7176981 0.10598641 0.3960398 -0.20447877 -0.31084242 -0.92669195 1.5846949 -0.15652499 -0.88074404 -0.5661344
110 1.9063725 4.532126 0.58224267 2.9633543 0.6337461 1.3287524 2.3375275 0.27293888 -0.9349492 -0.5936534
158 -1.2071173 0.8620655 -0.31437814 -1.0451281 0.26552516 0.6418557 1.0151851 -1.5059965 0.4435658 -1.4530274
203 0.9650937 -0.516742 0.5774617 -0.74768674 0.13063402 -0.7720341 1.5832686 -0.48591113 -1.8122637 -0.22677709
130 1.4397805 1.6001734 0.47776645 -0.8221421 -1.2445543 0.7627216 -0.1402912 -1.5508869 -0.78684866 -0.3016621
290 -0.107828796 2.071548 0.24336578 0.1124302 0.6109738 0.26216924 1.7110872 -0.6877066 -1.0181142 3.7059119
1066 0.68846625 0.16635731 0.3582832 -0.25571758 -0.31744722 -0.8337942 1.4817172 -0.043718368 -0.83739394 -0.5735062
1070 0.73426205 0.10269311 0.40852273 -0.25553614 -0.28832188 -0.9123459 1.4974823 -0.15439783 -0.8482394 -0.5813455
63 3.1676993 1.1830955 2.3161159 -4.0819306 -0.70518184 -1.0650536 2.7393095 -0.32222262 1.1457916 0.25128862
1068 0.79198277 0.11071048 0.30559057 -0.27241153 -0.32829353 -0.82433414 1.5016704 -0.060282566 -0.89844877 -0.49822098
1065 0.79577583 0.16644426 0.29536143 -0.2597948 -0.38001806 -0.8369837 1.5353503 -0.023123328 -0.916155 -0.5344295
341 0.45041224 0.27208441 1.2077208 -0.9313393 -0.93215317 3.081651 3.0109591 0.2450967 1.0222193 0.8300001
744 -0.3869182 1.4280369 1.9378114 0.03248771 3.4029262 3.4356513 2.9950988 1.4871694 0.3339183 -1.7001443
874 0.29347125 0.30697086 1.2048992 -0.9081321 -0.60263014 3.0280263 3.065424 0.56366736 1.0408823 0.6856235
736 0.5601546 0.4569042 -0.26894537 -0.093102716 0.14278536 -0.2081589 0.9402848 -0.6850626 0.5224783 -0.82888544
369 0.060148176 -0.8095878 -1.887322 -0.7244589 1.7217661 -0.95229614 3.8844082 -2.8581748 0.7345124 1.7081921
185 1.2499251 1.6865094 1.3110812 -0.33841342 1.9194831 0.8426989 0.90307605 -1.322039 1.9720796 0.29190284
43 0.70943844 0.6798187 2.1920023 0.42714635 1.814384 1.5274677 0.3828775 -2.8156397 -1.7621584 1.1660111
216 -1.026124 4.067954 1.3146194 -0.42974234 2.8243775 0.75234455 1.1997817 1.1259977 1.5583231 0.46799612
692 0.03729399 0.99813735 0.7162751 -0.86010003 -0.6236677 -1.0447668 1.2469553 -0.07804637 0.33479238 -0.30524558
245 -0.99734694 0.8448332 -0.14879039 -1.3152822 -0.0006446166 0.5456691 0.70927876 -0.9536574 0.17747205 -1.2984579
1069 0.7910071 0.16260703 0.32365447 -0.21769892 -0.32433453 -0.84003735 1.4908642 -0.08606915 -0.8131858 -0.53649676
165 -1.4721397 0.9259989 3.6410449 -1.9434139 2.7296126 0.5804836 0.2735616 -2.5444546 -1.1142324 -0.7537267
227 -0.6209286 1.136855 0.48124486 -3.641952 0.6971794 -0.2333279 0.63396484 -1.5651757 0.09273775 2.272817
875 0.45898208 0.3591956 1.1271424 -0.9757197 -0.64885736 3.1188734 3.1410291 0.45139644 1.1100259 0.79839027
872 0.37037325 0.34369698 1.2519884 -0.94517195 -0.59323937 3.1168003 3.1704562 0.56908983 1.144231 0.6465017
878 0.38897067 0.36114627 1.2543627 -1.0319071 -0.55115056 3.15441 3.1931567 0.57150954 1.1554005 0.675561
42 0.41464916 0.5763768 2.1520648 -0.16790366 1.793411 1.3174787 0.124803536 -2.6067638 -1.4677693 0.9254473
876 0.32716393 0.46638042 1.3152027 -1.0185951 -0.58489776 3.1569118 3.1186295 0.6288298 1.0935818 0.8186279
527 -0.05007646 -0.7406173 -1.5853351 -0.49738964 1.4353142 -1.0773406 3.4081976 -2.577735 0.7986757 1.0565667
199 -0.35837784 0.15393932 0.013319646 -0.64429545 -0.56236887 -0.2935378 1.3381382 0.08479145 -0.57186985 -0.5882543
877 0.35866776 0.36816806 1.227105 -0.992236 -0.50416607 3.0348008 3.07228 0.5304031 1.1923628 0.77525604
541 0.6900905 0.4826556 -0.59547126 -0.22445862 -0.85719097 -0.23208208 1.1425211 -1.281191 0.028797902 -0.7232466
408 2.1142006 1.1910503 -1.275706 -0.4824896 -0.61036366 0.85997075 2.33315 -1.013846 -2.1618323 3.3142366
191 0.24535786 0.17860234 0.7084141 0.33278456 -0.0616022 -1.2705175 1.9339088 -0.71893543 -1.4382824 -0.736359
118 -0.080963634 1.0267158 0.41376197 -0.4970661 -0.47950688 -0.8203671 1.419249 0.37599537 -0.6781348 -0.93185496
210 -0.7960319 1.0493783 0.31944868 -2.7166784 -4.479611 1.8234481 3.3801734 -0.69075906 -0.7696648 1.0189927
796 -2.7882884 1.80255 0.5729577 -0.3695961 -0.5044782 -0.6009602 2.8381166 0.4330015 -2.5399735 2.8295166
470 -0.96192336 1.016258 0.82143307 -0.98433024 0.07084021 -0.79297054 2.490221 1.4015723 -2.0820622 -0.38586035
287 1.3485 0.18460736 0.964062 -0.36635366 1.8668042 2.866621 1.7409145 0.4534555 -0.35320956 -0.29324132
472 -0.98921096 0.9360143 0.8202331 -0.9545258 0.06118917 -0.7630972 2.3690689 1.3970138 -2.0626454 -0.2876725
559 -2.274984 2.216725 0.3040238 0.19434407 -0.72266614 1.0551474 1.2235813 -0.97667223 -0.4417999 1.2195811
602 0.24429557 1.268242 -0.40929827 -2.6087935 -2.6172583 1.9121132 1.2274449 -0.009275728 -1.43564 -0.2066422
483 -0.92637265 1.0552175 0.7521458 -1.0855826 0.07128336 -0.81020564 2.4053657 1.4609334 -2.0812204 -0.36466658
121 0.023089422 1.7697052 2.2380416 0.6186028 -0.49506193 1.0588992 0.26371548 -2.9731557 -1.330955 -1.0365291
285 1.0027355 0.5573246 1.4434122 0.26780763 2.5597332 3.74368 1.8838223 0.13851838 -1.1896863 -0.9299534
775 -0.17953727 1.0014791 -0.49663943 -0.4495536 -0.047820058 -0.58433104 1.7759945 0.7021954 -0.11747593 -0.6146113
423 -1.9889838 1.7933881 2.1672268 -2.2896879 0.9091933 -1.1269249 0.22058041 -2.943668 -2.0738368 -1.7493525
943 0.27442947 0.12690027 0.7269477 0.24563792 0.021877559 -1.3403239 2.1354432 -0.67642045 -1.5073298 -0.84943664
123 0.16877805 1.2130411 1.8014395 0.4177542 0.04275633 1.1535766 0.009199536 -2.630002 -1.4823829 -0.4957152
288 -0.2891561 2.0627294 0.4504557 0.14411865 0.76061016 0.073108315 1.8693203 -1.1906661 -1.0759704 3.9329433
784 -0.12400311 0.72587854 0.44747525 -0.4675459 -0.5084944 -1.0050515 1.666834 -0.17339489 -0.06929656 -1.0310062
942 0.266918 0.21204548 0.74633414 0.26737988 -0.055853557 -1.2775218 1.9772662 -0.66403407 -1.4869907 -0.7629773
703 0.904037 4.1393147 -2.3439655 1.0915003 2.0154777 -1.282679 2.2018838 -0.8501433 0.122950405 -0.60827446
785 -0.086329795 0.69117254 0.46171144 -0.3946266 -0.4046317 -0.9767232 1.6265866 -0.13670526 -0.04767 -0.99785125
200 0.09113097 0.029318074 0.059666455 -0.6678438 -0.36886716 -0.66320866 1.5970535 0.19254307 -0.8119352 -0.36740625
944 0.2911779 0.21295151 0.72920287 0.38052645 -0.068684034 -1.2581017 1.9815023 -0.6170224 -1.4403454 -0.7261163
1304 0.11950572 -0.78525096 -1.7359207 -0.6962254 1.7342633 -1.0987717 3.564718 -2.691986 0.5249801 1.6421223
220 -0.9416056 -0.37434226 -0.32171646 0.33032867 0.65997833 -0.53170234 2.8174453 -1.3856132 0.5344952 -0.6159747
941 0.27684814 0.19087888 0.7656982 0.28819388 0.032116942 -1.2593669 1.9626702 -0.7240303 -1.567854 -0.8665799
1305 0.26518095 -0.705404 -1.8264225 -0.75956804 1.5969388 -1.2203295 3.6838734 -2.8489404 0.741 1.8088038
366 0.56859744 0.568703 -0.10564453 -1.2143394 -0.42514634 0.355932 0.36451003 -1.6404403 -0.075207025 -1.1228427
364 -0.46147102 0.20076284 -0.36042115 -1.1630938 -1.1169184 0.87825805 1.0782325 -0.32508066 -0.48270047 -0.35268223
484 -0.93277156 1.0401926 0.72446084 -0.8946489 0.046829924 -0.7867707 2.4169126 1.4288805 -2.099472 -0.37179956
774 -0.39259088 1.3083738 0.37866345 -3.7344048 0.6519806 -0.29913923 0.5297026 -1.2656245 0.08778026 1.9123503
985 -0.81990075 2.0547667 -1.2195625 -1.2337577 -0.038226828 -0.28946218 2.4818127 0.84883964 0.09807092 -1.1440153
402 1.4615728 2.8498886 -2.2381883 0.17390938 2.6816306 -0.43319532 1.0902554 -0.72787595 -0.050904546 0.60182816
481 -0.9961255 1.0041932 0.704491 -0.8699799 -0.05385388 -0.84632903 2.4830985 1.3296626 -2.0214794 -0.42514247
938 1.4093945 1.2374781 1.1353667 -2.3994498 -0.078362085 0.6829609 4.246319 1.0020295 2.3654447 2.0055141
390 1.1011274 -0.38611242 -0.3318907 -2.0646434 2.6326604 0.2818541 2.5020037 -0.58793294 0.60356814 -1.1043301
773 -0.47085598 1.2422129 0.26697206 -3.7358322 0.55784166 -0.24365534 0.5540082 -1.2856286 0.16555393 1.7805455
291 -0.28689247 2.1532207 0.58513784 0.310722 0.77556384 0.12098893 1.7829336 -1.085865 -1.1361672 3.841536
213 -0.5735957 0.6157992 0.10460536 -2.007764 -3.0150504 1.5055697 2.1001 -0.5252222 -0.94384253 0.3859829
293 -0.30395693 2.0984766 0.5965468 0.32037792 0.7165603 0.072886236 1.8621193 -1.0452683 -1.2246397 3.8637269
771 -0.4411239 1.2758939 0.3931482 -3.680393 0.57766515 -0.4137645 0.53086716 -1.307759 0.06967579 1.8783146
1303 0.36431736 -0.81103057 -1.7474529 -0.67272377 1.6410798 -1.1715864 3.7965405 -2.8924894 0.6707138 1.6942617
691 0.16582185 1.3906384 0.82321376 -1.512954 -0.6178302 -1.1873181 1.1769991 -0.18094908 0.5408716 -0.26844385
769 -0.38484877 1.2430502 0.4597946 -3.7421598 0.66649127 -0.2358034 0.49760756 -1.3102914 0.099118 1.810643
482 -0.90560716 1.0082275 0.68961424 -0.834076 0.071386345 -0.7677336 2.5104086 1.4578036 -2.1931472 -0.36706716
289 -0.17117837 2.0875661 0.54338324 0.33832026 0.7710793 0.05693419 1.9181587 -1.2291589 -1.1891037 3.9377608
770 -0.32437763 1.2392577 0.382628 -3.7208338 0.6144856 -0.3530265 0.4928872 -1.4380877 0.12812893 1.8207046
557 -2.120399 1.9905094 0.43754515 0.23186645 -0.7410529 1.0293872 1.1849163 -1.0673296 -0.5759907 1.217354
447 -0.2824791 2.196615 1.9875224 -2.6242588 0.8126671 -1.1619829 -0.44468147 -2.5111663 -1.8685541 -1.6578921
480 -0.9577373 1.0025944 0.81799424 -0.96716785 0.022511581 -0.874729 2.7275674 1.4804336 -2.1685922 -0.36490446
555 -2.332175 2.0326755 0.36108065 0.24537314 -0.6904182 1.0693892 1.3423656 -1.0084238 -0.6049861 1.1736693
365 0.5699143 0.65238756 -0.16706681 -1.228566 -0.4295609 0.34346452 0.36240393 -1.6331751 -0.005253755 -1.0208975
277 -0.2272346 1.2279214 1.6624373 0.10950948 3.1722536 3.652292 2.9122975 1.3201286 0.023434432 -1.4077092
441 0.5880691 0.22914314 1.0480807 -0.9586749 -0.49713242 4.233191 2.1910567 -1.9862527 0.76367784 1.8115367
747 -0.22531459 1.3660007 1.831887 0.10977934 3.1261876 3.6841168 2.8243837 1.3233429 0.04812999 -1.6949779
266 -1.3418486 4.652753 1.1906847 -0.7307198 3.0951364 1.0307899 1.1483006 1.3629072 1.3430262 0.22476324
743 -0.2887811 1.0776756 1.6349298 -0.018055579 3.03074 3.6369812 2.9066722 1.1198099 0.09905766 -1.4877251
328 -0.21822883 1.9784042 0.056782838 1.8440202 0.5125882 1.611131 1.3820701 -1.1397874 -0.7171139 0.3989301
681 -0.118795514 1.2829881 -1.1564928 -1.1441076 0.42765677 0.058909014 2.1710572 1.113189 -0.2133336 -0.90975255
473 -0.17308897 0.7910077 0.9347825 -0.3551166 -0.015843477 -0.7435261 1.9072096 1.0434136 -0.66136897 -0.15393089
746 -0.120113455 1.2125506 1.601424 -0.10327995 3.21433 3.7337425 2.9064634 1.1869619 0.24426675 -1.6285233
574 2.6929238 3.2169197 -2.8069983 -0.59719974 2.356816 2.2336183 0.91479784 -0.7446579 -1.7020028 1.383114
235 -0.41036338 0.70102835 0.2186157 -1.4152681 -0.1995701 0.10530467 0.8745699 -0.6392908 0.8712689 -0.98511755
558 -2.2001588 2.0280914 0.392438 0.10572429 -0.6531853 0.86952454 1.2095176 -1.0415052 -0.65951324 1.3131583
164 -1.6133837 1.3639458 -2.0808315 -2.4509957 1.3102145 2.3280175 0.84427863 -1.2070906 -2.6302578 -1.2737885
853 0.67727035 2.2738032 -0.23257516 -3.0225677 0.08381428 0.05787819 -0.35000312 -0.5070699 -0.9771164 1.4653437
201 -0.6536131 0.49264646 -0.008565961 -0.6090072 -0.5733211 -0.7869025 1.75802 0.24515764 -1.2262989 -0.542157
794 -0.15210514 0.66717803 0.45831925 -0.42730397 -0.47136626 -1.1153978 1.7593312 -0.2548281 -0.032291185 -0.9597669
556 -2.1774414 1.9872267 0.30508617 0.20781076 -0.6365378 1.0478039 1.2566563 -1.1797526 -0.49303007 1.3068657
209 3.768536 1.0564064 2.4458904 -4.5688953 -0.85919297 -1.3845567 3.5951157 -0.09742107 0.7711272 0.45631903
414 -2.2569876 1.3219119 0.1075116 -0.10934326 -0.59739304 0.26437202 2.0079508 -0.05175903 -1.6271044 2.0820994
745 -0.29067126 1.2063813 1.6140146 -0.14363624 3.1485028 3.662393 2.9474742 1.2758464 0.2572729 -1.6178236
478 -0.14533713 0.6566126 0.8759645 -0.20818484 0.02469912 -0.6649683 1.9355562 1.0029931 -0.7927261 -0.12328078
327 0.57138443 2.2377071 0.38386685 1.5313065 0.087019816 1.0054014 0.8106848 -0.42097464 -0.2210855 0.21240328
479 -0.2787479 0.686046 0.9334807 -0.28412881 -0.022080852 -0.62703717 1.9337391 0.9908419 -0.7061508 -0.138243
272 -1.4908636 4.2924576 1.0359013 -0.8768364 3.395377 0.9753435 0.94503695 0.9978328 1.4138565 -0.043466676
978 2.4008355 5.0678353 0.65084803 3.116421 0.6139022 1.8388866 2.4628334 0.12426851 -1.1017126 -0.9825581
570 1.0817274 -0.7418653 -2.0452652 -1.0651351 1.7549978 -0.9577824 3.54099 -1.9203068 0.25391 2.2330046
404 1.4279927 2.9744978 -2.2985504 -0.05456866 2.6801436 -0.7284676 1.3128694 -0.9052026 0.60684544 0.4767322
475 -0.1201283 0.677575 0.93544495 -0.28008568 0.036739197 -0.6727938 1.9614097 1.0140512 -0.63729864 -0.19108956
797 -2.633967 1.468639 0.91661596 -0.25537607 -0.2431461 -0.66823596 3.537245 0.88660383 -2.9969578 3.0205243
1048 3.6449287 0.89406884 1.6559238 -1.2318317 0.9070057 -1.0651337 2.5187309 0.59846246 -2.9553907 -1.3465722
367 1.6907504 0.06235308 -0.5705196 -0.60148895 0.8947389 -0.6684079 1.5375597 -1.4589311 -1.5775905 -1.3665427
976 -1.6911911 4.438868 1.1387618 -0.8233106 3.0970738 1.0174977 1.2718829 1.2111673 1.6663926 0.101759836
477 -0.23567466 0.6654181 0.8142997 -0.3057131 -0.053007632 -0.6465594 1.9881322 0.97035474 -0.5955785 -0.20770352
448 0.062143955 0.5537072 1.530906 -1.4567819 1.3404888 -0.034832053 -0.12095579 -2.198031 -0.38669872 -0.27863342
314 0.3561229 0.21613596 0.8245108 -0.86519736 0.117928654 -1.0297204 1.0804907 0.1366571 -0.5195978 -0.2000265
332 2.2494516 0.7206325 0.90801674 -0.34051514 0.1819381 -0.93523186 1.388878 0.17109008 -1.735922 -0.7445549
975 -1.4647341 4.3980145 1.0541189 -0.9657995 3.2461362 1.165357 1.2276151 1.3285387 1.5291274 0.26599857
704 0.99625605 3.858622 -2.2764995 1.1184702 1.9734606 -1.2334783 2.1302068 -0.91316754 0.12535411 -0.39615953
403 1.3931338 2.906765 -2.232816 0.08816861 2.7513742 -0.77484465 1.3103132 -0.7733453 0.3856025 0.62844115
974 -1.6420898 4.3089223 1.2832013 -0.7601803 3.1419373 1.0054675 1.3462803 1.4494542 1.3382925 -0.0060493466
38 -2.275756 1.3757741 -1.3975761 -1.042318 0.99696815 0.5134337 1.6118555 -3.487156 -0.17651242 -2.1004536
181 -0.39805484 0.981081 -0.17554289 -0.8558594 0.06292514 -0.6784911 1.7477995 0.6534503 0.14345409 -0.74792844
820 -1.1282518 2.798109 0.23273326 1.1596516 -0.95381856 0.7967622 1.9373349 -1.6678406 -0.07218879 2.2176027
575 2.877238 3.2849686 -3.2093835 -1.2349116 2.461907 2.9630532 1.2080848 -0.6269392 -1.7996733 1.2419178
979 2.6094577 5.000492 0.5707113 3.0185132 0.77213764 1.854539 2.6905792 0.5997199 -1.1410605 -0.8897437
417 0.7160672 3.3203895 0.25472012 -1.5053906 0.94734824 -0.70535797 -0.89743906 -1.8036945 -2.1571221 1.9113743
124 0.19252807 1.4857001 2.0134645 0.45520237 -0.28117594 1.0591235 0.2190121 -3.0706449 -1.603235 -0.98399127
1061 -1.0287398 0.73218685 -0.2095962 -1.2696085 -0.0455998 0.6597745 1.0873139 -1.334391 0.39316794 -1.4748404
702 0.98072225 3.724827 -2.2546015 1.1611178 2.1412175 -1.2601807 2.1528404 -0.82174075 0.13663922 -0.41997418
467 0.70732087 1.6877716 1.8269802 -1.5225923 -0.07478242 -0.18529315 -0.43102443 -1.5703644 -0.96382284 -1.1655354
819 -1.1580328 2.8040657 0.2358125 1.0857995 -0.93036336 0.8897632 1.9869978 -1.6719396 -0.09991959 2.3889053
695 0.114399135 1.2359307 0.80785125 -1.4682962 -0.69934464 -1.1534406 1.2185988 -0.22819446 0.49000952 -0.21105264
980 2.5258074 5.001072 0.1906147 3.0143237 0.7727114 1.7565715 2.6438649 0.48319215 -1.2317302 -0.9073346
125 -0.19798462 2.3161325 3.7907262 1.817455 -0.7446886 1.5212588 1.358939 -3.6798992 -2.1520216 -1.5461714
645 2.2755716 2.4100432 0.44119883 -1.1626143 -1.792405 0.86938053 -0.12674339 -1.6274734 -1.1728563 0.09596574
928 1.0853609 1.4464594 -0.5127929 -2.6686642 -2.8139164 2.8099153 1.4430916 -0.29932657 -2.668102 -0.89434415
643 2.3289046 2.4992712 0.44838828 -1.0226569 -1.6712384 0.9205842 -0.17600809 -1.7556975 -0.9504044 0.18857202
578 2.615013 3.2577443 -2.9948423 -0.94126624 2.5264654 2.9959173 1.1747324 -0.5055666 -1.9245557 1.2959708
231 0.75633514 2.4962313 0.34085235 0.578095 -0.20313524 0.41830167 0.7839498 -0.47930363 1.0597993 0.51625884
78 -0.514073 1.9431448 0.13245913 1.1343855 0.07962762 0.99306285 0.76989853 -0.626848 -0.4068496 0.82670915
693 0.13419238 1.2444664 0.88832456 -1.3469 -0.5880449 -1.1929698 1.0728757 -0.24458128 0.44856602 -0.14936689
113 -0.05438163 0.98691815 0.33960247 -0.48579013 -0.4442852 -0.6863683 1.2704241 0.5758956 -0.9459953 -0.69629294
977 2.194426 5.051257 0.6722556 3.0384011 0.6516693 1.7837479 2.440746 0.33886975 -1.2284541 -0.98656887
818 -1.1110752 2.827254 0.36110368 1.2144135 -0.8017436 0.72213334 1.920752 -1.7173425 -0.071299165 2.2732873
577 2.7689245 3.2457654 -2.9728906 -1.2946807 2.6225207 2.9303393 0.98074186 -0.6670911 -1.9883804 1.165738
112 -0.054563224 0.8831702 0.30102974 -0.41761976 -0.519804 -0.6337165 1.3905119 0.49894208 -0.9333272 -0.7518157
616 1.2383116 1.7488751 -0.7292911 -2.7450945 -2.897515 2.5230384 1.428853 -0.18516757 -2.1948445 -0.9784677
817 -1.1088449 2.8499122 0.26308304 1.185049 -0.788133 0.81039417 1.8576921 -1.7071999 -0.19563673 2.3814495
644 2.4218123 2.712935 0.39873716 -1.1677852 -1.8743092 0.688505 -0.14630914 -1.575933 -0.9186475 0.15054733
232 0.77455795 2.5961592 0.27850512 0.7046489 -0.2410433 0.27385807 0.84206367 -0.52485836 1.1050423 0.5480006
493 0.48555246 0.3105763 1.2508142 -1.3569492 -0.3433416 4.4774218 2.124134 -2.6436677 0.7497616 2.3384268
41 -1.4175094 1.023071 -2.074468 -2.3413472 1.4422079 2.1925006 0.74697053 -1.6808484 -3.1349864 -1.0913558
694 0.12635098 1.3296719 0.7889989 -1.4628109 -0.6166319 -1.1803572 1.2310027 -0.14764354 0.56119287 -0.24211022
456 1.3980147 -0.264335 0.7228883 -0.7933602 1.0907453 2.744219 2.5067022 0.59950936 -0.07478785 0.03497166
286 0.89393646 0.44666594 1.4133197 0.014413701 2.6206703 3.3338115 1.9960833 0.3238568 -0.71986806 -0.9972744
491 0.37213993 0.27185488 1.2645746 -1.2196218 -0.44729477 4.597739 2.2300622 -2.8460708 0.81296 2.054302
115 -0.053858966 0.96214336 0.2582665 -0.3671364 -0.47266313 -0.5690287 1.3872839 0.5521837 -0.88724566 -0.7454054
929 0.8879178 1.9051853 -0.6341437 -2.668139 -3.166993 2.5282135 1.4292421 -0.3070417 -2.220816 -0.8882464
779 1.7232686 0.79698956 1.0458593 -2.2176719 -0.6866888 -0.49809653 1.6129941 -0.894187 1.6296962 0.17263661
186 1.4851608 1.8155099 2.0585756 -0.7392648 2.685024 1.2182996 1.2485998 -1.8307271 2.500334 0.22555083
961 0.6609631 2.0756702 -0.07041012 -2.8628385 0.033678867 -0.006667152 -0.5178015 -0.6493941 -0.9777655 1.1336037
576 2.6620567 3.4785998 -3.3159752 -1.041126 2.5039785 2.8447037 1.168149 -0.82480556 -1.9635062 1.021912
407 2.0475352 1.3426545 -1.1044999 -0.25487053 -0.08376643 0.7742871 2.2152534 -0.90532464 -1.676563 3.4327314
46 0.5324918 0.8113451 2.4499776 0.2647681 1.8007829 1.5997754 0.32716832 -2.8301308 -1.6439165 1.3691865
579 2.6422248 3.528508 -3.115031 -0.9869833 2.2846413 2.893582 1.1396897 -0.5754855 -1.9105103 1.1060684
303 1.4823346 2.65368 -1.9967098 -0.4450639 2.803925 -0.69570756 1.5089567 -0.5442805 1.1602758 1.0395279
455 1.4252745 -0.07901802 0.79679054 -0.95816886 1.1231705 2.805975 2.395603 0.6237666 -0.049599912 0.054794516
1099 2.105219 -0.8223493 0.91457367 -1.4088581 0.56536806 -1.1340256 2.672278 -1.0215503 -3.045273 -0.41488189
767 0.90918446 -0.7177398 -1.9224418 -1.0812442 1.8859482 -1.2314116 3.7105315 -1.6082225 0.26487318 2.170104
409 2.0754027 1.4190481 -1.0331358 -0.2499622 -0.40556198 0.9186244 2.2515857 -0.8280168 -1.6365223 3.418392
526 0.8944209 1.9130315 -0.49804276 -2.9151487 -3.0434062 2.6832197 1.2108314 -0.13503285 -2.4210606 -0.5874159
457 1.3121951 -0.17061931 0.8278929 -1.064188 1.2697461 2.8114142 2.317856 0.5835396 -0.09162597 0.2467667
116 0.059995122 0.9321845 0.3077081 -0.36523566 -0.5391465 -0.5844387 1.3488694 0.602239 -0.9436481 -0.68965894
446 -0.09393647 2.5083616 2.0477023 -3.0051804 0.45120868 -0.8142622 -0.60090363 -2.2829785 -1.3960656 -1.5337461
453 1.5321573 -0.22697379 0.7248427 -0.97035855 1.0793796 2.9395044 2.441675 0.49857572 -0.23723707 0.057710934
304 1.516841 2.5707893 -1.9994693 -0.6622522 2.922536 -0.5524636 1.3668637 -0.40836778 1.058841 1.1804864
701 0.31666186 0.17501616 0.787843 -0.81672543 -0.027854227 -0.969933 1.15421 0.11413668 -0.34742498 -0.2892334
1100 2.1141126 -0.6991936 0.9228905 -1.4855665 0.39035374 -1.0964818 2.5676 -0.81523865 -2.9521914 -0.19788969
965 0.683924 0.7597789 2.1204524 0.65375465 1.7240059 1.6190313 0.42674315 -2.7188003 -1.6196533 1.2297093
782 1.3603541 0.6519194 1.7950557 -1.987971 1.3235105 -2.2623534 2.0067124 0.1484062 -2.2252853 0.9195337
1101 1.8980378 -0.7781839 0.9916038 -1.4109814 0.5710464 -1.0133395 2.4977372 -0.70444596 -2.8947632 -0.29707658
1082 1.1183785 1.0996666 2.2941425 -0.29192066 -0.7698116 0.6408366 0.41777763 -3.0549552 -0.7294679 -0.71716815
815 1.3754412 0.32394254 0.7016445 0.6381719 -0.25865692 -0.6168889 2.4063704 -0.4283539 -2.5951355 -0.76508135
966 0.59662044 0.71769553 2.021909 0.47260484 1.8123171 1.592917 0.37690735 -2.6746056 -1.6777072 0.9187134
1102 1.9344774 -0.7468375 0.87392145 -1.2948846 0.59862596 -0.9465062 2.509902 -0.73493063 -3.001052 -0.18991627
211 -0.92772603 0.96450806 0.25946695 -2.5215533 -4.1005244 1.8679974 2.9550474 -0.89594644 -0.92535484 0.9714687
1081 1.1413658 1.1124573 2.3481963 -0.24963099 -0.68069655 0.7393922 0.40735734 -3.2172675 -0.91147685 -0.5974505
766 0.9589617 -0.6612064 -1.9924366 -1.0297879 1.8488874 -1.1621723 3.326274 -1.7571535 0.07809129 2.1372995
284 0.8809959 0.92784756 1.6272577 0.13794279 3.0253544 3.668228 1.7952999 0.3895895 -0.91906965 -1.0955756
301 1.6098825 2.7026136 -2.0979154 -0.7985662 3.0790238 -0.55172604 1.3850495 -0.51069486 1.0488788 1.1463302
420 1.1502802 -0.3962222 -0.6059241 -2.9627051 3.6570644 0.077547535 3.3712873 -0.796671 0.8546241 -1.0386853
940 0.92266154 0.6181448 1.1439921 -1.5554565 -0.33211762 1.1433868 3.8437314 1.1132163 1.6563021 1.831381
1080 1.4290832 1.1410332 2.3527012 -0.25641462 -0.9010229 0.64256644 0.45952222 -3.1907246 -1.2183189 -0.79565763
778 1.4115446 0.98844135 0.7834743 -2.092942 -0.40092102 -0.25567695 1.3890187 -0.88964665 1.7888216 -0.14624158
606 -0.2786852 0.8505319 2.285033 -1.5715252 2.0559561 -0.04904692 -0.1907429 -2.5522392 -0.8572679 0.07198954
835 -0.4253009 0.49892175 1.2036406 -0.88080496 -0.017951684 -1.0468937 1.3093741 -0.28856543 0.28366622 -0.2496263
217 -0.4913101 3.2288995 1.4202029 0.015854018 1.3355768 0.38308233 0.86304426 0.6387869 1.390585 0.34452647
311 -0.82236207 1.6987159 0.66438836 0.5777861 0.23294188 0.3654933 1.2603585 -1.1230838 -0.5105841 2.4900937
492 0.44655955 0.30327192 1.2192371 -1.4131286 -0.47621623 4.6380963 2.042121 -2.7911785 0.5987606 2.266958
419 1.2666913 -0.39713833 -0.5674619 -3.0707488 3.7232058 0.19997126 3.7106369 -0.6962056 0.8435373 -1.1936743
283 1.0510223 0.816299 1.5421392 0.19665262 2.9690707 3.8327582 2.0217485 0.4542645 -1.100174 -1.286117
466 0.6663936 1.618836 1.7863637 -1.4216864 -0.15977049 0.0103489775 -0.4259768 -1.6446549 -0.88584954 -1.1440144
128 0.2541709 0.69200194 0.15795356 -1.4656171 -0.19283804 0.4753504 0.10351787 -1.9184296 -0.37353194 -1.1027715
119 0.32541806 0.8054303 -0.11723612 -0.5351919 -0.35082042 -0.3949136 1.1782511 0.58937496 -1.1502228 -0.78416693
919 0.5132661 0.48767298 -0.28233653 -0.49703637 -0.13431421 -0.29081142 1.201042 -0.9550609 0.6412404 -1.1956979
765 1.1211375 -0.62420815 -1.8810316 -0.87518364 1.9194288 -1.0704571 3.391015 -1.7114503 0.13356112 2.1866376
793 1.4545314 -0.44588915 -0.5040911 -2.8161774 3.8033137 0.14710975 3.6425161 -0.71968675 0.9666461 -0.8627454
129 0.22932242 0.8390312 0.15898547 -1.4688561 -0.18677834 0.38328314 0.11216167 -1.8669411 -0.18320444 -1.1408694
74 0.93134296 1.939034 -0.39933547 0.0063089123 0.63943195 0.27530855 1.9741209 -0.36879694 -1.1316614 3.6582057
608 -0.082621194 0.7157337 2.2569852 -1.3174062 2.0003054 -0.038718045 -0.052298117 -2.4423707 -0.7457323 0.10407667
497 0.87254506 0.32068092 0.8641598 -1.3234193 0.59957445 -1.5566913 1.2564324 0.13782082 -1.1285319 0.09762586
834 -0.29558358 0.48125055 1.124255 -0.7753866 -0.01767075 -1.0412345 1.2537752 -0.3074321 0.317384 -0.30478123
212 -0.59451365 1.0597777 0.2861499 -2.4796948 -4.2625413 1.8259257 2.8386273 -1.0004219 -1.1740294 0.771291
798 -2.7249534 2.2028744 0.76240367 -0.24816781 -0.43856454 -1.0309095 3.0921931 0.8196766 -3.1788905 2.9435337
490 0.58756965 0.45403406 1.2456632 -1.5080674 -0.31063238 4.664753 2.1244175 -2.9243214 0.9254035 2.2536716
1152 -0.08887657 0.8210386 0.58981246 -0.4972343 -0.47862208 -1.173635 1.7760938 0.037831757 0.23503438 -0.6014003
136 0.5964865 -0.17169404 0.2599399 -0.5090051 0.36729473 -0.96586245 1.3342377 -0.47571465 -0.69976795 -0.76711166
814 0.40325078 2.340376 0.832892 0.38250113 0.5054779 0.3925006 0.5732099 -0.017027136 1.0970001 0.54772735
79 0.76715523 0.7460866 -0.31230608 -1.1953412 -0.09190207 1.0535463 0.4918321 -2.3204935 0.19085719 -0.6323409
1153 -0.11405944 0.76518434 0.65844965 -0.50614685 -0.5371869 -1.083682 1.6713072 -0.09044211 0.22436775 -0.59644455
822 -0.6232276 1.1021777 0.7999596 0.8565622 0.8480532 0.71295244 0.3930751 -1.4884679 -1.0525883 1.1180401
554 -0.92752194 2.2373478 -0.36767074 2.1870255 0.9824605 2.2966738 2.1722655 -1.8592802 -1.2838026 -0.119142234
552 -1.0961963 2.1435196 -0.3705942 2.1754823 1.1484922 2.422849 2.4109602 -1.7652996 -1.0615385 0.009623771
640 2.5463822 0.69612885 -1.3273976 -0.053936794 1.3343655 -0.7329758 2.0694578 -2.3518062 -2.326174 -1.5646439
959 0.54177755 1.0303308 2.3513088 0.57953984 1.5847697 1.3741156 0.290576 -2.5145981 -1.959594 1.263478
958 0.6971379 1.1289588 2.1837647 0.74474955 1.6763037 1.2330632 0.2748411 -2.6960087 -1.9163392 1.3829027
924 1.3385457 0.35759676 0.59914106 0.6634573 -0.2912094 -0.6523096 2.3262186 -0.39551577 -2.5209286 -0.6486359
126 -0.023354651 3.3911376 4.385857 2.4092932 -0.72875303 1.738254 1.5816454 -3.6380286 -1.9947205 -1.536433
312 -0.75202036 1.6563917 0.68557584 0.5341294 0.34548673 0.39577937 1.1963503 -1.1697838 -0.24620645 2.4727333
138 0.56516695 -0.17418385 0.30269498 -0.40900096 0.36506703 -0.9150667 1.3084335 -0.4957955 -0.73652524 -0.77694464
754 -1.2715088 0.121397376 -0.33359173 -1.3061625 -0.55463964 1.0881363 1.7019362 -2.3725762 -0.7224561 -2.113782
127 0.012789043 3.2667453 4.3956575 2.5667489 -0.4956868 1.7442684 1.5847859 -3.8183703 -2.1093547 -1.4374876
385 0.5388327 2.62286 0.4910831 0.853041 -0.41202542 0.35805833 0.7765585 -0.6400407 1.0107929 0.29613706
833 -0.35932812 0.5046612 1.1345553 -0.86951137 -0.021331005 -1.0709902 1.2922086 -0.3078453 0.37299258 -0.26043296
166 -1.9153587 0.75166804 4.24125 -2.066044 3.1770325 0.36937374 0.77832454 -2.8098252 -1.3455646 -0.67089134
324 0.4634515 0.72673416 2.0025337 0.39075157 1.4009223 1.5881468 0.28572017 -2.661036 -1.2038921 1.0022229
753 -1.2101064 0.088397786 -0.41916832 -1.3390112 -0.6397544 1.1863562 1.7268063 -2.2596235 -0.768053 -2.0117729
1073 4.224444 1.0804467 1.7357783 -1.446265 1.3244088 -1.2459289 3.0554762 0.6604353 -3.345447 -1.64926
1089 -0.39945284 1.399823 -0.75219214 -0.9531435 0.081052385 -0.4371094 2.1988754 0.770746 0.19636911 -0.9739667
249 -0.12644254 0.3356773 0.39150572 -0.27064526 -0.26434126 -0.8671412 1.4701242 -0.005137716 -0.92355794 -0.70664966
661 -0.48893976 1.2394271 0.18011089 -1.7184685 -0.47874475 0.38307217 1.2740774 -0.7651521 0.90983826 -1.6636257
841 0.59488577 0.96947944 -0.30952105 -1.0638961 -0.45422664 0.822327 0.271282 -2.24287 -0.04191096 -0.888824
270 -1.7791417 -0.7329718 0.056414034 0.4769502 0.9189855 -0.61022884 4.18265 -2.4078448 0.5567989 -0.45428616
925 1.4893906 0.31529403 0.68683153 0.6575316 -0.20784631 -0.7047819 2.2480211 -0.44418243 -2.4399288 -0.58033144
553 -0.83394 2.252457 -0.30300117 2.1879637 1.1872399 2.6557167 2.3693385 -1.8003088 -1.1503174 0.28493163
1072 4.2190776 1.0137525 1.6198996 -1.7078072 1.114416 -0.94618905 2.9264653 0.7774213 -3.3356082 -1.8164718
545 1.773129 1.8356948 2.0495481 -0.83682126 2.5699832 1.1435162 1.0902274 -1.6978295 2.4764478 0.61880314
842 0.58314306 1.1471775 -0.34653896 -1.2795979 -0.6272815 0.9406609 0.31188393 -2.3945634 0.07216229 -0.88717794
923 1.3386822 0.26212645 0.6949782 0.670916 -0.17955863 -0.53059417 2.1114633 -0.3156201 -2.39639 -0.5024693
36 -2.8964062 1.9607439 -2.1747975 -0.9078492 1.2590793 0.40480337 2.039841 -4.165367 -0.3417638 -1.9819225
167 -1.7648094 0.66186315 4.4565506 -2.4694817 2.7511432 0.4595096 0.70654863 -2.7998505 -1.2561243 -0.8671636
670 -1.0188968 0.8438359 0.076832965 -0.8071772 -0.6648248 -1.0138235 2.0922928 0.35816592 -1.8598601 -0.5042944
237 -0.93233216 0.84254014 -0.03347093 -0.73307204 -0.7632073 -0.970079 2.0643365 0.32928813 -1.7609587 -0.4949123
502 2.0241416 1.002619 -1.5076364 -0.7740195 -1.2547169 0.98027784 3.3120878 -1.1465393 -2.0425482 3.7158792
1094 -1.3263034 2.3264327 1.9772149 -2.2472148 1.0234512 -1.1197598 -0.18964042 -2.5636086 -2.069211 -1.7133485
202 0.61543757 -0.22212584 0.3962166 -0.46297222 -0.06218744 -0.8990561 1.4081054 -0.28715947 -1.1256671 -0.37608573
37 -2.8628173 2.2225473 -2.0955844 -0.68761504 1.0927888 0.53256875 1.9738386 -4.0363426 -0.38365686 -2.2276566
752 -1.1538081 0.2115921 -0.28504813 -1.202409 -0.5826573 1.2842643 1.557181 -2.1097465 -0.77895623 -2.0244064
1053 3.8722572 1.1661075 1.8014035 -1.4823903 1.0639473 -1.0551361 2.854672 0.84202915 -3.0285144 -1.9715873
949 -2.5417418 1.840144 0.464585 -0.11883816 -0.91220665 -0.10981184 2.8152 0.4433213 -2.6607416 2.8962452
208 3.645984 1.6269442 2.4355817 -4.2088985 -1.1663296 -1.4988445 3.395516 0.67268664 0.37116617 0.76398134
156 0.16427024 0.28051135 0.3574125 -0.60034865 -0.19927265 -0.9617501 1.5558953 -0.012217874 -0.27371496 -0.7252854
503 1.95294 0.94212854 -1.2783808 -0.52173233 -1.2626609 0.66551584 2.9341314 -1.3862642 -2.063157 3.453326
280 0.98697823 0.7850978 0.53496647 -2.2276585 -0.5175059 -0.11845082 1.5730605 -1.0089749 1.699018 -0.46302354
1020 -1.371343 1.150329 -1.9804354 -2.2641032 1.350153 2.208797 0.6234408 -1.4069518 -2.9283288 -1.2793326
1051 0.30705538 4.011755 -2.441855 1.4154583 1.9681952 -1.346288 3.0918741 -0.5914885 0.4792805 -0.71985334
316 -0.75868493 0.6841139 0.7208597 -2.3849392 -4.3849525 1.868696 3.8750684 -0.56026614 -1.768776 1.413099
986 -1.3825086 3.0804188 -2.1192837 -1.8043106 -0.08834776 -0.379903 2.9067178 0.57837796 -0.17140903 -1.1592956
671 -0.9181051 0.80105954 0.01369157 -0.7150916 -0.6736829 -1.0636085 2.2155166 0.36944422 -1.8339338 -0.54102254
524 -1.9662243 1.2555305 -2.1806788 -2.670458 1.726772 2.7097967 1.4849604 -0.736941 -2.660675 -0.908574
39 -2.765857 1.975084 -2.2419138 -0.64830345 1.1327027 0.4501867 2.1888077 -4.3270044 -0.3847489 -2.2896545
424 -1.8842587 0.8140546 4.066233 -2.3727164 3.0318675 0.6715447 0.5902758 -2.371543 -0.97564393 -0.70635444
1227 -0.23064442 2.0002878 2.1608937 -0.26526505 -0.19102673 1.8459424 -0.1649381 -3.7602518 -2.0741832 -0.54975235
663 1.1318781 0.9104471 0.625518 -2.3504646 -0.45017198 -0.34874192 1.6817789 -1.1107856 1.8339418 -0.4122335
317 -0.786023 0.7541369 0.49486896 -2.4336417 -4.3707666 1.6781554 3.6626527 -0.5660892 -1.6378887 1.5317265
425 -1.8556383 0.7450547 3.9395785 -2.345006 3.0374625 0.5728729 0.60032296 -2.3072066 -1.0630163 -0.9445012
184 1.9355692 1.9290396 2.1138859 -0.8321162 2.7372808 1.1814411 1.1534208 -1.7332612 2.4812639 0.50072205
523 -2.1291902 1.4739127 -2.1547954 -2.6096344 1.7896005 2.3746436 1.4805653 -0.5726073 -2.7479367 -0.9685893
334 0.1547111 0.40921882 0.23283824 -0.19056538 -0.49377894 -0.7521632 1.5365338 -0.008812956 -0.36441764 -0.66809773
101 0.27786338 4.07223 -2.6305397 1.2306744 1.9236658 -1.5257449 3.1096525 -0.7957121 0.46967587 -0.651637
984 -1.4709303 2.9280019 -1.9891969 -1.9528844 -0.05442827 -0.20533685 3.0077076 0.5920815 0.07038019 -1.2270006
939 1.558388 0.5211745 1.2613583 -2.1609437 -0.13366693 0.8956761 4.4959702 0.8127005 2.272305 1.73947
1015 0.96770346 4.440843 0.33431914 -1.3335955 1.1451232 -1.2985483 -0.93758714 -2.2562544 -2.423509 1.9927762
1306 -0.025326693 1.0402317 -0.24097204 -0.294738 -0.07242977 -0.85029083 2.032973 0.7009787 -0.2494658 -0.6503369
1307 -0.018660268 1.0211565 -0.20483607 -0.16548741 -0.07188631 -0.8237948 2.0117817 0.65649635 -0.13429837 -0.6284656
1016 0.84071815 4.370632 0.42784977 -1.2747071 1.1316373 -0.980713 -0.844189 -2.187359 -2.266908 2.5325963
828 -0.1410901 1.4846482 2.187179 0.5297267 3.6010332 3.2214472 3.494313 1.4951645 0.6125885 -1.6500682
486 0.8479004 2.1796236 1.9979459 -2.1974497 0.18425229 -0.43448398 -0.57797956 -1.7870643 -0.83461076 -1.2760245
709 0.64849055 3.6631143 -2.138621 1.3624352 1.8229342 -1.232232 2.370315 -0.9048692 0.050670035 -0.44047865
829 -0.07464386 1.4972193 2.142514 0.18072398 3.8286471 3.1694689 3.5229669 1.7467375 0.7716487 -1.5231378
406 -1.451845 2.4140317 0.3930855 0.46821994 -0.09582039 0.39338395 0.9106663 -1.3731222 -0.08364202 1.813002
485 -0.05015975 0.47722423 0.5042707 -0.020889308 -0.32289064 -0.97362596 1.617976 -0.074916355 -0.65510803 -0.7112798
405 -1.3999647 2.1809685 0.5686784 0.5956892 -0.030942721 0.15302292 0.9862061 -1.1578531 -0.24607041 1.5987204
888 -1.3517222 1.6554484 0.3202002 0.4442933 -0.4159222 0.67339617 1.0352856 -1.2687131 -0.002492099 1.5131612
560 -1.6745559 1.8141497 0.28977144 0.32079834 -0.567394 0.8848296 1.0499579 -0.9693499 -0.32165924 1.2408596
374 -1.5298073 2.1358204 0.49574152 0.8262421 -0.17526633 0.8778277 1.2307934 -1.6953433 0.040474337 1.4246973
987 -1.4841594 3.0232956 -2.0209055 -2.0415702 -0.01080556 -0.22406287 3.0778456 0.91863877 -0.4021351 -1.1061417
1040 0.7902147 0.4798777 -0.57911336 -0.35140672 -0.7299328 -0.1790324 1.0618347 -1.5075697 0.14271493 -0.7838011
1228 -0.37340093 1.839077 2.3317125 -0.23529854 -0.19091927 1.8163333 -0.01629439 -3.6917439 -1.9475746 -0.7099261
1033 0.46113896 2.489109 0.10731134 0.9457294 -0.064039364 0.49865115 0.98254716 -1.0155655 1.1072576 0.23486175
386 0.371374 2.500388 0.4333871 0.86644536 -0.47554258 0.44772407 0.8423536 -0.74981624 1.001116 0.24814871
192 0.4186848 -0.028803822 0.5741967 0.010819433 -0.21429665 -1.2155415 1.7898175 -0.4324392 -1.1302085 -0.09810402
375 -1.6003023 2.0268254 0.17575257 0.71360934 -0.018509557 0.98958445 1.3926654 -1.6823689 0.0206774 1.6693938
1034 0.6132997 2.3846564 0.03306491 0.8803729 0.03995949 0.56909764 0.95643044 -0.9700772 1.0766951 0.28488648
1091 1.0993383 1.8748084 3.0152116 0.39922217 1.8982124 1.1418144 0.12828965 -3.2631152 -1.736663 1.922482
1092 1.0681213 2.0133853 3.0392609 0.3383226 1.8519518 1.1664935 0.09468963 -3.487039 -1.9048641 2.0814312
218 -0.6641067 3.4037924 1.735392 -0.16810255 2.1739533 0.805846 1.1384075 0.9621767 1.4665006 0.5529455
668 1.1936285 0.9835475 -0.66420174 -0.5984676 -0.68767375 -0.16565922 1.0107753 -1.4614975 0.599397 -0.9122739
1208 0.26432487 0.7465779 2.0878031 0.28710505 1.3916088 1.6562567 0.1883488 -2.5395083 -1.4942632 0.7425514
955 1.5562319 1.2375009 0.47459382 -2.650987 -0.34486 0.5626521 4.555817 0.78832763 2.2620258 1.789889
69 -0.06368464 0.9844744 -0.28632358 -1.2286289 -0.36451966 0.17398979 1.372723 -0.9581483 0.58323026 -2.0181289
669 0.75687253 0.5267097 -0.62931323 -0.40283695 -0.69009984 -0.14174739 0.98409003 -1.4636074 0.057193585 -0.83975565
1270 2.231327 0.27226433 -0.7589234 -0.23144458 1.4568212 -0.9091181 2.1174169 -2.1729465 -2.4167643 -1.3532608
188 1.801809 2.004142 0.01654774 -2.0194316 -0.6108674 0.5150343 -0.46335655 -0.6741822 -1.1489198 0.57096523
954 1.6764532 1.2758591 0.71306634 -3.0704548 -0.3405676 0.7174699 4.2735257 0.9461696 2.207183 1.6147281
540 0.7786112 0.45474637 -0.5857089 -0.3779014 -0.7976567 -0.1724407 1.110997 -1.5441593 0.09666223 -0.7506931
1245 0.9543623 -0.6352735 -1.8426802 -0.7030669 1.7874793 -1.1849605 3.3872042 -1.8565819 0.15691346 2.0677063
667 1.199351 0.9694891 -0.38548732 -0.63263494 -0.5432605 -0.14807937 0.8884686 -1.4555317 0.5392485 -1.0085131
1130 0.877399 2.9001153 0.38684136 0.42400533 -0.37834442 0.13593605 0.74380726 -0.2098838 1.1450989 0.55229473
426 0.5861078 0.92316294 -0.0814112 0.38626638 0.13995418 -0.06403636 0.892729 -0.5946646 0.8093995 -0.49555558
935 -0.16136791 0.45975778 -0.18184356 -0.97849 -0.535357 1.0317826 0.56052154 -1.7858269 -0.18513918 -1.2502894
416 0.9039278 3.110465 -0.10972527 -2.0734003 0.40690926 -0.5290393 -0.9996472 -1.4728727 -1.6680561 0.99934477
77 -0.7644382 2.163952 0.18319362 0.87599033 -0.30792 0.9229998 0.8200626 -0.8781834 -0.20221505 1.1059417
133 0.82503086 0.5146481 0.116544135 -1.2724986 -0.4975947 -0.20423505 1.0051068 -1.2282696 0.9479129 -0.6742656
434 -1.6788865 1.1896542 -0.9051026 -0.9819872 0.6136507 0.59212446 1.3117083 -2.535351 0.4049365 -1.6415737
154 0.24504693 0.29424855 0.5380227 -0.8595476 -0.23110503 -1.1071883 1.7056254 0.05035343 -0.21369308 -0.73013765
889 -1.5801042 2.0678542 0.34370148 0.4595523 -0.27598068 0.7080506 1.1635755 -1.1378604 0.11879431 1.7043403
858 1.7428175 0.021513557 2.1697693 -0.3419725 -2.1246114 2.9837542 2.6322029 -1.2056234 -0.14105178 0.15392144
838 1.16361 2.18874 -0.17451188 -2.7767467 0.0147155365 0.23985974 -0.6172222 -0.9519602 -1.2258748 0.82475626
415 1.0262923 2.1103518 -0.14831427 -2.7926385 -0.09735285 0.20691366 -0.6189649 -0.86449623 -1.0420629 0.7883934
1047 3.0568616 1.168404 1.4516581 -0.6735197 0.52108204 -1.2405847 2.0563533 0.46406335 -2.5118074 -1.0890964
871 1.2200284 0.48029533 1.4895977 -1.8705059 1.1386077 -2.3287745 2.0163317 0.1715973 -1.9617962 0.7318884
680 0.10782484 1.6287035 -1.920641 -1.9823618 1.3058417 0.9517758 2.9387956 1.7499908 -0.7302915 -1.0788845
682 0.08225788 1.6387827 -1.8333291 -1.8976322 1.4286429 0.8263927 2.778938 1.71462 -0.6866945 -1.0234643
786 1.685555 1.2727196 -0.85200924 -2.0527766 -0.042803593 1.2715734 0.5920098 -2.8425138 0.23228589 0.22883628
253 0.44211 -0.020948725 0.16152023 -0.9402815 -0.43639746 -0.97157484 1.7152196 -0.0015545955 -1.0218474 -0.24108848
252 0.50746256 -0.012706619 0.19863303 -0.9445177 -0.46193162 -1.0293584 1.7266344 -0.04059756 -1.0616548 -0.2924319
1221 0.8109716 0.16130318 -0.20936376 -0.29419935 0.58751005 -0.39171764 1.1800216 -0.64250827 0.43519 -0.8914813
226 1.6786332 2.48262 -2.5547087 -0.3045444 2.3064127 0.48772904 0.94658035 -0.24637532 -0.68582755 0.30788034
887 0.70859486 0.73655367 -0.51084244 -0.8772809 -0.55263984 -0.13174306 1.124982 -1.2450471 0.4634203 -1.4442545
62 3.346822 0.99582857 2.157446 -3.8791857 -0.8579069 -1.012347 2.8599775 -0.5225517 0.9959168 0.4945926
685 1.3142428 3.1752222 0.529286 2.382989 0.25070864 1.0086844 1.7132081 -0.08321161 -0.46512163 -0.40846634
340 1.0942336 -0.30249974 1.8542348 -0.67402256 -1.4467316 3.2426147 3.0684335 -0.6010275 0.4072091 0.48593882
953 3.2110643 0.95267063 1.8689456 -3.8274977 -0.8444614 -0.94842213 2.805712 -0.41601175 1.029617 0.53118944
1078 1.6749026 0.61982733 0.9075578 -0.13453838 -0.09925825 -1.0671364 1.5802146 0.16127002 -1.7785952 -0.68057644
536 -0.040377825 0.55967796 0.86274624 -1.4612389 -0.046810124 -0.86715114 1.0479777 0.20581296 0.13838294 -0.39175922
1120 -0.4348722 0.12789977 0.69193643 -2.7204769 0.68936104 -0.16242445 0.66916704 -1.048555 -0.1967116 1.7761496
228 -0.8152297 0.513877 0.7455727 -4.324012 0.9265017 -0.05980435 1.0716817 -1.8108575 0.15858723 2.2353044
471 -1.2415723 0.9964939 1.1431944 -1.0841774 0.082982525 -0.68104523 2.7775106 1.4135319 -2.4755607 -0.24768695
535 0.10096878 0.60418046 0.789848 -1.2631211 -0.022100331 -0.87763673 1.1452087 0.31057554 0.2582612 -0.28334934
868 -0.6208402 0.0714852 -0.2729316 -1.057804 -0.9358976 0.40695903 1.5530294 -0.035322513 -0.44514307 -0.5609411
229 -0.80876607 0.49669787 0.84624976 -4.2566023 1.0726211 -0.07229735 0.94562125 -1.7266467 -0.024267409 2.062145
342 -2.2266157 -0.54274184 0.14455868 0.70428824 1.319539 -0.61372346 4.810733 -2.6013548 0.5751939 -0.91831464
883 -0.10907157 -0.079362355 0.84483683 0.3908384 0.26680246 -1.2972238 1.7575175 -1.3750746 -1.0293777 -0.44751194
1121 -0.18735754 0.27781948 0.671424 -2.5047562 1.0296298 -0.21923007 0.63838375 -0.9100591 0.08058676 1.6000736
422 -2.3428867 2.1201057 2.1858644 -2.0727644 1.1342167 -1.3225213 0.4585716 -3.338372 -2.3609562 -2.059119
748 0.43830472 0.12521534 0.36697248 -0.19099653 -0.43028942 -1.0448537 1.3101065 -0.47886065 -0.9255007 -0.04303122
968 -0.21909109 0.62201804 0.3417593 0.07157457 -0.4166999 -0.79589564 2.0185502 0.39414045 -0.3752321 -0.32337314
879 -2.7786648 2.4016447 1.0392286 -0.22794837 -0.06790353 -1.4400668 3.1245253 1.0072054 -3.1098554 2.946734
1050 -0.12098836 0.60375196 0.4025145 -0.031621188 -0.4382014 -0.84935194 2.1964014 0.46235135 -0.41861913 -0.38401145
963 -1.9645948 1.5607729 -1.5814534 -2.4135487 0.93224573 1.8397162 0.6335599 -1.0131339 -1.9322596 -1.0087311
882 -0.19631399 -0.10223499 1.1558098 0.15679483 0.2931251 -1.2975649 1.7397374 -1.1660951 -0.95359564 -0.3911795
947 -0.14401789 0.45095295 0.8841484 -1.3366936 0.2191015 -1.2006147 0.88896286 -0.33141243 -0.063083895 -0.37430328
912 -0.014424493 0.7839434 0.52389735 -0.3092157 -0.4906048 -0.71962965 1.5171479 0.37828872 -0.57313323 -0.8063622
198 0.13138585 0.20458597 0.40269217 -0.4021813 -0.3962121 -0.868449 1.4758042 -0.12826882 -0.7010322 -0.75487006
463 -2.0059419 2.062048 2.2230287 -1.9817835 1.2980402 -1.2652881 0.22198193 -3.0030515 -2.5000036 -1.8287475
991 0.8399504 0.41473305 1.100334 -1.2446481 -0.46155718 1.6144527 3.3506453 0.72719884 1.5665995 1.2412289
225 0.010587934 0.8331979 -0.017994456 -0.6012584 -0.29700074 -0.5449744 1.3875415 0.6378217 -1.3049971 -0.8531133
902 0.042798538 2.6140494 2.2628407 -3.0411084 0.37605637 -0.95254755 -0.51945436 -2.3902178 -1.3357387 -1.5083771
904 0.57424074 0.28046077 1.3060375 -1.6112888 -0.42855072 4.6374264 1.9932613 -3.0196605 0.5132183 2.2384346
836 -0.20022644 0.4124106 1.0622095 0.002718169 -0.10143994 -1.3660836 1.5993475 -0.71508604 -0.40884957 -0.5926248
147 0.41568238 3.881428 -2.2997677 1.2334547 1.6359255 -1.240581 2.5619824 -0.5089918 0.20508675 -0.36276764
368 2.2168305 0.5260337 -0.72498846 -0.46192998 1.48147 -1.0737576 1.8360977 -1.6556246 -2.196449 -1.4943614
948 -0.027274175 0.50666946 1.0122902 -1.2931406 0.23567365 -1.2137725 0.83342296 -0.26150605 -0.21991952 -0.17093155
633 0.5153257 0.21897426 0.6936724 -0.032204527 -0.036977332 -0.7627251 1.3250859 0.17346288 -0.9860259 -0.29561383
1025 0.5190389 0.029686764 0.1888162 -0.81843084 -0.5280853 -0.95887744 1.6994537 -0.07050154 -0.9657525 -0.40849262
134 -1.8523538 1.3943918 -1.4687825 -2.44194 0.9449794 1.7275447 0.6045487 -0.9302962 -1.8958166 -0.909144
962 -1.5908202 0.8555891 -1.8993187 -2.3691435 1.3440695 2.4219956 0.76335186 -2.2939897 -3.3008401 -0.9285265
1002 2.538014 2.5017476 0.13889672 -1.5429996 -1.2172618 0.77610195 -0.3065786 -1.1784097 -1.1744372 0.2700379
585 -1.7310109 1.4784162 -2.0783148 -2.2788448 1.4731646 2.48075 1.2182353 -0.69307536 -2.5276277 -1.1884418
1238 -0.83294207 1.3016281 -0.37727943 -1.6814677 -0.28889847 0.61843747 1.5715593 -1.2405999 0.69844854 -2.2273328
1136 -2.4387681 1.7038008 0.22806865 -0.07452595 -0.8698357 0.2808556 2.4507222 0.14847165 -1.6172539 2.4717355
542 -1.7587466 1.4243157 -1.4609426 -2.3491635 0.94737285 1.8341681 0.581743 -0.98509216 -1.918381 -0.98115426
370 0.37259492 -0.831607 -1.2842764 -0.79444546 1.9607794 -1.1398716 3.8128316 -2.8857617 1.0601798 1.8573121
313 1.7418867 1.6002747 -0.90522134 -0.09486369 0.044451382 0.62141645 1.9722303 -0.81529725 -0.99771464 3.3364053
307 1.8324835 1.6116468 -0.9862601 -0.29406753 -0.012419097 0.7561558 2.0409214 -0.7899871 -0.9283235 3.4216988
98 -0.7562192 1.3300831 -0.27061492 -1.6561767 -0.34355956 0.6117742 1.4692379 -1.2085098 0.67855275 -2.130811
664 -0.8713779 1.2976528 -0.23505406 -1.701458 -0.23530969 0.5593976 1.4141806 -1.2009121 0.5965141 -2.1039488
897 -1.5876667 1.397183 -2.1114502 -2.3511214 1.5670891 2.281291 1.0641145 -0.6658792 -2.3679187 -1.1740978
689 -1.1592835 -0.6182184 -0.5321496 0.27243605 1.0739732 -0.80271286 3.868629 -2.0755172 0.46756732 -0.7514942
177 0.5356291 0.42537814 -0.799467 -0.8321228 -0.120479695 1.4497133 1.2279934 -2.9880583 0.38962546 -0.5449128
1029 1.6232173 1.1000272 1.1342139 -2.223502 -0.19449015 -0.44578457 1.8043538 -1.3166807 2.277849 0.030482922
305 0.06980968 1.6335579 2.1573422 0.2200966 -0.14704834 1.5154911 0.08635293 -3.6954384 -2.1388292 -0.585239
792 0.5034771 0.7208864 -0.18823321 -1.0915731 -0.56490487 0.71518403 0.22585095 -1.8116716 -0.18503514 -0.993353
464 1.0119101 3.163226 0.15754804 0.24988693 -0.60939896 -0.044756737 0.68549347 -0.40574145 1.2615428 0.47027117
157 -1.1638278 0.8087236 -0.41243947 -0.9896193 0.311526 0.7057969 1.0743985 -1.8946632 0.39376462 -1.4171307
627 1.2936906 -0.32424393 -0.6076782 -2.6046393 3.2621481 0.25552422 3.0113583 -0.77650505 0.5868632 -1.2194076
969 0.6892307 -0.77092314 -1.8225944 -0.66890013 1.5335362 -1.0150485 3.1115873 -2.2278323 0.19774559 1.6987356
282 -0.23028983 0.69986373 2.4611945 -1.1173569 2.1507308 0.59645027 -0.03244214 -2.8597083 -1.2677019 0.026031436
1148 0.8225236 1.9037124 -0.60362935 -0.68787557 0.6833788 0.16098635 1.9844962 -0.27543563 -0.8515162 3.8099651
468 0.7902644 -0.83327377 -1.9024913 -0.6987551 1.5807425 -0.938606 3.1414154 -2.331938 0.19453321 1.6369655
716 1.2370751 2.699694 -1.7859911 -0.33489704 2.4117506 -0.557284 0.97277236 -0.5679809 0.6770938 0.7827306
132 0.43120155 1.0791965 -0.08276431 -0.80491203 -0.34539333 -0.44113937 1.235108 0.7466286 -1.1845735 -0.9668712
100 0.28162786 0.91587555 0.44913894 -1.8079545 0.18465039 0.1196113 -0.071921885 -1.8918052 -0.32055596 -1.1950512
1289 -0.68093336 1.0944227 0.7993734 1.0019206 1.3463706 1.0862226 0.73999614 -1.560267 -1.1759354 1.224842
880 1.2311219 1.5629817 1.7339084 -0.41563877 2.068679 0.82707393 1.2589208 -1.4578626 2.2222137 0.600127
215 0.26681578 0.929436 1.9233689 0.45876935 1.4320313 1.3081976 0.10853898 -2.2929993 -1.4804473 0.82154155
686 2.002494 3.808843 0.5260552 2.613981 0.44522458 1.5319239 2.0024803 0.015386538 -0.8736864 -0.6158016
219 -1.1980292 -0.51248807 -0.3642269 0.29628497 0.97800124 -0.92245585 3.8975677 -1.8960884 0.54007995 -0.79599667
637 0.74533033 1.193834 -0.5352266 -1.2891725 -0.52353024 0.7035538 0.3257304 -2.2814991 0.25012833 -0.43617567
180 1.238229 1.5959514 1.7108263 -0.27511984 2.1586323 0.8903542 1.2179742 -1.550221 2.102721 0.41301748
1145 1.4062527 0.80375326 0.59220415 -2.6793017 -0.13464183 0.5876735 4.3606486 0.85364544 2.1211154 1.5686505
1174 1.0221627 3.1360319 0.05118367 0.20992455 -0.49676403 -0.18058962 0.65410876 -0.28844061 1.1847572 0.5042267
851 0.28794184 0.9276166 1.8015692 0.4364808 1.359019 1.2700949 0.024029106 -2.2621653 -1.5504478 0.8090619
930 1.7414082 1.6424036 0.5329533 -0.591894 -1.4547235 0.9551584 0.038266957 -1.996476 -1.0059373 -0.113015436
1012 0.6295226 -0.85886467 -1.8444717 -0.8014389 1.4903334 -1.0749243 3.1609743 -2.2044017 0.13053982 1.729113
852 0.602567 2.3446057 -0.35837284 -3.3753204 0.2054685 -0.21650267 -0.236599 -0.26779076 -1.5564524 1.6876582
76 0.5198605 0.94578606 -0.26970848 -1.1710577 -0.34695125 -0.20911704 1.480071 -1.1098472 0.6932995 -1.9961615
310 -0.6348978 1.9328325 0.75269824 0.22872207 0.57505757 0.04230007 1.6177729 -1.0551814 -0.8349463 3.473415
1285 1.7898978 -0.2377775 2.2776527 -0.690562 -2.3272305 3.5376923 2.7264555 -1.7464266 -0.5216734 0.47852075
331 2.7933023 1.165818 1.5594164 -0.5176212 0.35697463 -1.2317793 1.8222787 0.44444317 -2.2821367 -0.7419609
911 2.3111835 0.0900116 -0.81167954 0.1894034 1.3024839 -0.5391672 2.2458353 -2.6221814 -2.4178662 -1.1775222
665 0.77647966 0.53765 -0.6655028 0.038906407 -0.98467857 -0.37561238 1.4552814 -1.6635226 -0.24981669 -0.71815926
1027 0.8072323 0.59405243 -0.43031722 -0.5586919 -0.6724939 -0.059284434 0.9259107 -1.4004813 0.35467753 -0.92720634
856 2.0512435 0.6061452 1.9988638 -1.9709582 1.5878124 -2.647254 2.5850146 0.054712217 -2.470739 1.0993841
376 -1.3348737 1.826233 0.35359576 0.54531515 -0.35363722 0.5963911 1.057177 -1.1230935 0.037676815 1.5095658
909 0.87268513 0.5066248 1.3420742 0.31221727 2.5932877 3.194003 1.8503858 0.29445747 -1.3834689 -0.9873878
605 0.93683565 -0.2181673 -0.030918978 -0.7645308 0.83972156 -0.45628986 1.2754186 -0.5785913 -0.4369185 -1.1007035
1232 0.7537722 0.56412375 -0.34798926 -0.77216965 -0.5669095 -0.13176584 0.7898703 -1.3757539 0.38442427 -0.79974127
982 1.8980325 1.0839064 -1.0104499 -2.3165207 0.32209432 1.5147064 0.75010806 -3.0152562 0.035103425 0.37616393
1132 0.10544613 0.53318965 0.25184676 -0.3538729 -0.37726662 -0.7459259 1.5329971 0.37582308 -0.2869034 -0.5368251
550 -0.21527676 0.53868705 0.65728843 -1.0896783 0.0032335208 -0.85650814 0.9326355 0.070112795 0.17134044 -0.297409
238 0.71108747 1.8789124 1.7300531 -2.1640096 0.44572568 -0.28384975 -0.6469432 -1.402042 -1.0027672 -1.2646221
687 0.6728066 0.51018316 -0.31050706 -0.86835545 -0.5080587 -0.09288952 0.8777045 -1.3594108 0.38353974 -1.0344481
996 0.7883437 0.626238 -0.33368415 -0.84707886 -0.49816522 -0.120044805 0.8725637 -1.3905939 0.4208978 -1.1047393
1003 0.71677995 -0.675772 -1.607525 -0.5907539 1.496277 -0.9927525 3.0663252 -2.0306723 0.17548665 1.8054843
1198 -0.6231777 1.8198994 0.27921 -2.0837367 -0.9663924 0.5423209 1.743251 -1.0683573 1.0616982 -2.1849928
884 0.2338701 1.7856938 0.9640028 -2.1707666 -0.95936084 -1.393494 1.6895274 -0.35645217 0.8601746 -0.1484156
131 0.20447053 0.83038336 1.2835004 -0.32501903 2.5489523 3.373335 1.8354332 0.7905392 -0.5732609 -1.104315
442 0.079229556 0.31043255 1.0457102 -0.9539158 -0.3554783 4.0024366 2.083571 -1.6065552 0.7009476 1.6549988
1181 0.21474324 0.86801565 1.7326647 0.4487968 1.4582882 1.1848826 0.103184246 -2.2247577 -1.4128627 0.7829866
781 1.8001016 0.51437014 1.8397226 -1.7963072 1.5895866 -2.447188 2.2816932 -0.026276631 -2.2381701 0.8889393
322 0.7676413 2.6292887 0.83622074 0.6327536 -0.2701574 0.71269655 1.010465 -0.092181265 1.1064944 0.6735948
1242 0.43697074 2.160239 0.12482279 0.8428997 -0.15293704 0.33124653 0.9478868 -0.8038908 1.0448407 0.16031915
363 -0.6332315 0.17643948 -0.62925404 -1.8457952 -1.2977201 1.1267179 1.5869814 -0.55732507 -0.70665187 -0.5744971
960 0.7573908 0.6142451 -0.12245151 -1.3305987 -0.36772037 0.67879033 0.32936743 -2.110107 -0.14370355 -0.8677483
380 -0.17877524 0.5644445 0.7207313 -1.236032 -0.017265968 -0.8460518 0.9204493 0.021964261 0.3222049 -0.22329986
323 -0.00016868702 0.46246928 0.31939557 -0.27460146 -0.38906142 -0.7739108 1.5880507 0.29625252 -0.36734885 -0.5628346
956 0.13479458 0.13796453 0.81217444 -0.4753797 0.2002242 -0.6811183 1.6145952 0.58419955 -0.42932308 -0.1654259
810 0.43296576 -0.20206515 0.6195149 -0.03163672 0.05768527 -1.0528198 1.7655021 -0.7622807 -1.0829698 -0.8790999
294 0.8521997 0.48490918 1.2850341 0.24827053 2.5826087 3.09563 1.6240637 0.057151385 -1.6712044 -1.2058984
563 1.109034 -0.6183367 0.60687494 -0.8153243 0.37339625 -0.99175835 1.9254185 -0.41374078 -1.968348 -0.041410986
816 1.678357 0.23301916 0.5397414 0.87262625 -0.25586373 -0.27557877 2.3901105 -0.58389944 -2.925024 -0.32694173
826 -0.094198294 0.6543527 0.73846614 -1.296985 -0.06132987 -0.8902036 0.7994109 -0.020120224 0.24857903 -0.1290543
799 -0.957129 1.149379 0.6721871 -0.6928853 0.46954224 -0.6946214 2.6527581 1.3984025 -2.336924 -0.5330761
